~o
<STREAMINFO> 1 13
<VECSIZE> 13<NULLD><MFCC_E><DIAGC>
~h "sil"
<BEGINHMM>
<NUMSTATES> 5
<STATE> 2
<MEAN> 13
 -1.082609e+001 1.333223e+000 6.865223e-001 -4.904832e-001 -1.234718e+000 6.010503e-001 -6.577793e-001 1.079493e+000 7.021572e-001 9.861636e-001 4.825374e-001 1.632181e-001 4.742789e-001
<VARIANCE> 13
 3.801786e+001 2.700796e+001 4.197438e+001 4.973067e+001 4.212939e+001 3.554879e+001 4.359517e+001 3.028733e+001 3.528684e+001 3.336886e+001 3.149876e+001 2.674153e+001 8.785716e-002
<GCONST> 6.434286e+001
<STATE> 3
<MEAN> 13
 -1.082609e+001 1.333223e+000 6.865223e-001 -4.904832e-001 -1.234718e+000 6.010503e-001 -6.577793e-001 1.079493e+000 7.021572e-001 9.861636e-001 4.825374e-001 1.632181e-001 4.742789e-001
<VARIANCE> 13
 3.801786e+001 2.700796e+001 4.197438e+001 4.973067e+001 4.212939e+001 3.554879e+001 4.359517e+001 3.028733e+001 3.528684e+001 3.336886e+001 3.149876e+001 2.674153e+001 8.785716e-002
<GCONST> 6.434286e+001
<STATE> 4
<MEAN> 13
 -1.082609e+001 1.333223e+000 6.865223e-001 -4.904832e-001 -1.234718e+000 6.010503e-001 -6.577793e-001 1.079493e+000 7.021572e-001 9.861636e-001 4.825374e-001 1.632181e-001 4.742789e-001
<VARIANCE> 13
 3.801786e+001 2.700796e+001 4.197438e+001 4.973067e+001 4.212939e+001 3.554879e+001 4.359517e+001 3.028733e+001 3.528684e+001 3.336886e+001 3.149876e+001 2.674153e+001 8.785716e-002
<GCONST> 6.434286e+001
<TRANSP> 5
 0.000000e+000 1.000000e+000 0.000000e+000 0.000000e+000 0.000000e+000
 0.000000e+000 6.000000e-001 4.000000e-001 0.000000e+000 0.000000e+000
 0.000000e+000 0.000000e+000 6.000000e-001 4.000000e-001 0.000000e+000
 0.000000e+000 0.000000e+000 0.000000e+000 6.000000e-001 4.000000e-001
 0.000000e+000 0.000000e+000 0.000000e+000 0.000000e+000 0.000000e+000
<ENDHMM>
~o
<STREAMINFO> 1 13
<VECSIZE> 13<NULLD><MFCC_E><DIAGC>
~h "ling"
<BEGINHMM>
<NUMSTATES> 5
<STATE> 2
<MEAN> 13
 -1.082609e+001 1.333223e+000 6.865223e-001 -4.904832e-001 -1.234718e+000 6.010503e-001 -6.577793e-001 1.079493e+000 7.021572e-001 9.861636e-001 4.825374e-001 1.632181e-001 4.742789e-001
<VARIANCE> 13
 3.801786e+001 2.700796e+001 4.197438e+001 4.973067e+001 4.212939e+001 3.554879e+001 4.359517e+001 3.028733e+001 3.528684e+001 3.336886e+001 3.149876e+001 2.674153e+001 8.785716e-002
<GCONST> 6.434286e+001
<STATE> 3
<MEAN> 13
 -1.082609e+001 1.333223e+000 6.865223e-001 -4.904832e-001 -1.234718e+000 6.010503e-001 -6.577793e-001 1.079493e+000 7.021572e-001 9.861636e-001 4.825374e-001 1.632181e-001 4.742789e-001
<VARIANCE> 13
 3.801786e+001 2.700796e+001 4.197438e+001 4.973067e+001 4.212939e+001 3.554879e+001 4.359517e+001 3.028733e+001 3.528684e+001 3.336886e+001 3.149876e+001 2.674153e+001 8.785716e-002
<GCONST> 6.434286e+001
<STATE> 4
<MEAN> 13
 -1.082609e+001 1.333223e+000 6.865223e-001 -4.904832e-001 -1.234718e+000 6.010503e-001 -6.577793e-001 1.079493e+000 7.021572e-001 9.861636e-001 4.825374e-001 1.632181e-001 4.742789e-001
<VARIANCE> 13
 3.801786e+001 2.700796e+001 4.197438e+001 4.973067e+001 4.212939e+001 3.554879e+001 4.359517e+001 3.028733e+001 3.528684e+001 3.336886e+001 3.149876e+001 2.674153e+001 8.785716e-002
<GCONST> 6.434286e+001
<TRANSP> 5
 0.000000e+000 1.000000e+000 0.000000e+000 0.000000e+000 0.000000e+000
 0.000000e+000 6.000000e-001 4.000000e-001 0.000000e+000 0.000000e+000
 0.000000e+000 0.000000e+000 6.000000e-001 4.000000e-001 0.000000e+000
 0.000000e+000 0.000000e+000 0.000000e+000 6.000000e-001 4.000000e-001
 0.000000e+000 0.000000e+000 0.000000e+000 0.000000e+000 0.000000e+000
<ENDHMM>
~o
<STREAMINFO> 1 13
<VECSIZE> 13<NULLD><MFCC_E><DIAGC>
~h "i"
<BEGINHMM>
<NUMSTATES> 5
<STATE> 2
<MEAN> 13
 -1.082609e+001 1.333223e+000 6.865223e-001 -4.904832e-001 -1.234718e+000 6.010503e-001 -6.577793e-001 1.079493e+000 7.021572e-001 9.861636e-001 4.825374e-001 1.632181e-001 4.742789e-001
<VARIANCE> 13
 3.801786e+001 2.700796e+001 4.197438e+001 4.973067e+001 4.212939e+001 3.554879e+001 4.359517e+001 3.028733e+001 3.528684e+001 3.336886e+001 3.149876e+001 2.674153e+001 8.785716e-002
<GCONST> 6.434286e+001
<STATE> 3
<MEAN> 13
 -1.082609e+001 1.333223e+000 6.865223e-001 -4.904832e-001 -1.234718e+000 6.010503e-001 -6.577793e-001 1.079493e+000 7.021572e-001 9.861636e-001 4.825374e-001 1.632181e-001 4.742789e-001
<VARIANCE> 13
 3.801786e+001 2.700796e+001 4.197438e+001 4.973067e+001 4.212939e+001 3.554879e+001 4.359517e+001 3.028733e+001 3.528684e+001 3.336886e+001 3.149876e+001 2.674153e+001 8.785716e-002
<GCONST> 6.434286e+001
<STATE> 4
<MEAN> 13
 -1.082609e+001 1.333223e+000 6.865223e-001 -4.904832e-001 -1.234718e+000 6.010503e-001 -6.577793e-001 1.079493e+000 7.021572e-001 9.861636e-001 4.825374e-001 1.632181e-001 4.742789e-001
<VARIANCE> 13
 3.801786e+001 2.700796e+001 4.197438e+001 4.973067e+001 4.212939e+001 3.554879e+001 4.359517e+001 3.028733e+001 3.528684e+001 3.336886e+001 3.149876e+001 2.674153e+001 8.785716e-002
<GCONST> 6.434286e+001
<TRANSP> 5
 0.000000e+000 1.000000e+000 0.000000e+000 0.000000e+000 0.000000e+000
 0.000000e+000 6.000000e-001 4.000000e-001 0.000000e+000 0.000000e+000
 0.000000e+000 0.000000e+000 6.000000e-001 4.000000e-001 0.000000e+000
 0.000000e+000 0.000000e+000 0.000000e+000 6.000000e-001 4.000000e-001
 0.000000e+000 0.000000e+000 0.000000e+000 0.000000e+000 0.000000e+000
<ENDHMM>
~o
<STREAMINFO> 1 13
<VECSIZE> 13<NULLD><MFCC_E><DIAGC>
~h "er"
<BEGINHMM>
<NUMSTATES> 5
<STATE> 2
<MEAN> 13
 -1.082609e+001 1.333223e+000 6.865223e-001 -4.904832e-001 -1.234718e+000 6.010503e-001 -6.577793e-001 1.079493e+000 7.021572e-001 9.861636e-001 4.825374e-001 1.632181e-001 4.742789e-001
<VARIANCE> 13
 3.801786e+001 2.700796e+001 4.197438e+001 4.973067e+001 4.212939e+001 3.554879e+001 4.359517e+001 3.028733e+001 3.528684e+001 3.336886e+001 3.149876e+001 2.674153e+001 8.785716e-002
<GCONST> 6.434286e+001
<STATE> 3
<MEAN> 13
 -1.082609e+001 1.333223e+000 6.865223e-001 -4.904832e-001 -1.234718e+000 6.010503e-001 -6.577793e-001 1.079493e+000 7.021572e-001 9.861636e-001 4.825374e-001 1.632181e-001 4.742789e-001
<VARIANCE> 13
 3.801786e+001 2.700796e+001 4.197438e+001 4.973067e+001 4.212939e+001 3.554879e+001 4.359517e+001 3.028733e+001 3.528684e+001 3.336886e+001 3.149876e+001 2.674153e+001 8.785716e-002
<GCONST> 6.434286e+001
<STATE> 4
<MEAN> 13
 -1.082609e+001 1.333223e+000 6.865223e-001 -4.904832e-001 -1.234718e+000 6.010503e-001 -6.577793e-001 1.079493e+000 7.021572e-001 9.861636e-001 4.825374e-001 1.632181e-001 4.742789e-001
<VARIANCE> 13
 3.801786e+001 2.700796e+001 4.197438e+001 4.973067e+001 4.212939e+001 3.554879e+001 4.359517e+001 3.028733e+001 3.528684e+001 3.336886e+001 3.149876e+001 2.674153e+001 8.785716e-002
<GCONST> 6.434286e+001
<TRANSP> 5
 0.000000e+000 1.000000e+000 0.000000e+000 0.000000e+000 0.000000e+000
 0.000000e+000 6.000000e-001 4.000000e-001 0.000000e+000 0.000000e+000
 0.000000e+000 0.000000e+000 6.000000e-001 4.000000e-001 0.000000e+000
 0.000000e+000 0.000000e+000 0.000000e+000 6.000000e-001 4.000000e-001
 0.000000e+000 0.000000e+000 0.000000e+000 0.000000e+000 0.000000e+000
<ENDHMM>
~o
<STREAMINFO> 1 13
<VECSIZE> 13<NULLD><MFCC_E><DIAGC>
~h "san"
<BEGINHMM>
<NUMSTATES> 5
<STATE> 2
<MEAN> 13
 -1.082609e+001 1.333223e+000 6.865223e-001 -4.904832e-001 -1.234718e+000 6.010503e-001 -6.577793e-001 1.079493e+000 7.021572e-001 9.861636e-001 4.825374e-001 1.632181e-001 4.742789e-001
<VARIANCE> 13
 3.801786e+001 2.700796e+001 4.197438e+001 4.973067e+001 4.212939e+001 3.554879e+001 4.359517e+001 3.028733e+001 3.528684e+001 3.336886e+001 3.149876e+001 2.674153e+001 8.785716e-002
<GCONST> 6.434286e+001
<STATE> 3
<MEAN> 13
 -1.082609e+001 1.333223e+000 6.865223e-001 -4.904832e-001 -1.234718e+000 6.010503e-001 -6.577793e-001 1.079493e+000 7.021572e-001 9.861636e-001 4.825374e-001 1.632181e-001 4.742789e-001
<VARIANCE> 13
 3.801786e+001 2.700796e+001 4.197438e+001 4.973067e+001 4.212939e+001 3.554879e+001 4.359517e+001 3.028733e+001 3.528684e+001 3.336886e+001 3.149876e+001 2.674153e+001 8.785716e-002
<GCONST> 6.434286e+001
<STATE> 4
<MEAN> 13
 -1.082609e+001 1.333223e+000 6.865223e-001 -4.904832e-001 -1.234718e+000 6.010503e-001 -6.577793e-001 1.079493e+000 7.021572e-001 9.861636e-001 4.825374e-001 1.632181e-001 4.742789e-001
<VARIANCE> 13
 3.801786e+001 2.700796e+001 4.197438e+001 4.973067e+001 4.212939e+001 3.554879e+001 4.359517e+001 3.028733e+001 3.528684e+001 3.336886e+001 3.149876e+001 2.674153e+001 8.785716e-002
<GCONST> 6.434286e+001
<TRANSP> 5
 0.000000e+000 1.000000e+000 0.000000e+000 0.000000e+000 0.000000e+000
 0.000000e+000 6.000000e-001 4.000000e-001 0.000000e+000 0.000000e+000
 0.000000e+000 0.000000e+000 6.000000e-001 4.000000e-001 0.000000e+000
 0.000000e+000 0.000000e+000 0.000000e+000 6.000000e-001 4.000000e-001
 0.000000e+000 0.000000e+000 0.000000e+000 0.000000e+000 0.000000e+000
<ENDHMM>
~o
<STREAMINFO> 1 13
<VECSIZE> 13<NULLD><MFCC_E><DIAGC>
~h "si"
<BEGINHMM>
<NUMSTATES> 5
<STATE> 2
<MEAN> 13
 -1.082609e+001 1.333223e+000 6.865223e-001 -4.904832e-001 -1.234718e+000 6.010503e-001 -6.577793e-001 1.079493e+000 7.021572e-001 9.861636e-001 4.825374e-001 1.632181e-001 4.742789e-001
<VARIANCE> 13
 3.801786e+001 2.700796e+001 4.197438e+001 4.973067e+001 4.212939e+001 3.554879e+001 4.359517e+001 3.028733e+001 3.528684e+001 3.336886e+001 3.149876e+001 2.674153e+001 8.785716e-002
<GCONST> 6.434286e+001
<STATE> 3
<MEAN> 13
 -1.082609e+001 1.333223e+000 6.865223e-001 -4.904832e-001 -1.234718e+000 6.010503e-001 -6.577793e-001 1.079493e+000 7.021572e-001 9.861636e-001 4.825374e-001 1.632181e-001 4.742789e-001
<VARIANCE> 13
 3.801786e+001 2.700796e+001 4.197438e+001 4.973067e+001 4.212939e+001 3.554879e+001 4.359517e+001 3.028733e+001 3.528684e+001 3.336886e+001 3.149876e+001 2.674153e+001 8.785716e-002
<GCONST> 6.434286e+001
<STATE> 4
<MEAN> 13
 -1.082609e+001 1.333223e+000 6.865223e-001 -4.904832e-001 -1.234718e+000 6.010503e-001 -6.577793e-001 1.079493e+000 7.021572e-001 9.861636e-001 4.825374e-001 1.632181e-001 4.742789e-001
<VARIANCE> 13
 3.801786e+001 2.700796e+001 4.197438e+001 4.973067e+001 4.212939e+001 3.554879e+001 4.359517e+001 3.028733e+001 3.528684e+001 3.336886e+001 3.149876e+001 2.674153e+001 8.785716e-002
<GCONST> 6.434286e+001
<TRANSP> 5
 0.000000e+000 1.000000e+000 0.000000e+000 0.000000e+000 0.000000e+000
 0.000000e+000 6.000000e-001 4.000000e-001 0.000000e+000 0.000000e+000
 0.000000e+000 0.000000e+000 6.000000e-001 4.000000e-001 0.000000e+000
 0.000000e+000 0.000000e+000 0.000000e+000 6.000000e-001 4.000000e-001
 0.000000e+000 0.000000e+000 0.000000e+000 0.000000e+000 0.000000e+000
<ENDHMM>
~o
<STREAMINFO> 1 13
<VECSIZE> 13<NULLD><MFCC_E><DIAGC>
~h "wu"
<BEGINHMM>
<NUMSTATES> 5
<STATE> 2
<MEAN> 13
 -1.082609e+001 1.333223e+000 6.865223e-001 -4.904832e-001 -1.234718e+000 6.010503e-001 -6.577793e-001 1.079493e+000 7.021572e-001 9.861636e-001 4.825374e-001 1.632181e-001 4.742789e-001
<VARIANCE> 13
 3.801786e+001 2.700796e+001 4.197438e+001 4.973067e+001 4.212939e+001 3.554879e+001 4.359517e+001 3.028733e+001 3.528684e+001 3.336886e+001 3.149876e+001 2.674153e+001 8.785716e-002
<GCONST> 6.434286e+001
<STATE> 3
<MEAN> 13
 -1.082609e+001 1.333223e+000 6.865223e-001 -4.904832e-001 -1.234718e+000 6.010503e-001 -6.577793e-001 1.079493e+000 7.021572e-001 9.861636e-001 4.825374e-001 1.632181e-001 4.742789e-001
<VARIANCE> 13
 3.801786e+001 2.700796e+001 4.197438e+001 4.973067e+001 4.212939e+001 3.554879e+001 4.359517e+001 3.028733e+001 3.528684e+001 3.336886e+001 3.149876e+001 2.674153e+001 8.785716e-002
<GCONST> 6.434286e+001
<STATE> 4
<MEAN> 13
 -1.082609e+001 1.333223e+000 6.865223e-001 -4.904832e-001 -1.234718e+000 6.010503e-001 -6.577793e-001 1.079493e+000 7.021572e-001 9.861636e-001 4.825374e-001 1.632181e-001 4.742789e-001
<VARIANCE> 13
 3.801786e+001 2.700796e+001 4.197438e+001 4.973067e+001 4.212939e+001 3.554879e+001 4.359517e+001 3.028733e+001 3.528684e+001 3.336886e+001 3.149876e+001 2.674153e+001 8.785716e-002
<GCONST> 6.434286e+001
<TRANSP> 5
 0.000000e+000 1.000000e+000 0.000000e+000 0.000000e+000 0.000000e+000
 0.000000e+000 6.000000e-001 4.000000e-001 0.000000e+000 0.000000e+000
 0.000000e+000 0.000000e+000 6.000000e-001 4.000000e-001 0.000000e+000
 0.000000e+000 0.000000e+000 0.000000e+000 6.000000e-001 4.000000e-001
 0.000000e+000 0.000000e+000 0.000000e+000 0.000000e+000 0.000000e+000
<ENDHMM>
~o
<STREAMINFO> 1 13
<VECSIZE> 13<NULLD><MFCC_E><DIAGC>
~h "liou"
<BEGINHMM>
<NUMSTATES> 5
<STATE> 2
<MEAN> 13
 -1.082609e+001 1.333223e+000 6.865223e-001 -4.904832e-001 -1.234718e+000 6.010503e-001 -6.577793e-001 1.079493e+000 7.021572e-001 9.861636e-001 4.825374e-001 1.632181e-001 4.742789e-001
<VARIANCE> 13
 3.801786e+001 2.700796e+001 4.197438e+001 4.973067e+001 4.212939e+001 3.554879e+001 4.359517e+001 3.028733e+001 3.528684e+001 3.336886e+001 3.149876e+001 2.674153e+001 8.785716e-002
<GCONST> 6.434286e+001
<STATE> 3
<MEAN> 13
 -1.082609e+001 1.333223e+000 6.865223e-001 -4.904832e-001 -1.234718e+000 6.010503e-001 -6.577793e-001 1.079493e+000 7.021572e-001 9.861636e-001 4.825374e-001 1.632181e-001 4.742789e-001
<VARIANCE> 13
 3.801786e+001 2.700796e+001 4.197438e+001 4.973067e+001 4.212939e+001 3.554879e+001 4.359517e+001 3.028733e+001 3.528684e+001 3.336886e+001 3.149876e+001 2.674153e+001 8.785716e-002
<GCONST> 6.434286e+001
<STATE> 4
<MEAN> 13
 -1.082609e+001 1.333223e+000 6.865223e-001 -4.904832e-001 -1.234718e+000 6.010503e-001 -6.577793e-001 1.079493e+000 7.021572e-001 9.861636e-001 4.825374e-001 1.632181e-001 4.742789e-001
<VARIANCE> 13
 3.801786e+001 2.700796e+001 4.197438e+001 4.973067e+001 4.212939e+001 3.554879e+001 4.359517e+001 3.028733e+001 3.528684e+001 3.336886e+001 3.149876e+001 2.674153e+001 8.785716e-002
<GCONST> 6.434286e+001
<TRANSP> 5
 0.000000e+000 1.000000e+000 0.000000e+000 0.000000e+000 0.000000e+000
 0.000000e+000 6.000000e-001 4.000000e-001 0.000000e+000 0.000000e+000
 0.000000e+000 0.000000e+000 6.000000e-001 4.000000e-001 0.000000e+000
 0.000000e+000 0.000000e+000 0.000000e+000 6.000000e-001 4.000000e-001
 0.000000e+000 0.000000e+000 0.000000e+000 0.000000e+000 0.000000e+000
<ENDHMM>
~o
<STREAMINFO> 1 13
<VECSIZE> 13<NULLD><MFCC_E><DIAGC>
~h "qi"
<BEGINHMM>
<NUMSTATES> 5
<STATE> 2
<MEAN> 13
 -1.082609e+001 1.333223e+000 6.865223e-001 -4.904832e-001 -1.234718e+000 6.010503e-001 -6.577793e-001 1.079493e+000 7.021572e-001 9.861636e-001 4.825374e-001 1.632181e-001 4.742789e-001
<VARIANCE> 13
 3.801786e+001 2.700796e+001 4.197438e+001 4.973067e+001 4.212939e+001 3.554879e+001 4.359517e+001 3.028733e+001 3.528684e+001 3.336886e+001 3.149876e+001 2.674153e+001 8.785716e-002
<GCONST> 6.434286e+001
<STATE> 3
<MEAN> 13
 -1.082609e+001 1.333223e+000 6.865223e-001 -4.904832e-001 -1.234718e+000 6.010503e-001 -6.577793e-001 1.079493e+000 7.021572e-001 9.861636e-001 4.825374e-001 1.632181e-001 4.742789e-001
<VARIANCE> 13
 3.801786e+001 2.700796e+001 4.197438e+001 4.973067e+001 4.212939e+001 3.554879e+001 4.359517e+001 3.028733e+001 3.528684e+001 3.336886e+001 3.149876e+001 2.674153e+001 8.785716e-002
<GCONST> 6.434286e+001
<STATE> 4
<MEAN> 13
 -1.082609e+001 1.333223e+000 6.865223e-001 -4.904832e-001 -1.234718e+000 6.010503e-001 -6.577793e-001 1.079493e+000 7.021572e-001 9.861636e-001 4.825374e-001 1.632181e-001 4.742789e-001
<VARIANCE> 13
 3.801786e+001 2.700796e+001 4.197438e+001 4.973067e+001 4.212939e+001 3.554879e+001 4.359517e+001 3.028733e+001 3.528684e+001 3.336886e+001 3.149876e+001 2.674153e+001 8.785716e-002
<GCONST> 6.434286e+001
<TRANSP> 5
 0.000000e+000 1.000000e+000 0.000000e+000 0.000000e+000 0.000000e+000
 0.000000e+000 6.000000e-001 4.000000e-001 0.000000e+000 0.000000e+000
 0.000000e+000 0.000000e+000 6.000000e-001 4.000000e-001 0.000000e+000
 0.000000e+000 0.000000e+000 0.000000e+000 6.000000e-001 4.000000e-001
 0.000000e+000 0.000000e+000 0.000000e+000 0.000000e+000 0.000000e+000
<ENDHMM>
~o
<STREAMINFO> 1 13
<VECSIZE> 13<NULLD><MFCC_E><DIAGC>
~h "ba"
<BEGINHMM>
<NUMSTATES> 5
<STATE> 2
<MEAN> 13
 -1.082609e+001 1.333223e+000 6.865223e-001 -4.904832e-001 -1.234718e+000 6.010503e-001 -6.577793e-001 1.079493e+000 7.021572e-001 9.861636e-001 4.825374e-001 1.632181e-001 4.742789e-001
<VARIANCE> 13
 3.801786e+001 2.700796e+001 4.197438e+001 4.973067e+001 4.212939e+001 3.554879e+001 4.359517e+001 3.028733e+001 3.528684e+001 3.336886e+001 3.149876e+001 2.674153e+001 8.785716e-002
<GCONST> 6.434286e+001
<STATE> 3
<MEAN> 13
 -1.082609e+001 1.333223e+000 6.865223e-001 -4.904832e-001 -1.234718e+000 6.010503e-001 -6.577793e-001 1.079493e+000 7.021572e-001 9.861636e-001 4.825374e-001 1.632181e-001 4.742789e-001
<VARIANCE> 13
 3.801786e+001 2.700796e+001 4.197438e+001 4.973067e+001 4.212939e+001 3.554879e+001 4.359517e+001 3.028733e+001 3.528684e+001 3.336886e+001 3.149876e+001 2.674153e+001 8.785716e-002
<GCONST> 6.434286e+001
<STATE> 4
<MEAN> 13
 -1.082609e+001 1.333223e+000 6.865223e-001 -4.904832e-001 -1.234718e+000 6.010503e-001 -6.577793e-001 1.079493e+000 7.021572e-001 9.861636e-001 4.825374e-001 1.632181e-001 4.742789e-001
<VARIANCE> 13
 3.801786e+001 2.700796e+001 4.197438e+001 4.973067e+001 4.212939e+001 3.554879e+001 4.359517e+001 3.028733e+001 3.528684e+001 3.336886e+001 3.149876e+001 2.674153e+001 8.785716e-002
<GCONST> 6.434286e+001
<TRANSP> 5
 0.000000e+000 1.000000e+000 0.000000e+000 0.000000e+000 0.000000e+000
 0.000000e+000 6.000000e-001 4.000000e-001 0.000000e+000 0.000000e+000
 0.000000e+000 0.000000e+000 6.000000e-001 4.000000e-001 0.000000e+000
 0.000000e+000 0.000000e+000 0.000000e+000 6.000000e-001 4.000000e-001
 0.000000e+000 0.000000e+000 0.000000e+000 0.000000e+000 0.000000e+000
<ENDHMM>
~o
<STREAMINFO> 1 13
<VECSIZE> 13<NULLD><MFCC_E><DIAGC>
~h "jiou"
<BEGINHMM>
<NUMSTATES> 5
<STATE> 2
<MEAN> 13
 -1.082609e+001 1.333223e+000 6.865223e-001 -4.904832e-001 -1.234718e+000 6.010503e-001 -6.577793e-001 1.079493e+000 7.021572e-001 9.861636e-001 4.825374e-001 1.632181e-001 4.742789e-001
<VARIANCE> 13
 3.801786e+001 2.700796e+001 4.197438e+001 4.973067e+001 4.212939e+001 3.554879e+001 4.359517e+001 3.028733e+001 3.528684e+001 3.336886e+001 3.149876e+001 2.674153e+001 8.785716e-002
<GCONST> 6.434286e+001
<STATE> 3
<MEAN> 13
 -1.082609e+001 1.333223e+000 6.865223e-001 -4.904832e-001 -1.234718e+000 6.010503e-001 -6.577793e-001 1.079493e+000 7.021572e-001 9.861636e-001 4.825374e-001 1.632181e-001 4.742789e-001
<VARIANCE> 13
 3.801786e+001 2.700796e+001 4.197438e+001 4.973067e+001 4.212939e+001 3.554879e+001 4.359517e+001 3.028733e+001 3.528684e+001 3.336886e+001 3.149876e+001 2.674153e+001 8.785716e-002
<GCONST> 6.434286e+001
<STATE> 4
<MEAN> 13
 -1.082609e+001 1.333223e+000 6.865223e-001 -4.904832e-001 -1.234718e+000 6.010503e-001 -6.577793e-001 1.079493e+000 7.021572e-001 9.861636e-001 4.825374e-001 1.632181e-001 4.742789e-001
<VARIANCE> 13
 3.801786e+001 2.700796e+001 4.197438e+001 4.973067e+001 4.212939e+001 3.554879e+001 4.359517e+001 3.028733e+001 3.528684e+001 3.336886e+001 3.149876e+001 2.674153e+001 8.785716e-002
<GCONST> 6.434286e+001
<TRANSP> 5
 0.000000e+000 1.000000e+000 0.000000e+000 0.000000e+000 0.000000e+000
 0.000000e+000 6.000000e-001 4.000000e-001 0.000000e+000 0.000000e+000
 0.000000e+000 0.000000e+000 6.000000e-001 4.000000e-001 0.000000e+000
 0.000000e+000 0.000000e+000 0.000000e+000 6.000000e-001 4.000000e-001
 0.000000e+000 0.000000e+000 0.000000e+000 0.000000e+000 0.000000e+000
<ENDHMM>
