~o <VecSize> 26 <MFCC_E_D_Z> <StreamInfo> 1 26 
<BeginHMM>
<NUMSTATES> 5
<STATE> 2<NUMMIXES> 1 
<STREAM> 1
<MIXTURE> 1 1.000000e+00
<MEAN> 26
0.0 0.0 0.0 0.0 0.0 0.0 0.0 0.0 0.0 0.0 0.0 0.0 0.0 0.0 0.0 0.0 0.0 0.0 0.0 0.0 0.0 0.0 0.0 0.0 0.0 0.0 
<VARIANCE> 26
1.0 1.0 1.0 1.0 1.0 1.0 1.0 1.0 1.0 1.0 1.0 1.0 1.0 1.0 1.0 1.0 1.0 1.0 1.0 1.0 1.0 1.0 1.0 1.0 1.0 1.0 
<STATE> 3<NUMMIXES> 1 
<STREAM> 1
<MIXTURE> 1 1.000000e+00
<MEAN> 26
0.0 0.0 0.0 0.0 0.0 0.0 0.0 0.0 0.0 0.0 0.0 0.0 0.0 0.0 0.0 0.0 0.0 0.0 0.0 0.0 0.0 0.0 0.0 0.0 0.0 0.0 
<VARIANCE> 26
1.0 1.0 1.0 1.0 1.0 1.0 1.0 1.0 1.0 1.0 1.0 1.0 1.0 1.0 1.0 1.0 1.0 1.0 1.0 1.0 1.0 1.0 1.0 1.0 1.0 1.0 
<STATE> 4<NUMMIXES> 1 
<STREAM> 1
<MIXTURE> 1 1.000000e+00
<MEAN> 26
0.0 0.0 0.0 0.0 0.0 0.0 0.0 0.0 0.0 0.0 0.0 0.0 0.0 0.0 0.0 0.0 0.0 0.0 0.0 0.0 0.0 0.0 0.0 0.0 0.0 0.0 
<VARIANCE> 26
1.0 1.0 1.0 1.0 1.0 1.0 1.0 1.0 1.0 1.0 1.0 1.0 1.0 1.0 1.0 1.0 1.0 1.0 1.0 1.0 1.0 1.0 1.0 1.0 1.0 1.0 
<TRANSP> 5
0.000000e+00 1.000000e+00 0.000000e+00 0.000000e+00 0.000000e+00 
0.000000e+00 6.000000e-01 4.000000e-01 0.000000e+00 0.000000e+00 
0.000000e+00 0.000000e+00 6.000000e-01 4.000000e-01 0.000000e+00 
0.000000e+00 0.000000e+00 0.000000e+00 6.000000e-01 4.000000e-01 
0.000000e+00 0.000000e+00 0.000000e+00 0.000000e+00 0.000000e+00 
<ENDHMM>