~o <VecSize> 26 <MFCC_E_D> <StreamInfo> 1 26 
<BeginHMM>
<NUMSTATES> 5
<STATE> 2<NUMMIXES> 1 
<STREAM> 1
<MIXTURE> 1 1.000000e+000
<MEAN> 26
0.0 0.0 0.0 0.0 0.0 0.0 0.0 0.0 0.0 0.0 0.0 0.0 0.0 0.0 0.0 0.0 0.0 0.0 0.0 0.0 0.0 0.0 0.0 0.0 0.0 0.0 
<VARIANCE> 26
1.0 1.0 1.0 1.0 1.0 1.0 1.0 1.0 1.0 1.0 1.0 1.0 1.0 1.0 1.0 1.0 1.0 1.0 1.0 1.0 1.0 1.0 1.0 1.0 1.0 1.0 
<STATE> 3<NUMMIXES> 1 
<STREAM> 1
<MIXTURE> 1 1.000000e+000
<MEAN> 26
0.0 0.0 0.0 0.0 0.0 0.0 0.0 0.0 0.0 0.0 0.0 0.0 0.0 0.0 0.0 0.0 0.0 0.0 0.0 0.0 0.0 0.0 0.0 0.0 0.0 0.0 
<VARIANCE> 26
1.0 1.0 1.0 1.0 1.0 1.0 1.0 1.0 1.0 1.0 1.0 1.0 1.0 1.0 1.0 1.0 1.0 1.0 1.0 1.0 1.0 1.0 1.0 1.0 1.0 1.0 
<STATE> 4<NUMMIXES> 1 
<STREAM> 1
<MIXTURE> 1 1.000000e+000
<MEAN> 26
0.0 0.0 0.0 0.0 0.0 0.0 0.0 0.0 0.0 0.0 0.0 0.0 0.0 0.0 0.0 0.0 0.0 0.0 0.0 0.0 0.0 0.0 0.0 0.0 0.0 0.0 
<VARIANCE> 26
1.0 1.0 1.0 1.0 1.0 1.0 1.0 1.0 1.0 1.0 1.0 1.0 1.0 1.0 1.0 1.0 1.0 1.0 1.0 1.0 1.0 1.0 1.0 1.0 1.0 1.0 
<TRANSP> 5
0.000000e+000 1.000000e+000 0.000000e+000 0.000000e+000 0.000000e+000 
0.000000e+000 6.000000e-001 4.000000e-001 0.000000e+000 0.000000e+000 
0.000000e+000 0.000000e+000 6.000000e-001 4.000000e-001 0.000000e+000 
0.000000e+000 0.000000e+000 0.000000e+000 6.000000e-001 4.000000e-001 
0.000000e+000 0.000000e+000 0.000000e+000 0.000000e+000 0.000000e+000 
<ENDHMM>
