~o
<STREAMINFO> 1 13
<VECSIZE> 13<NULLD><MFCC_E><DIAGC>
~h "i"
<BEGINHMM>
<NUMSTATES> 5
<STATE> 2
<NUMMIXES> 3
<MIXTURE> 1 2.500000e-001
<MEAN> 13
 -8.359745e+000 3.411990e+000 3.278028e+000 2.330316e+000 1.361568e+000 2.985962e+000 1.983286e+000 3.280850e+000 3.078266e+000 3.296795e+000 2.727488e+000 2.231707e+000 5.928417e-001
<VARIANCE> 13
 3.801786e+001 2.700796e+001 4.197438e+001 4.973067e+001 4.212939e+001 3.554879e+001 4.359517e+001 3.028733e+001 3.528684e+001 3.336886e+001 3.149876e+001 2.674153e+001 8.785716e-002
<GCONST> 6.434286e+001
<MIXTURE> 2 5.000000e-001
<MEAN> 13
 -1.205926e+001 2.938393e-001 -6.092305e-001 -1.900883e+000 -2.532861e+000 -5.914058e-001 -1.978312e+000 -2.118548e-002 -4.858973e-001 -1.691521e-001 -6.399378e-001 -8.710262e-001 4.149975e-001
<VARIANCE> 13
 3.801786e+001 2.700796e+001 4.197438e+001 4.973067e+001 4.212939e+001 3.554879e+001 4.359517e+001 3.028733e+001 3.528684e+001 3.336886e+001 3.149876e+001 2.674153e+001 8.785716e-002
<GCONST> 6.434286e+001
<MIXTURE> 3 2.500000e-001
<MEAN> 13
 -1.082609e+001 1.333223e+000 6.865222e-001 -4.904832e-001 -1.234718e+000 6.010503e-001 -6.577793e-001 1.079493e+000 7.021572e-001 9.861636e-001 4.825374e-001 1.632181e-001 4.742789e-001
<VARIANCE> 13
 3.801786e+001 2.700796e+001 4.197438e+001 4.973067e+001 4.212939e+001 3.554879e+001 4.359517e+001 3.028733e+001 3.528684e+001 3.336886e+001 3.149876e+001 2.674153e+001 8.785716e-002
<GCONST> 6.434286e+001
<STATE> 3
<NUMMIXES> 3
<MIXTURE> 1 2.500000e-001
<MEAN> 13
 -8.359745e+000 3.411990e+000 3.278028e+000 2.330316e+000 1.361568e+000 2.985962e+000 1.983286e+000 3.280850e+000 3.078266e+000 3.296795e+000 2.727488e+000 2.231707e+000 5.928417e-001
<VARIANCE> 13
 3.801786e+001 2.700796e+001 4.197438e+001 4.973067e+001 4.212939e+001 3.554879e+001 4.359517e+001 3.028733e+001 3.528684e+001 3.336886e+001 3.149876e+001 2.674153e+001 8.785716e-002
<GCONST> 6.434286e+001
<MIXTURE> 2 5.000000e-001
<MEAN> 13
 -1.205926e+001 2.938393e-001 -6.092305e-001 -1.900883e+000 -2.532861e+000 -5.914058e-001 -1.978312e+000 -2.118548e-002 -4.858973e-001 -1.691521e-001 -6.399378e-001 -8.710262e-001 4.149975e-001
<VARIANCE> 13
 3.801786e+001 2.700796e+001 4.197438e+001 4.973067e+001 4.212939e+001 3.554879e+001 4.359517e+001 3.028733e+001 3.528684e+001 3.336886e+001 3.149876e+001 2.674153e+001 8.785716e-002
<GCONST> 6.434286e+001
<MIXTURE> 3 2.500000e-001
<MEAN> 13
 -1.082609e+001 1.333223e+000 6.865222e-001 -4.904832e-001 -1.234718e+000 6.010503e-001 -6.577793e-001 1.079493e+000 7.021572e-001 9.861636e-001 4.825374e-001 1.632181e-001 4.742789e-001
<VARIANCE> 13
 3.801786e+001 2.700796e+001 4.197438e+001 4.973067e+001 4.212939e+001 3.554879e+001 4.359517e+001 3.028733e+001 3.528684e+001 3.336886e+001 3.149876e+001 2.674153e+001 8.785716e-002
<GCONST> 6.434286e+001
<STATE> 4
<NUMMIXES> 3
<MIXTURE> 1 2.500000e-001
<MEAN> 13
 -8.359745e+000 3.411990e+000 3.278028e+000 2.330316e+000 1.361568e+000 2.985962e+000 1.983286e+000 3.280850e+000 3.078266e+000 3.296795e+000 2.727488e+000 2.231707e+000 5.928417e-001
<VARIANCE> 13
 3.801786e+001 2.700796e+001 4.197438e+001 4.973067e+001 4.212939e+001 3.554879e+001 4.359517e+001 3.028733e+001 3.528684e+001 3.336886e+001 3.149876e+001 2.674153e+001 8.785716e-002
<GCONST> 6.434286e+001
<MIXTURE> 2 5.000000e-001
<MEAN> 13
 -1.205926e+001 2.938393e-001 -6.092305e-001 -1.900883e+000 -2.532861e+000 -5.914058e-001 -1.978312e+000 -2.118548e-002 -4.858973e-001 -1.691521e-001 -6.399378e-001 -8.710262e-001 4.149975e-001
<VARIANCE> 13
 3.801786e+001 2.700796e+001 4.197438e+001 4.973067e+001 4.212939e+001 3.554879e+001 4.359517e+001 3.028733e+001 3.528684e+001 3.336886e+001 3.149876e+001 2.674153e+001 8.785716e-002
<GCONST> 6.434286e+001
<MIXTURE> 3 2.500000e-001
<MEAN> 13
 -1.082609e+001 1.333223e+000 6.865222e-001 -4.904832e-001 -1.234718e+000 6.010503e-001 -6.577793e-001 1.079493e+000 7.021572e-001 9.861636e-001 4.825374e-001 1.632181e-001 4.742789e-001
<VARIANCE> 13
 3.801786e+001 2.700796e+001 4.197438e+001 4.973067e+001 4.212939e+001 3.554879e+001 4.359517e+001 3.028733e+001 3.528684e+001 3.336886e+001 3.149876e+001 2.674153e+001 8.785716e-002
<GCONST> 6.434286e+001
<TRANSP> 5
 0.000000e+000 1.000000e+000 0.000000e+000 0.000000e+000 0.000000e+000
 0.000000e+000 6.000000e-001 4.000000e-001 0.000000e+000 0.000000e+000
 0.000000e+000 0.000000e+000 6.000000e-001 4.000000e-001 0.000000e+000
 0.000000e+000 0.000000e+000 0.000000e+000 6.000000e-001 4.000000e-001
 0.000000e+000 0.000000e+000 0.000000e+000 0.000000e+000 0.000000e+000
<ENDHMM>
~h "sil"
<BEGINHMM>
<NUMSTATES> 5
<STATE> 2
<NUMMIXES> 3
<MIXTURE> 1 2.500000e-001
<MEAN> 13
 -8.359745e+000 3.411990e+000 3.278028e+000 2.330316e+000 1.361568e+000 2.985962e+000 1.983286e+000 3.280850e+000 3.078266e+000 3.296795e+000 2.727488e+000 2.231707e+000 5.928417e-001
<VARIANCE> 13
 3.801786e+001 2.700796e+001 4.197438e+001 4.973067e+001 4.212939e+001 3.554879e+001 4.359517e+001 3.028733e+001 3.528684e+001 3.336886e+001 3.149876e+001 2.674153e+001 8.785716e-002
<GCONST> 6.434286e+001
<MIXTURE> 2 5.000000e-001
<MEAN> 13
 -1.205926e+001 2.938393e-001 -6.092305e-001 -1.900883e+000 -2.532861e+000 -5.914058e-001 -1.978312e+000 -2.118548e-002 -4.858973e-001 -1.691521e-001 -6.399378e-001 -8.710262e-001 4.149975e-001
<VARIANCE> 13
 3.801786e+001 2.700796e+001 4.197438e+001 4.973067e+001 4.212939e+001 3.554879e+001 4.359517e+001 3.028733e+001 3.528684e+001 3.336886e+001 3.149876e+001 2.674153e+001 8.785716e-002
<GCONST> 6.434286e+001
<MIXTURE> 3 2.500000e-001
<MEAN> 13
 -1.082609e+001 1.333223e+000 6.865222e-001 -4.904832e-001 -1.234718e+000 6.010503e-001 -6.577793e-001 1.079493e+000 7.021572e-001 9.861636e-001 4.825374e-001 1.632181e-001 4.742789e-001
<VARIANCE> 13
 3.801786e+001 2.700796e+001 4.197438e+001 4.973067e+001 4.212939e+001 3.554879e+001 4.359517e+001 3.028733e+001 3.528684e+001 3.336886e+001 3.149876e+001 2.674153e+001 8.785716e-002
<GCONST> 6.434286e+001
<STATE> 3
<NUMMIXES> 3
<MIXTURE> 1 2.500000e-001
<MEAN> 13
 -8.359745e+000 3.411990e+000 3.278028e+000 2.330316e+000 1.361568e+000 2.985962e+000 1.983286e+000 3.280850e+000 3.078266e+000 3.296795e+000 2.727488e+000 2.231707e+000 5.928417e-001
<VARIANCE> 13
 3.801786e+001 2.700796e+001 4.197438e+001 4.973067e+001 4.212939e+001 3.554879e+001 4.359517e+001 3.028733e+001 3.528684e+001 3.336886e+001 3.149876e+001 2.674153e+001 8.785716e-002
<GCONST> 6.434286e+001
<MIXTURE> 2 5.000000e-001
<MEAN> 13
 -1.205926e+001 2.938393e-001 -6.092305e-001 -1.900883e+000 -2.532861e+000 -5.914058e-001 -1.978312e+000 -2.118548e-002 -4.858973e-001 -1.691521e-001 -6.399378e-001 -8.710262e-001 4.149975e-001
<VARIANCE> 13
 3.801786e+001 2.700796e+001 4.197438e+001 4.973067e+001 4.212939e+001 3.554879e+001 4.359517e+001 3.028733e+001 3.528684e+001 3.336886e+001 3.149876e+001 2.674153e+001 8.785716e-002
<GCONST> 6.434286e+001
<MIXTURE> 3 2.500000e-001
<MEAN> 13
 -1.082609e+001 1.333223e+000 6.865222e-001 -4.904832e-001 -1.234718e+000 6.010503e-001 -6.577793e-001 1.079493e+000 7.021572e-001 9.861636e-001 4.825374e-001 1.632181e-001 4.742789e-001
<VARIANCE> 13
 3.801786e+001 2.700796e+001 4.197438e+001 4.973067e+001 4.212939e+001 3.554879e+001 4.359517e+001 3.028733e+001 3.528684e+001 3.336886e+001 3.149876e+001 2.674153e+001 8.785716e-002
<GCONST> 6.434286e+001
<STATE> 4
<NUMMIXES> 3
<MIXTURE> 1 2.500000e-001
<MEAN> 13
 -8.359745e+000 3.411990e+000 3.278028e+000 2.330316e+000 1.361568e+000 2.985962e+000 1.983286e+000 3.280850e+000 3.078266e+000 3.296795e+000 2.727488e+000 2.231707e+000 5.928417e-001
<VARIANCE> 13
 3.801786e+001 2.700796e+001 4.197438e+001 4.973067e+001 4.212939e+001 3.554879e+001 4.359517e+001 3.028733e+001 3.528684e+001 3.336886e+001 3.149876e+001 2.674153e+001 8.785716e-002
<GCONST> 6.434286e+001
<MIXTURE> 2 5.000000e-001
<MEAN> 13
 -1.205926e+001 2.938393e-001 -6.092305e-001 -1.900883e+000 -2.532861e+000 -5.914058e-001 -1.978312e+000 -2.118548e-002 -4.858973e-001 -1.691521e-001 -6.399378e-001 -8.710262e-001 4.149975e-001
<VARIANCE> 13
 3.801786e+001 2.700796e+001 4.197438e+001 4.973067e+001 4.212939e+001 3.554879e+001 4.359517e+001 3.028733e+001 3.528684e+001 3.336886e+001 3.149876e+001 2.674153e+001 8.785716e-002
<GCONST> 6.434286e+001
<MIXTURE> 3 2.500000e-001
<MEAN> 13
 -1.082609e+001 1.333223e+000 6.865222e-001 -4.904832e-001 -1.234718e+000 6.010503e-001 -6.577793e-001 1.079493e+000 7.021572e-001 9.861636e-001 4.825374e-001 1.632181e-001 4.742789e-001
<VARIANCE> 13
 3.801786e+001 2.700796e+001 4.197438e+001 4.973067e+001 4.212939e+001 3.554879e+001 4.359517e+001 3.028733e+001 3.528684e+001 3.336886e+001 3.149876e+001 2.674153e+001 8.785716e-002
<GCONST> 6.434286e+001
<TRANSP> 5
 0.000000e+000 1.000000e+000 0.000000e+000 0.000000e+000 0.000000e+000
 0.000000e+000 6.000000e-001 4.000000e-001 0.000000e+000 0.000000e+000
 0.000000e+000 0.000000e+000 6.000000e-001 4.000000e-001 0.000000e+000
 0.000000e+000 0.000000e+000 0.000000e+000 6.000000e-001 4.000000e-001
 0.000000e+000 0.000000e+000 0.000000e+000 0.000000e+000 0.000000e+000
<ENDHMM>
~h "ling"
<BEGINHMM>
<NUMSTATES> 5
<STATE> 2
<NUMMIXES> 3
<MIXTURE> 1 2.500000e-001
<MEAN> 13
 -8.359745e+000 3.411990e+000 3.278028e+000 2.330316e+000 1.361568e+000 2.985962e+000 1.983286e+000 3.280850e+000 3.078266e+000 3.296795e+000 2.727488e+000 2.231707e+000 5.928417e-001
<VARIANCE> 13
 3.801786e+001 2.700796e+001 4.197438e+001 4.973067e+001 4.212939e+001 3.554879e+001 4.359517e+001 3.028733e+001 3.528684e+001 3.336886e+001 3.149876e+001 2.674153e+001 8.785716e-002
<GCONST> 6.434286e+001
<MIXTURE> 2 5.000000e-001
<MEAN> 13
 -1.205926e+001 2.938393e-001 -6.092305e-001 -1.900883e+000 -2.532861e+000 -5.914058e-001 -1.978312e+000 -2.118548e-002 -4.858973e-001 -1.691521e-001 -6.399378e-001 -8.710262e-001 4.149975e-001
<VARIANCE> 13
 3.801786e+001 2.700796e+001 4.197438e+001 4.973067e+001 4.212939e+001 3.554879e+001 4.359517e+001 3.028733e+001 3.528684e+001 3.336886e+001 3.149876e+001 2.674153e+001 8.785716e-002
<GCONST> 6.434286e+001
<MIXTURE> 3 2.500000e-001
<MEAN> 13
 -1.082609e+001 1.333223e+000 6.865222e-001 -4.904832e-001 -1.234718e+000 6.010503e-001 -6.577793e-001 1.079493e+000 7.021572e-001 9.861636e-001 4.825374e-001 1.632181e-001 4.742789e-001
<VARIANCE> 13
 3.801786e+001 2.700796e+001 4.197438e+001 4.973067e+001 4.212939e+001 3.554879e+001 4.359517e+001 3.028733e+001 3.528684e+001 3.336886e+001 3.149876e+001 2.674153e+001 8.785716e-002
<GCONST> 6.434286e+001
<STATE> 3
<NUMMIXES> 3
<MIXTURE> 1 2.500000e-001
<MEAN> 13
 -8.359745e+000 3.411990e+000 3.278028e+000 2.330316e+000 1.361568e+000 2.985962e+000 1.983286e+000 3.280850e+000 3.078266e+000 3.296795e+000 2.727488e+000 2.231707e+000 5.928417e-001
<VARIANCE> 13
 3.801786e+001 2.700796e+001 4.197438e+001 4.973067e+001 4.212939e+001 3.554879e+001 4.359517e+001 3.028733e+001 3.528684e+001 3.336886e+001 3.149876e+001 2.674153e+001 8.785716e-002
<GCONST> 6.434286e+001
<MIXTURE> 2 5.000000e-001
<MEAN> 13
 -1.205926e+001 2.938393e-001 -6.092305e-001 -1.900883e+000 -2.532861e+000 -5.914058e-001 -1.978312e+000 -2.118548e-002 -4.858973e-001 -1.691521e-001 -6.399378e-001 -8.710262e-001 4.149975e-001
<VARIANCE> 13
 3.801786e+001 2.700796e+001 4.197438e+001 4.973067e+001 4.212939e+001 3.554879e+001 4.359517e+001 3.028733e+001 3.528684e+001 3.336886e+001 3.149876e+001 2.674153e+001 8.785716e-002
<GCONST> 6.434286e+001
<MIXTURE> 3 2.500000e-001
<MEAN> 13
 -1.082609e+001 1.333223e+000 6.865222e-001 -4.904832e-001 -1.234718e+000 6.010503e-001 -6.577793e-001 1.079493e+000 7.021572e-001 9.861636e-001 4.825374e-001 1.632181e-001 4.742789e-001
<VARIANCE> 13
 3.801786e+001 2.700796e+001 4.197438e+001 4.973067e+001 4.212939e+001 3.554879e+001 4.359517e+001 3.028733e+001 3.528684e+001 3.336886e+001 3.149876e+001 2.674153e+001 8.785716e-002
<GCONST> 6.434286e+001
<STATE> 4
<NUMMIXES> 3
<MIXTURE> 1 2.500000e-001
<MEAN> 13
 -8.359745e+000 3.411990e+000 3.278028e+000 2.330316e+000 1.361568e+000 2.985962e+000 1.983286e+000 3.280850e+000 3.078266e+000 3.296795e+000 2.727488e+000 2.231707e+000 5.928417e-001
<VARIANCE> 13
 3.801786e+001 2.700796e+001 4.197438e+001 4.973067e+001 4.212939e+001 3.554879e+001 4.359517e+001 3.028733e+001 3.528684e+001 3.336886e+001 3.149876e+001 2.674153e+001 8.785716e-002
<GCONST> 6.434286e+001
<MIXTURE> 2 5.000000e-001
<MEAN> 13
 -1.205926e+001 2.938393e-001 -6.092305e-001 -1.900883e+000 -2.532861e+000 -5.914058e-001 -1.978312e+000 -2.118548e-002 -4.858973e-001 -1.691521e-001 -6.399378e-001 -8.710262e-001 4.149975e-001
<VARIANCE> 13
 3.801786e+001 2.700796e+001 4.197438e+001 4.973067e+001 4.212939e+001 3.554879e+001 4.359517e+001 3.028733e+001 3.528684e+001 3.336886e+001 3.149876e+001 2.674153e+001 8.785716e-002
<GCONST> 6.434286e+001
<MIXTURE> 3 2.500000e-001
<MEAN> 13
 -1.082609e+001 1.333223e+000 6.865222e-001 -4.904832e-001 -1.234718e+000 6.010503e-001 -6.577793e-001 1.079493e+000 7.021572e-001 9.861636e-001 4.825374e-001 1.632181e-001 4.742789e-001
<VARIANCE> 13
 3.801786e+001 2.700796e+001 4.197438e+001 4.973067e+001 4.212939e+001 3.554879e+001 4.359517e+001 3.028733e+001 3.528684e+001 3.336886e+001 3.149876e+001 2.674153e+001 8.785716e-002
<GCONST> 6.434286e+001
<TRANSP> 5
 0.000000e+000 1.000000e+000 0.000000e+000 0.000000e+000 0.000000e+000
 0.000000e+000 6.000000e-001 4.000000e-001 0.000000e+000 0.000000e+000
 0.000000e+000 0.000000e+000 6.000000e-001 4.000000e-001 0.000000e+000
 0.000000e+000 0.000000e+000 0.000000e+000 6.000000e-001 4.000000e-001
 0.000000e+000 0.000000e+000 0.000000e+000 0.000000e+000 0.000000e+000
<ENDHMM>
~h "liou"
<BEGINHMM>
<NUMSTATES> 5
<STATE> 2
<NUMMIXES> 3
<MIXTURE> 1 2.500000e-001
<MEAN> 13
 -8.359745e+000 3.411990e+000 3.278028e+000 2.330316e+000 1.361568e+000 2.985962e+000 1.983286e+000 3.280850e+000 3.078266e+000 3.296795e+000 2.727488e+000 2.231707e+000 5.928417e-001
<VARIANCE> 13
 3.801786e+001 2.700796e+001 4.197438e+001 4.973067e+001 4.212939e+001 3.554879e+001 4.359517e+001 3.028733e+001 3.528684e+001 3.336886e+001 3.149876e+001 2.674153e+001 8.785716e-002
<GCONST> 6.434286e+001
<MIXTURE> 2 5.000000e-001
<MEAN> 13
 -1.205926e+001 2.938393e-001 -6.092305e-001 -1.900883e+000 -2.532861e+000 -5.914058e-001 -1.978312e+000 -2.118548e-002 -4.858973e-001 -1.691521e-001 -6.399378e-001 -8.710262e-001 4.149975e-001
<VARIANCE> 13
 3.801786e+001 2.700796e+001 4.197438e+001 4.973067e+001 4.212939e+001 3.554879e+001 4.359517e+001 3.028733e+001 3.528684e+001 3.336886e+001 3.149876e+001 2.674153e+001 8.785716e-002
<GCONST> 6.434286e+001
<MIXTURE> 3 2.500000e-001
<MEAN> 13
 -1.082609e+001 1.333223e+000 6.865222e-001 -4.904832e-001 -1.234718e+000 6.010503e-001 -6.577793e-001 1.079493e+000 7.021572e-001 9.861636e-001 4.825374e-001 1.632181e-001 4.742789e-001
<VARIANCE> 13
 3.801786e+001 2.700796e+001 4.197438e+001 4.973067e+001 4.212939e+001 3.554879e+001 4.359517e+001 3.028733e+001 3.528684e+001 3.336886e+001 3.149876e+001 2.674153e+001 8.785716e-002
<GCONST> 6.434286e+001
<STATE> 3
<NUMMIXES> 3
<MIXTURE> 1 2.500000e-001
<MEAN> 13
 -8.359745e+000 3.411990e+000 3.278028e+000 2.330316e+000 1.361568e+000 2.985962e+000 1.983286e+000 3.280850e+000 3.078266e+000 3.296795e+000 2.727488e+000 2.231707e+000 5.928417e-001
<VARIANCE> 13
 3.801786e+001 2.700796e+001 4.197438e+001 4.973067e+001 4.212939e+001 3.554879e+001 4.359517e+001 3.028733e+001 3.528684e+001 3.336886e+001 3.149876e+001 2.674153e+001 8.785716e-002
<GCONST> 6.434286e+001
<MIXTURE> 2 5.000000e-001
<MEAN> 13
 -1.205926e+001 2.938393e-001 -6.092305e-001 -1.900883e+000 -2.532861e+000 -5.914058e-001 -1.978312e+000 -2.118548e-002 -4.858973e-001 -1.691521e-001 -6.399378e-001 -8.710262e-001 4.149975e-001
<VARIANCE> 13
 3.801786e+001 2.700796e+001 4.197438e+001 4.973067e+001 4.212939e+001 3.554879e+001 4.359517e+001 3.028733e+001 3.528684e+001 3.336886e+001 3.149876e+001 2.674153e+001 8.785716e-002
<GCONST> 6.434286e+001
<MIXTURE> 3 2.500000e-001
<MEAN> 13
 -1.082609e+001 1.333223e+000 6.865222e-001 -4.904832e-001 -1.234718e+000 6.010503e-001 -6.577793e-001 1.079493e+000 7.021572e-001 9.861636e-001 4.825374e-001 1.632181e-001 4.742789e-001
<VARIANCE> 13
 3.801786e+001 2.700796e+001 4.197438e+001 4.973067e+001 4.212939e+001 3.554879e+001 4.359517e+001 3.028733e+001 3.528684e+001 3.336886e+001 3.149876e+001 2.674153e+001 8.785716e-002
<GCONST> 6.434286e+001
<STATE> 4
<NUMMIXES> 3
<MIXTURE> 1 2.500000e-001
<MEAN> 13
 -8.359745e+000 3.411990e+000 3.278028e+000 2.330316e+000 1.361568e+000 2.985962e+000 1.983286e+000 3.280850e+000 3.078266e+000 3.296795e+000 2.727488e+000 2.231707e+000 5.928417e-001
<VARIANCE> 13
 3.801786e+001 2.700796e+001 4.197438e+001 4.973067e+001 4.212939e+001 3.554879e+001 4.359517e+001 3.028733e+001 3.528684e+001 3.336886e+001 3.149876e+001 2.674153e+001 8.785716e-002
<GCONST> 6.434286e+001
<MIXTURE> 2 5.000000e-001
<MEAN> 13
 -1.205926e+001 2.938393e-001 -6.092305e-001 -1.900883e+000 -2.532861e+000 -5.914058e-001 -1.978312e+000 -2.118548e-002 -4.858973e-001 -1.691521e-001 -6.399378e-001 -8.710262e-001 4.149975e-001
<VARIANCE> 13
 3.801786e+001 2.700796e+001 4.197438e+001 4.973067e+001 4.212939e+001 3.554879e+001 4.359517e+001 3.028733e+001 3.528684e+001 3.336886e+001 3.149876e+001 2.674153e+001 8.785716e-002
<GCONST> 6.434286e+001
<MIXTURE> 3 2.500000e-001
<MEAN> 13
 -1.082609e+001 1.333223e+000 6.865222e-001 -4.904832e-001 -1.234718e+000 6.010503e-001 -6.577793e-001 1.079493e+000 7.021572e-001 9.861636e-001 4.825374e-001 1.632181e-001 4.742789e-001
<VARIANCE> 13
 3.801786e+001 2.700796e+001 4.197438e+001 4.973067e+001 4.212939e+001 3.554879e+001 4.359517e+001 3.028733e+001 3.528684e+001 3.336886e+001 3.149876e+001 2.674153e+001 8.785716e-002
<GCONST> 6.434286e+001
<TRANSP> 5
 0.000000e+000 1.000000e+000 0.000000e+000 0.000000e+000 0.000000e+000
 0.000000e+000 6.000000e-001 4.000000e-001 0.000000e+000 0.000000e+000
 0.000000e+000 0.000000e+000 6.000000e-001 4.000000e-001 0.000000e+000
 0.000000e+000 0.000000e+000 0.000000e+000 6.000000e-001 4.000000e-001
 0.000000e+000 0.000000e+000 0.000000e+000 0.000000e+000 0.000000e+000
<ENDHMM>
~h "ba"
<BEGINHMM>
<NUMSTATES> 5
<STATE> 2
<NUMMIXES> 3
<MIXTURE> 1 2.500000e-001
<MEAN> 13
 -8.359745e+000 3.411990e+000 3.278028e+000 2.330316e+000 1.361568e+000 2.985962e+000 1.983286e+000 3.280850e+000 3.078266e+000 3.296795e+000 2.727488e+000 2.231707e+000 5.928417e-001
<VARIANCE> 13
 3.801786e+001 2.700796e+001 4.197438e+001 4.973067e+001 4.212939e+001 3.554879e+001 4.359517e+001 3.028733e+001 3.528684e+001 3.336886e+001 3.149876e+001 2.674153e+001 8.785716e-002
<GCONST> 6.434286e+001
<MIXTURE> 2 5.000000e-001
<MEAN> 13
 -1.205926e+001 2.938393e-001 -6.092305e-001 -1.900883e+000 -2.532861e+000 -5.914058e-001 -1.978312e+000 -2.118548e-002 -4.858973e-001 -1.691521e-001 -6.399378e-001 -8.710262e-001 4.149975e-001
<VARIANCE> 13
 3.801786e+001 2.700796e+001 4.197438e+001 4.973067e+001 4.212939e+001 3.554879e+001 4.359517e+001 3.028733e+001 3.528684e+001 3.336886e+001 3.149876e+001 2.674153e+001 8.785716e-002
<GCONST> 6.434286e+001
<MIXTURE> 3 2.500000e-001
<MEAN> 13
 -1.082609e+001 1.333223e+000 6.865222e-001 -4.904832e-001 -1.234718e+000 6.010503e-001 -6.577793e-001 1.079493e+000 7.021572e-001 9.861636e-001 4.825374e-001 1.632181e-001 4.742789e-001
<VARIANCE> 13
 3.801786e+001 2.700796e+001 4.197438e+001 4.973067e+001 4.212939e+001 3.554879e+001 4.359517e+001 3.028733e+001 3.528684e+001 3.336886e+001 3.149876e+001 2.674153e+001 8.785716e-002
<GCONST> 6.434286e+001
<STATE> 3
<NUMMIXES> 3
<MIXTURE> 1 2.500000e-001
<MEAN> 13
 -8.359745e+000 3.411990e+000 3.278028e+000 2.330316e+000 1.361568e+000 2.985962e+000 1.983286e+000 3.280850e+000 3.078266e+000 3.296795e+000 2.727488e+000 2.231707e+000 5.928417e-001
<VARIANCE> 13
 3.801786e+001 2.700796e+001 4.197438e+001 4.973067e+001 4.212939e+001 3.554879e+001 4.359517e+001 3.028733e+001 3.528684e+001 3.336886e+001 3.149876e+001 2.674153e+001 8.785716e-002
<GCONST> 6.434286e+001
<MIXTURE> 2 5.000000e-001
<MEAN> 13
 -1.205926e+001 2.938393e-001 -6.092305e-001 -1.900883e+000 -2.532861e+000 -5.914058e-001 -1.978312e+000 -2.118548e-002 -4.858973e-001 -1.691521e-001 -6.399378e-001 -8.710262e-001 4.149975e-001
<VARIANCE> 13
 3.801786e+001 2.700796e+001 4.197438e+001 4.973067e+001 4.212939e+001 3.554879e+001 4.359517e+001 3.028733e+001 3.528684e+001 3.336886e+001 3.149876e+001 2.674153e+001 8.785716e-002
<GCONST> 6.434286e+001
<MIXTURE> 3 2.500000e-001
<MEAN> 13
 -1.082609e+001 1.333223e+000 6.865222e-001 -4.904832e-001 -1.234718e+000 6.010503e-001 -6.577793e-001 1.079493e+000 7.021572e-001 9.861636e-001 4.825374e-001 1.632181e-001 4.742789e-001
<VARIANCE> 13
 3.801786e+001 2.700796e+001 4.197438e+001 4.973067e+001 4.212939e+001 3.554879e+001 4.359517e+001 3.028733e+001 3.528684e+001 3.336886e+001 3.149876e+001 2.674153e+001 8.785716e-002
<GCONST> 6.434286e+001
<STATE> 4
<NUMMIXES> 3
<MIXTURE> 1 2.500000e-001
<MEAN> 13
 -8.359745e+000 3.411990e+000 3.278028e+000 2.330316e+000 1.361568e+000 2.985962e+000 1.983286e+000 3.280850e+000 3.078266e+000 3.296795e+000 2.727488e+000 2.231707e+000 5.928417e-001
<VARIANCE> 13
 3.801786e+001 2.700796e+001 4.197438e+001 4.973067e+001 4.212939e+001 3.554879e+001 4.359517e+001 3.028733e+001 3.528684e+001 3.336886e+001 3.149876e+001 2.674153e+001 8.785716e-002
<GCONST> 6.434286e+001
<MIXTURE> 2 5.000000e-001
<MEAN> 13
 -1.205926e+001 2.938393e-001 -6.092305e-001 -1.900883e+000 -2.532861e+000 -5.914058e-001 -1.978312e+000 -2.118548e-002 -4.858973e-001 -1.691521e-001 -6.399378e-001 -8.710262e-001 4.149975e-001
<VARIANCE> 13
 3.801786e+001 2.700796e+001 4.197438e+001 4.973067e+001 4.212939e+001 3.554879e+001 4.359517e+001 3.028733e+001 3.528684e+001 3.336886e+001 3.149876e+001 2.674153e+001 8.785716e-002
<GCONST> 6.434286e+001
<MIXTURE> 3 2.500000e-001
<MEAN> 13
 -1.082609e+001 1.333223e+000 6.865222e-001 -4.904832e-001 -1.234718e+000 6.010503e-001 -6.577793e-001 1.079493e+000 7.021572e-001 9.861636e-001 4.825374e-001 1.632181e-001 4.742789e-001
<VARIANCE> 13
 3.801786e+001 2.700796e+001 4.197438e+001 4.973067e+001 4.212939e+001 3.554879e+001 4.359517e+001 3.028733e+001 3.528684e+001 3.336886e+001 3.149876e+001 2.674153e+001 8.785716e-002
<GCONST> 6.434286e+001
<TRANSP> 5
 0.000000e+000 1.000000e+000 0.000000e+000 0.000000e+000 0.000000e+000
 0.000000e+000 6.000000e-001 4.000000e-001 0.000000e+000 0.000000e+000
 0.000000e+000 0.000000e+000 6.000000e-001 4.000000e-001 0.000000e+000
 0.000000e+000 0.000000e+000 0.000000e+000 6.000000e-001 4.000000e-001
 0.000000e+000 0.000000e+000 0.000000e+000 0.000000e+000 0.000000e+000
<ENDHMM>
~h "er"
<BEGINHMM>
<NUMSTATES> 5
<STATE> 2
<NUMMIXES> 3
<MIXTURE> 1 2.500000e-001
<MEAN> 13
 -8.359745e+000 3.411990e+000 3.278028e+000 2.330316e+000 1.361568e+000 2.985962e+000 1.983286e+000 3.280850e+000 3.078266e+000 3.296795e+000 2.727488e+000 2.231707e+000 5.928417e-001
<VARIANCE> 13
 3.801786e+001 2.700796e+001 4.197438e+001 4.973067e+001 4.212939e+001 3.554879e+001 4.359517e+001 3.028733e+001 3.528684e+001 3.336886e+001 3.149876e+001 2.674153e+001 8.785716e-002
<GCONST> 6.434286e+001
<MIXTURE> 2 5.000000e-001
<MEAN> 13
 -1.205926e+001 2.938393e-001 -6.092305e-001 -1.900883e+000 -2.532861e+000 -5.914058e-001 -1.978312e+000 -2.118548e-002 -4.858973e-001 -1.691521e-001 -6.399378e-001 -8.710262e-001 4.149975e-001
<VARIANCE> 13
 3.801786e+001 2.700796e+001 4.197438e+001 4.973067e+001 4.212939e+001 3.554879e+001 4.359517e+001 3.028733e+001 3.528684e+001 3.336886e+001 3.149876e+001 2.674153e+001 8.785716e-002
<GCONST> 6.434286e+001
<MIXTURE> 3 2.500000e-001
<MEAN> 13
 -1.082609e+001 1.333223e+000 6.865222e-001 -4.904832e-001 -1.234718e+000 6.010503e-001 -6.577793e-001 1.079493e+000 7.021572e-001 9.861636e-001 4.825374e-001 1.632181e-001 4.742789e-001
<VARIANCE> 13
 3.801786e+001 2.700796e+001 4.197438e+001 4.973067e+001 4.212939e+001 3.554879e+001 4.359517e+001 3.028733e+001 3.528684e+001 3.336886e+001 3.149876e+001 2.674153e+001 8.785716e-002
<GCONST> 6.434286e+001
<STATE> 3
<NUMMIXES> 3
<MIXTURE> 1 2.500000e-001
<MEAN> 13
 -8.359745e+000 3.411990e+000 3.278028e+000 2.330316e+000 1.361568e+000 2.985962e+000 1.983286e+000 3.280850e+000 3.078266e+000 3.296795e+000 2.727488e+000 2.231707e+000 5.928417e-001
<VARIANCE> 13
 3.801786e+001 2.700796e+001 4.197438e+001 4.973067e+001 4.212939e+001 3.554879e+001 4.359517e+001 3.028733e+001 3.528684e+001 3.336886e+001 3.149876e+001 2.674153e+001 8.785716e-002
<GCONST> 6.434286e+001
<MIXTURE> 2 5.000000e-001
<MEAN> 13
 -1.205926e+001 2.938393e-001 -6.092305e-001 -1.900883e+000 -2.532861e+000 -5.914058e-001 -1.978312e+000 -2.118548e-002 -4.858973e-001 -1.691521e-001 -6.399378e-001 -8.710262e-001 4.149975e-001
<VARIANCE> 13
 3.801786e+001 2.700796e+001 4.197438e+001 4.973067e+001 4.212939e+001 3.554879e+001 4.359517e+001 3.028733e+001 3.528684e+001 3.336886e+001 3.149876e+001 2.674153e+001 8.785716e-002
<GCONST> 6.434286e+001
<MIXTURE> 3 2.500000e-001
<MEAN> 13
 -1.082609e+001 1.333223e+000 6.865222e-001 -4.904832e-001 -1.234718e+000 6.010503e-001 -6.577793e-001 1.079493e+000 7.021572e-001 9.861636e-001 4.825374e-001 1.632181e-001 4.742789e-001
<VARIANCE> 13
 3.801786e+001 2.700796e+001 4.197438e+001 4.973067e+001 4.212939e+001 3.554879e+001 4.359517e+001 3.028733e+001 3.528684e+001 3.336886e+001 3.149876e+001 2.674153e+001 8.785716e-002
<GCONST> 6.434286e+001
<STATE> 4
<NUMMIXES> 3
<MIXTURE> 1 2.500000e-001
<MEAN> 13
 -8.359745e+000 3.411990e+000 3.278028e+000 2.330316e+000 1.361568e+000 2.985962e+000 1.983286e+000 3.280850e+000 3.078266e+000 3.296795e+000 2.727488e+000 2.231707e+000 5.928417e-001
<VARIANCE> 13
 3.801786e+001 2.700796e+001 4.197438e+001 4.973067e+001 4.212939e+001 3.554879e+001 4.359517e+001 3.028733e+001 3.528684e+001 3.336886e+001 3.149876e+001 2.674153e+001 8.785716e-002
<GCONST> 6.434286e+001
<MIXTURE> 2 5.000000e-001
<MEAN> 13
 -1.205926e+001 2.938393e-001 -6.092305e-001 -1.900883e+000 -2.532861e+000 -5.914058e-001 -1.978312e+000 -2.118548e-002 -4.858973e-001 -1.691521e-001 -6.399378e-001 -8.710262e-001 4.149975e-001
<VARIANCE> 13
 3.801786e+001 2.700796e+001 4.197438e+001 4.973067e+001 4.212939e+001 3.554879e+001 4.359517e+001 3.028733e+001 3.528684e+001 3.336886e+001 3.149876e+001 2.674153e+001 8.785716e-002
<GCONST> 6.434286e+001
<MIXTURE> 3 2.500000e-001
<MEAN> 13
 -1.082609e+001 1.333223e+000 6.865222e-001 -4.904832e-001 -1.234718e+000 6.010503e-001 -6.577793e-001 1.079493e+000 7.021572e-001 9.861636e-001 4.825374e-001 1.632181e-001 4.742789e-001
<VARIANCE> 13
 3.801786e+001 2.700796e+001 4.197438e+001 4.973067e+001 4.212939e+001 3.554879e+001 4.359517e+001 3.028733e+001 3.528684e+001 3.336886e+001 3.149876e+001 2.674153e+001 8.785716e-002
<GCONST> 6.434286e+001
<TRANSP> 5
 0.000000e+000 1.000000e+000 0.000000e+000 0.000000e+000 0.000000e+000
 0.000000e+000 6.000000e-001 4.000000e-001 0.000000e+000 0.000000e+000
 0.000000e+000 0.000000e+000 6.000000e-001 4.000000e-001 0.000000e+000
 0.000000e+000 0.000000e+000 0.000000e+000 6.000000e-001 4.000000e-001
 0.000000e+000 0.000000e+000 0.000000e+000 0.000000e+000 0.000000e+000
<ENDHMM>
~h "jiou"
<BEGINHMM>
<NUMSTATES> 5
<STATE> 2
<NUMMIXES> 3
<MIXTURE> 1 2.500000e-001
<MEAN> 13
 -8.359745e+000 3.411990e+000 3.278028e+000 2.330316e+000 1.361568e+000 2.985962e+000 1.983286e+000 3.280850e+000 3.078266e+000 3.296795e+000 2.727488e+000 2.231707e+000 5.928417e-001
<VARIANCE> 13
 3.801786e+001 2.700796e+001 4.197438e+001 4.973067e+001 4.212939e+001 3.554879e+001 4.359517e+001 3.028733e+001 3.528684e+001 3.336886e+001 3.149876e+001 2.674153e+001 8.785716e-002
<GCONST> 6.434286e+001
<MIXTURE> 2 5.000000e-001
<MEAN> 13
 -1.205926e+001 2.938393e-001 -6.092305e-001 -1.900883e+000 -2.532861e+000 -5.914058e-001 -1.978312e+000 -2.118548e-002 -4.858973e-001 -1.691521e-001 -6.399378e-001 -8.710262e-001 4.149975e-001
<VARIANCE> 13
 3.801786e+001 2.700796e+001 4.197438e+001 4.973067e+001 4.212939e+001 3.554879e+001 4.359517e+001 3.028733e+001 3.528684e+001 3.336886e+001 3.149876e+001 2.674153e+001 8.785716e-002
<GCONST> 6.434286e+001
<MIXTURE> 3 2.500000e-001
<MEAN> 13
 -1.082609e+001 1.333223e+000 6.865222e-001 -4.904832e-001 -1.234718e+000 6.010503e-001 -6.577793e-001 1.079493e+000 7.021572e-001 9.861636e-001 4.825374e-001 1.632181e-001 4.742789e-001
<VARIANCE> 13
 3.801786e+001 2.700796e+001 4.197438e+001 4.973067e+001 4.212939e+001 3.554879e+001 4.359517e+001 3.028733e+001 3.528684e+001 3.336886e+001 3.149876e+001 2.674153e+001 8.785716e-002
<GCONST> 6.434286e+001
<STATE> 3
<NUMMIXES> 3
<MIXTURE> 1 2.500000e-001
<MEAN> 13
 -8.359745e+000 3.411990e+000 3.278028e+000 2.330316e+000 1.361568e+000 2.985962e+000 1.983286e+000 3.280850e+000 3.078266e+000 3.296795e+000 2.727488e+000 2.231707e+000 5.928417e-001
<VARIANCE> 13
 3.801786e+001 2.700796e+001 4.197438e+001 4.973067e+001 4.212939e+001 3.554879e+001 4.359517e+001 3.028733e+001 3.528684e+001 3.336886e+001 3.149876e+001 2.674153e+001 8.785716e-002
<GCONST> 6.434286e+001
<MIXTURE> 2 5.000000e-001
<MEAN> 13
 -1.205926e+001 2.938393e-001 -6.092305e-001 -1.900883e+000 -2.532861e+000 -5.914058e-001 -1.978312e+000 -2.118548e-002 -4.858973e-001 -1.691521e-001 -6.399378e-001 -8.710262e-001 4.149975e-001
<VARIANCE> 13
 3.801786e+001 2.700796e+001 4.197438e+001 4.973067e+001 4.212939e+001 3.554879e+001 4.359517e+001 3.028733e+001 3.528684e+001 3.336886e+001 3.149876e+001 2.674153e+001 8.785716e-002
<GCONST> 6.434286e+001
<MIXTURE> 3 2.500000e-001
<MEAN> 13
 -1.082609e+001 1.333223e+000 6.865222e-001 -4.904832e-001 -1.234718e+000 6.010503e-001 -6.577793e-001 1.079493e+000 7.021572e-001 9.861636e-001 4.825374e-001 1.632181e-001 4.742789e-001
<VARIANCE> 13
 3.801786e+001 2.700796e+001 4.197438e+001 4.973067e+001 4.212939e+001 3.554879e+001 4.359517e+001 3.028733e+001 3.528684e+001 3.336886e+001 3.149876e+001 2.674153e+001 8.785716e-002
<GCONST> 6.434286e+001
<STATE> 4
<NUMMIXES> 3
<MIXTURE> 1 2.500000e-001
<MEAN> 13
 -8.359745e+000 3.411990e+000 3.278028e+000 2.330316e+000 1.361568e+000 2.985962e+000 1.983286e+000 3.280850e+000 3.078266e+000 3.296795e+000 2.727488e+000 2.231707e+000 5.928417e-001
<VARIANCE> 13
 3.801786e+001 2.700796e+001 4.197438e+001 4.973067e+001 4.212939e+001 3.554879e+001 4.359517e+001 3.028733e+001 3.528684e+001 3.336886e+001 3.149876e+001 2.674153e+001 8.785716e-002
<GCONST> 6.434286e+001
<MIXTURE> 2 5.000000e-001
<MEAN> 13
 -1.205926e+001 2.938393e-001 -6.092305e-001 -1.900883e+000 -2.532861e+000 -5.914058e-001 -1.978312e+000 -2.118548e-002 -4.858973e-001 -1.691521e-001 -6.399378e-001 -8.710262e-001 4.149975e-001
<VARIANCE> 13
 3.801786e+001 2.700796e+001 4.197438e+001 4.973067e+001 4.212939e+001 3.554879e+001 4.359517e+001 3.028733e+001 3.528684e+001 3.336886e+001 3.149876e+001 2.674153e+001 8.785716e-002
<GCONST> 6.434286e+001
<MIXTURE> 3 2.500000e-001
<MEAN> 13
 -1.082609e+001 1.333223e+000 6.865222e-001 -4.904832e-001 -1.234718e+000 6.010503e-001 -6.577793e-001 1.079493e+000 7.021572e-001 9.861636e-001 4.825374e-001 1.632181e-001 4.742789e-001
<VARIANCE> 13
 3.801786e+001 2.700796e+001 4.197438e+001 4.973067e+001 4.212939e+001 3.554879e+001 4.359517e+001 3.028733e+001 3.528684e+001 3.336886e+001 3.149876e+001 2.674153e+001 8.785716e-002
<GCONST> 6.434286e+001
<TRANSP> 5
 0.000000e+000 1.000000e+000 0.000000e+000 0.000000e+000 0.000000e+000
 0.000000e+000 6.000000e-001 4.000000e-001 0.000000e+000 0.000000e+000
 0.000000e+000 0.000000e+000 6.000000e-001 4.000000e-001 0.000000e+000
 0.000000e+000 0.000000e+000 0.000000e+000 6.000000e-001 4.000000e-001
 0.000000e+000 0.000000e+000 0.000000e+000 0.000000e+000 0.000000e+000
<ENDHMM>
~h "qi"
<BEGINHMM>
<NUMSTATES> 5
<STATE> 2
<NUMMIXES> 3
<MIXTURE> 1 2.500000e-001
<MEAN> 13
 -8.359745e+000 3.411990e+000 3.278028e+000 2.330316e+000 1.361568e+000 2.985962e+000 1.983286e+000 3.280850e+000 3.078266e+000 3.296795e+000 2.727488e+000 2.231707e+000 5.928417e-001
<VARIANCE> 13
 3.801786e+001 2.700796e+001 4.197438e+001 4.973067e+001 4.212939e+001 3.554879e+001 4.359517e+001 3.028733e+001 3.528684e+001 3.336886e+001 3.149876e+001 2.674153e+001 8.785716e-002
<GCONST> 6.434286e+001
<MIXTURE> 2 5.000000e-001
<MEAN> 13
 -1.205926e+001 2.938393e-001 -6.092305e-001 -1.900883e+000 -2.532861e+000 -5.914058e-001 -1.978312e+000 -2.118548e-002 -4.858973e-001 -1.691521e-001 -6.399378e-001 -8.710262e-001 4.149975e-001
<VARIANCE> 13
 3.801786e+001 2.700796e+001 4.197438e+001 4.973067e+001 4.212939e+001 3.554879e+001 4.359517e+001 3.028733e+001 3.528684e+001 3.336886e+001 3.149876e+001 2.674153e+001 8.785716e-002
<GCONST> 6.434286e+001
<MIXTURE> 3 2.500000e-001
<MEAN> 13
 -1.082609e+001 1.333223e+000 6.865222e-001 -4.904832e-001 -1.234718e+000 6.010503e-001 -6.577793e-001 1.079493e+000 7.021572e-001 9.861636e-001 4.825374e-001 1.632181e-001 4.742789e-001
<VARIANCE> 13
 3.801786e+001 2.700796e+001 4.197438e+001 4.973067e+001 4.212939e+001 3.554879e+001 4.359517e+001 3.028733e+001 3.528684e+001 3.336886e+001 3.149876e+001 2.674153e+001 8.785716e-002
<GCONST> 6.434286e+001
<STATE> 3
<NUMMIXES> 3
<MIXTURE> 1 2.500000e-001
<MEAN> 13
 -8.359745e+000 3.411990e+000 3.278028e+000 2.330316e+000 1.361568e+000 2.985962e+000 1.983286e+000 3.280850e+000 3.078266e+000 3.296795e+000 2.727488e+000 2.231707e+000 5.928417e-001
<VARIANCE> 13
 3.801786e+001 2.700796e+001 4.197438e+001 4.973067e+001 4.212939e+001 3.554879e+001 4.359517e+001 3.028733e+001 3.528684e+001 3.336886e+001 3.149876e+001 2.674153e+001 8.785716e-002
<GCONST> 6.434286e+001
<MIXTURE> 2 5.000000e-001
<MEAN> 13
 -1.205926e+001 2.938393e-001 -6.092305e-001 -1.900883e+000 -2.532861e+000 -5.914058e-001 -1.978312e+000 -2.118548e-002 -4.858973e-001 -1.691521e-001 -6.399378e-001 -8.710262e-001 4.149975e-001
<VARIANCE> 13
 3.801786e+001 2.700796e+001 4.197438e+001 4.973067e+001 4.212939e+001 3.554879e+001 4.359517e+001 3.028733e+001 3.528684e+001 3.336886e+001 3.149876e+001 2.674153e+001 8.785716e-002
<GCONST> 6.434286e+001
<MIXTURE> 3 2.500000e-001
<MEAN> 13
 -1.082609e+001 1.333223e+000 6.865222e-001 -4.904832e-001 -1.234718e+000 6.010503e-001 -6.577793e-001 1.079493e+000 7.021572e-001 9.861636e-001 4.825374e-001 1.632181e-001 4.742789e-001
<VARIANCE> 13
 3.801786e+001 2.700796e+001 4.197438e+001 4.973067e+001 4.212939e+001 3.554879e+001 4.359517e+001 3.028733e+001 3.528684e+001 3.336886e+001 3.149876e+001 2.674153e+001 8.785716e-002
<GCONST> 6.434286e+001
<STATE> 4
<NUMMIXES> 3
<MIXTURE> 1 2.500000e-001
<MEAN> 13
 -8.359745e+000 3.411990e+000 3.278028e+000 2.330316e+000 1.361568e+000 2.985962e+000 1.983286e+000 3.280850e+000 3.078266e+000 3.296795e+000 2.727488e+000 2.231707e+000 5.928417e-001
<VARIANCE> 13
 3.801786e+001 2.700796e+001 4.197438e+001 4.973067e+001 4.212939e+001 3.554879e+001 4.359517e+001 3.028733e+001 3.528684e+001 3.336886e+001 3.149876e+001 2.674153e+001 8.785716e-002
<GCONST> 6.434286e+001
<MIXTURE> 2 5.000000e-001
<MEAN> 13
 -1.205926e+001 2.938393e-001 -6.092305e-001 -1.900883e+000 -2.532861e+000 -5.914058e-001 -1.978312e+000 -2.118548e-002 -4.858973e-001 -1.691521e-001 -6.399378e-001 -8.710262e-001 4.149975e-001
<VARIANCE> 13
 3.801786e+001 2.700796e+001 4.197438e+001 4.973067e+001 4.212939e+001 3.554879e+001 4.359517e+001 3.028733e+001 3.528684e+001 3.336886e+001 3.149876e+001 2.674153e+001 8.785716e-002
<GCONST> 6.434286e+001
<MIXTURE> 3 2.500000e-001
<MEAN> 13
 -1.082609e+001 1.333223e+000 6.865222e-001 -4.904832e-001 -1.234718e+000 6.010503e-001 -6.577793e-001 1.079493e+000 7.021572e-001 9.861636e-001 4.825374e-001 1.632181e-001 4.742789e-001
<VARIANCE> 13
 3.801786e+001 2.700796e+001 4.197438e+001 4.973067e+001 4.212939e+001 3.554879e+001 4.359517e+001 3.028733e+001 3.528684e+001 3.336886e+001 3.149876e+001 2.674153e+001 8.785716e-002
<GCONST> 6.434286e+001
<TRANSP> 5
 0.000000e+000 1.000000e+000 0.000000e+000 0.000000e+000 0.000000e+000
 0.000000e+000 6.000000e-001 4.000000e-001 0.000000e+000 0.000000e+000
 0.000000e+000 0.000000e+000 6.000000e-001 4.000000e-001 0.000000e+000
 0.000000e+000 0.000000e+000 0.000000e+000 6.000000e-001 4.000000e-001
 0.000000e+000 0.000000e+000 0.000000e+000 0.000000e+000 0.000000e+000
<ENDHMM>
~h "si"
<BEGINHMM>
<NUMSTATES> 5
<STATE> 2
<NUMMIXES> 3
<MIXTURE> 1 2.500000e-001
<MEAN> 13
 -8.359745e+000 3.411990e+000 3.278028e+000 2.330316e+000 1.361568e+000 2.985962e+000 1.983286e+000 3.280850e+000 3.078266e+000 3.296795e+000 2.727488e+000 2.231707e+000 5.928417e-001
<VARIANCE> 13
 3.801786e+001 2.700796e+001 4.197438e+001 4.973067e+001 4.212939e+001 3.554879e+001 4.359517e+001 3.028733e+001 3.528684e+001 3.336886e+001 3.149876e+001 2.674153e+001 8.785716e-002
<GCONST> 6.434286e+001
<MIXTURE> 2 5.000000e-001
<MEAN> 13
 -1.205926e+001 2.938393e-001 -6.092305e-001 -1.900883e+000 -2.532861e+000 -5.914058e-001 -1.978312e+000 -2.118548e-002 -4.858973e-001 -1.691521e-001 -6.399378e-001 -8.710262e-001 4.149975e-001
<VARIANCE> 13
 3.801786e+001 2.700796e+001 4.197438e+001 4.973067e+001 4.212939e+001 3.554879e+001 4.359517e+001 3.028733e+001 3.528684e+001 3.336886e+001 3.149876e+001 2.674153e+001 8.785716e-002
<GCONST> 6.434286e+001
<MIXTURE> 3 2.500000e-001
<MEAN> 13
 -1.082609e+001 1.333223e+000 6.865222e-001 -4.904832e-001 -1.234718e+000 6.010503e-001 -6.577793e-001 1.079493e+000 7.021572e-001 9.861636e-001 4.825374e-001 1.632181e-001 4.742789e-001
<VARIANCE> 13
 3.801786e+001 2.700796e+001 4.197438e+001 4.973067e+001 4.212939e+001 3.554879e+001 4.359517e+001 3.028733e+001 3.528684e+001 3.336886e+001 3.149876e+001 2.674153e+001 8.785716e-002
<GCONST> 6.434286e+001
<STATE> 3
<NUMMIXES> 3
<MIXTURE> 1 2.500000e-001
<MEAN> 13
 -8.359745e+000 3.411990e+000 3.278028e+000 2.330316e+000 1.361568e+000 2.985962e+000 1.983286e+000 3.280850e+000 3.078266e+000 3.296795e+000 2.727488e+000 2.231707e+000 5.928417e-001
<VARIANCE> 13
 3.801786e+001 2.700796e+001 4.197438e+001 4.973067e+001 4.212939e+001 3.554879e+001 4.359517e+001 3.028733e+001 3.528684e+001 3.336886e+001 3.149876e+001 2.674153e+001 8.785716e-002
<GCONST> 6.434286e+001
<MIXTURE> 2 5.000000e-001
<MEAN> 13
 -1.205926e+001 2.938393e-001 -6.092305e-001 -1.900883e+000 -2.532861e+000 -5.914058e-001 -1.978312e+000 -2.118548e-002 -4.858973e-001 -1.691521e-001 -6.399378e-001 -8.710262e-001 4.149975e-001
<VARIANCE> 13
 3.801786e+001 2.700796e+001 4.197438e+001 4.973067e+001 4.212939e+001 3.554879e+001 4.359517e+001 3.028733e+001 3.528684e+001 3.336886e+001 3.149876e+001 2.674153e+001 8.785716e-002
<GCONST> 6.434286e+001
<MIXTURE> 3 2.500000e-001
<MEAN> 13
 -1.082609e+001 1.333223e+000 6.865222e-001 -4.904832e-001 -1.234718e+000 6.010503e-001 -6.577793e-001 1.079493e+000 7.021572e-001 9.861636e-001 4.825374e-001 1.632181e-001 4.742789e-001
<VARIANCE> 13
 3.801786e+001 2.700796e+001 4.197438e+001 4.973067e+001 4.212939e+001 3.554879e+001 4.359517e+001 3.028733e+001 3.528684e+001 3.336886e+001 3.149876e+001 2.674153e+001 8.785716e-002
<GCONST> 6.434286e+001
<STATE> 4
<NUMMIXES> 3
<MIXTURE> 1 2.500000e-001
<MEAN> 13
 -8.359745e+000 3.411990e+000 3.278028e+000 2.330316e+000 1.361568e+000 2.985962e+000 1.983286e+000 3.280850e+000 3.078266e+000 3.296795e+000 2.727488e+000 2.231707e+000 5.928417e-001
<VARIANCE> 13
 3.801786e+001 2.700796e+001 4.197438e+001 4.973067e+001 4.212939e+001 3.554879e+001 4.359517e+001 3.028733e+001 3.528684e+001 3.336886e+001 3.149876e+001 2.674153e+001 8.785716e-002
<GCONST> 6.434286e+001
<MIXTURE> 2 5.000000e-001
<MEAN> 13
 -1.205926e+001 2.938393e-001 -6.092305e-001 -1.900883e+000 -2.532861e+000 -5.914058e-001 -1.978312e+000 -2.118548e-002 -4.858973e-001 -1.691521e-001 -6.399378e-001 -8.710262e-001 4.149975e-001
<VARIANCE> 13
 3.801786e+001 2.700796e+001 4.197438e+001 4.973067e+001 4.212939e+001 3.554879e+001 4.359517e+001 3.028733e+001 3.528684e+001 3.336886e+001 3.149876e+001 2.674153e+001 8.785716e-002
<GCONST> 6.434286e+001
<MIXTURE> 3 2.500000e-001
<MEAN> 13
 -1.082609e+001 1.333223e+000 6.865222e-001 -4.904832e-001 -1.234718e+000 6.010503e-001 -6.577793e-001 1.079493e+000 7.021572e-001 9.861636e-001 4.825374e-001 1.632181e-001 4.742789e-001
<VARIANCE> 13
 3.801786e+001 2.700796e+001 4.197438e+001 4.973067e+001 4.212939e+001 3.554879e+001 4.359517e+001 3.028733e+001 3.528684e+001 3.336886e+001 3.149876e+001 2.674153e+001 8.785716e-002
<GCONST> 6.434286e+001
<TRANSP> 5
 0.000000e+000 1.000000e+000 0.000000e+000 0.000000e+000 0.000000e+000
 0.000000e+000 6.000000e-001 4.000000e-001 0.000000e+000 0.000000e+000
 0.000000e+000 0.000000e+000 6.000000e-001 4.000000e-001 0.000000e+000
 0.000000e+000 0.000000e+000 0.000000e+000 6.000000e-001 4.000000e-001
 0.000000e+000 0.000000e+000 0.000000e+000 0.000000e+000 0.000000e+000
<ENDHMM>
~h "wu"
<BEGINHMM>
<NUMSTATES> 5
<STATE> 2
<NUMMIXES> 3
<MIXTURE> 1 2.500000e-001
<MEAN> 13
 -8.359745e+000 3.411990e+000 3.278028e+000 2.330316e+000 1.361568e+000 2.985962e+000 1.983286e+000 3.280850e+000 3.078266e+000 3.296795e+000 2.727488e+000 2.231707e+000 5.928417e-001
<VARIANCE> 13
 3.801786e+001 2.700796e+001 4.197438e+001 4.973067e+001 4.212939e+001 3.554879e+001 4.359517e+001 3.028733e+001 3.528684e+001 3.336886e+001 3.149876e+001 2.674153e+001 8.785716e-002
<GCONST> 6.434286e+001
<MIXTURE> 2 5.000000e-001
<MEAN> 13
 -1.205926e+001 2.938393e-001 -6.092305e-001 -1.900883e+000 -2.532861e+000 -5.914058e-001 -1.978312e+000 -2.118548e-002 -4.858973e-001 -1.691521e-001 -6.399378e-001 -8.710262e-001 4.149975e-001
<VARIANCE> 13
 3.801786e+001 2.700796e+001 4.197438e+001 4.973067e+001 4.212939e+001 3.554879e+001 4.359517e+001 3.028733e+001 3.528684e+001 3.336886e+001 3.149876e+001 2.674153e+001 8.785716e-002
<GCONST> 6.434286e+001
<MIXTURE> 3 2.500000e-001
<MEAN> 13
 -1.082609e+001 1.333223e+000 6.865222e-001 -4.904832e-001 -1.234718e+000 6.010503e-001 -6.577793e-001 1.079493e+000 7.021572e-001 9.861636e-001 4.825374e-001 1.632181e-001 4.742789e-001
<VARIANCE> 13
 3.801786e+001 2.700796e+001 4.197438e+001 4.973067e+001 4.212939e+001 3.554879e+001 4.359517e+001 3.028733e+001 3.528684e+001 3.336886e+001 3.149876e+001 2.674153e+001 8.785716e-002
<GCONST> 6.434286e+001
<STATE> 3
<NUMMIXES> 3
<MIXTURE> 1 2.500000e-001
<MEAN> 13
 -8.359745e+000 3.411990e+000 3.278028e+000 2.330316e+000 1.361568e+000 2.985962e+000 1.983286e+000 3.280850e+000 3.078266e+000 3.296795e+000 2.727488e+000 2.231707e+000 5.928417e-001
<VARIANCE> 13
 3.801786e+001 2.700796e+001 4.197438e+001 4.973067e+001 4.212939e+001 3.554879e+001 4.359517e+001 3.028733e+001 3.528684e+001 3.336886e+001 3.149876e+001 2.674153e+001 8.785716e-002
<GCONST> 6.434286e+001
<MIXTURE> 2 5.000000e-001
<MEAN> 13
 -1.205926e+001 2.938393e-001 -6.092305e-001 -1.900883e+000 -2.532861e+000 -5.914058e-001 -1.978312e+000 -2.118548e-002 -4.858973e-001 -1.691521e-001 -6.399378e-001 -8.710262e-001 4.149975e-001
<VARIANCE> 13
 3.801786e+001 2.700796e+001 4.197438e+001 4.973067e+001 4.212939e+001 3.554879e+001 4.359517e+001 3.028733e+001 3.528684e+001 3.336886e+001 3.149876e+001 2.674153e+001 8.785716e-002
<GCONST> 6.434286e+001
<MIXTURE> 3 2.500000e-001
<MEAN> 13
 -1.082609e+001 1.333223e+000 6.865222e-001 -4.904832e-001 -1.234718e+000 6.010503e-001 -6.577793e-001 1.079493e+000 7.021572e-001 9.861636e-001 4.825374e-001 1.632181e-001 4.742789e-001
<VARIANCE> 13
 3.801786e+001 2.700796e+001 4.197438e+001 4.973067e+001 4.212939e+001 3.554879e+001 4.359517e+001 3.028733e+001 3.528684e+001 3.336886e+001 3.149876e+001 2.674153e+001 8.785716e-002
<GCONST> 6.434286e+001
<STATE> 4
<NUMMIXES> 3
<MIXTURE> 1 2.500000e-001
<MEAN> 13
 -8.359745e+000 3.411990e+000 3.278028e+000 2.330316e+000 1.361568e+000 2.985962e+000 1.983286e+000 3.280850e+000 3.078266e+000 3.296795e+000 2.727488e+000 2.231707e+000 5.928417e-001
<VARIANCE> 13
 3.801786e+001 2.700796e+001 4.197438e+001 4.973067e+001 4.212939e+001 3.554879e+001 4.359517e+001 3.028733e+001 3.528684e+001 3.336886e+001 3.149876e+001 2.674153e+001 8.785716e-002
<GCONST> 6.434286e+001
<MIXTURE> 2 5.000000e-001
<MEAN> 13
 -1.205926e+001 2.938393e-001 -6.092305e-001 -1.900883e+000 -2.532861e+000 -5.914058e-001 -1.978312e+000 -2.118548e-002 -4.858973e-001 -1.691521e-001 -6.399378e-001 -8.710262e-001 4.149975e-001
<VARIANCE> 13
 3.801786e+001 2.700796e+001 4.197438e+001 4.973067e+001 4.212939e+001 3.554879e+001 4.359517e+001 3.028733e+001 3.528684e+001 3.336886e+001 3.149876e+001 2.674153e+001 8.785716e-002
<GCONST> 6.434286e+001
<MIXTURE> 3 2.500000e-001
<MEAN> 13
 -1.082609e+001 1.333223e+000 6.865222e-001 -4.904832e-001 -1.234718e+000 6.010503e-001 -6.577793e-001 1.079493e+000 7.021572e-001 9.861636e-001 4.825374e-001 1.632181e-001 4.742789e-001
<VARIANCE> 13
 3.801786e+001 2.700796e+001 4.197438e+001 4.973067e+001 4.212939e+001 3.554879e+001 4.359517e+001 3.028733e+001 3.528684e+001 3.336886e+001 3.149876e+001 2.674153e+001 8.785716e-002
<GCONST> 6.434286e+001
<TRANSP> 5
 0.000000e+000 1.000000e+000 0.000000e+000 0.000000e+000 0.000000e+000
 0.000000e+000 6.000000e-001 4.000000e-001 0.000000e+000 0.000000e+000
 0.000000e+000 0.000000e+000 6.000000e-001 4.000000e-001 0.000000e+000
 0.000000e+000 0.000000e+000 0.000000e+000 6.000000e-001 4.000000e-001
 0.000000e+000 0.000000e+000 0.000000e+000 0.000000e+000 0.000000e+000
<ENDHMM>
~h "san"
<BEGINHMM>
<NUMSTATES> 5
<STATE> 2
<NUMMIXES> 3
<MIXTURE> 1 2.500000e-001
<MEAN> 13
 -8.359745e+000 3.411990e+000 3.278028e+000 2.330316e+000 1.361568e+000 2.985962e+000 1.983286e+000 3.280850e+000 3.078266e+000 3.296795e+000 2.727488e+000 2.231707e+000 5.928417e-001
<VARIANCE> 13
 3.801786e+001 2.700796e+001 4.197438e+001 4.973067e+001 4.212939e+001 3.554879e+001 4.359517e+001 3.028733e+001 3.528684e+001 3.336886e+001 3.149876e+001 2.674153e+001 8.785716e-002
<GCONST> 6.434286e+001
<MIXTURE> 2 5.000000e-001
<MEAN> 13
 -1.205926e+001 2.938393e-001 -6.092305e-001 -1.900883e+000 -2.532861e+000 -5.914058e-001 -1.978312e+000 -2.118548e-002 -4.858973e-001 -1.691521e-001 -6.399378e-001 -8.710262e-001 4.149975e-001
<VARIANCE> 13
 3.801786e+001 2.700796e+001 4.197438e+001 4.973067e+001 4.212939e+001 3.554879e+001 4.359517e+001 3.028733e+001 3.528684e+001 3.336886e+001 3.149876e+001 2.674153e+001 8.785716e-002
<GCONST> 6.434286e+001
<MIXTURE> 3 2.500000e-001
<MEAN> 13
 -1.082609e+001 1.333223e+000 6.865222e-001 -4.904832e-001 -1.234718e+000 6.010503e-001 -6.577793e-001 1.079493e+000 7.021572e-001 9.861636e-001 4.825374e-001 1.632181e-001 4.742789e-001
<VARIANCE> 13
 3.801786e+001 2.700796e+001 4.197438e+001 4.973067e+001 4.212939e+001 3.554879e+001 4.359517e+001 3.028733e+001 3.528684e+001 3.336886e+001 3.149876e+001 2.674153e+001 8.785716e-002
<GCONST> 6.434286e+001
<STATE> 3
<NUMMIXES> 3
<MIXTURE> 1 2.500000e-001
<MEAN> 13
 -8.359745e+000 3.411990e+000 3.278028e+000 2.330316e+000 1.361568e+000 2.985962e+000 1.983286e+000 3.280850e+000 3.078266e+000 3.296795e+000 2.727488e+000 2.231707e+000 5.928417e-001
<VARIANCE> 13
 3.801786e+001 2.700796e+001 4.197438e+001 4.973067e+001 4.212939e+001 3.554879e+001 4.359517e+001 3.028733e+001 3.528684e+001 3.336886e+001 3.149876e+001 2.674153e+001 8.785716e-002
<GCONST> 6.434286e+001
<MIXTURE> 2 5.000000e-001
<MEAN> 13
 -1.205926e+001 2.938393e-001 -6.092305e-001 -1.900883e+000 -2.532861e+000 -5.914058e-001 -1.978312e+000 -2.118548e-002 -4.858973e-001 -1.691521e-001 -6.399378e-001 -8.710262e-001 4.149975e-001
<VARIANCE> 13
 3.801786e+001 2.700796e+001 4.197438e+001 4.973067e+001 4.212939e+001 3.554879e+001 4.359517e+001 3.028733e+001 3.528684e+001 3.336886e+001 3.149876e+001 2.674153e+001 8.785716e-002
<GCONST> 6.434286e+001
<MIXTURE> 3 2.500000e-001
<MEAN> 13
 -1.082609e+001 1.333223e+000 6.865222e-001 -4.904832e-001 -1.234718e+000 6.010503e-001 -6.577793e-001 1.079493e+000 7.021572e-001 9.861636e-001 4.825374e-001 1.632181e-001 4.742789e-001
<VARIANCE> 13
 3.801786e+001 2.700796e+001 4.197438e+001 4.973067e+001 4.212939e+001 3.554879e+001 4.359517e+001 3.028733e+001 3.528684e+001 3.336886e+001 3.149876e+001 2.674153e+001 8.785716e-002
<GCONST> 6.434286e+001
<STATE> 4
<NUMMIXES> 3
<MIXTURE> 1 2.500000e-001
<MEAN> 13
 -8.359745e+000 3.411990e+000 3.278028e+000 2.330316e+000 1.361568e+000 2.985962e+000 1.983286e+000 3.280850e+000 3.078266e+000 3.296795e+000 2.727488e+000 2.231707e+000 5.928417e-001
<VARIANCE> 13
 3.801786e+001 2.700796e+001 4.197438e+001 4.973067e+001 4.212939e+001 3.554879e+001 4.359517e+001 3.028733e+001 3.528684e+001 3.336886e+001 3.149876e+001 2.674153e+001 8.785716e-002
<GCONST> 6.434286e+001
<MIXTURE> 2 5.000000e-001
<MEAN> 13
 -1.205926e+001 2.938393e-001 -6.092305e-001 -1.900883e+000 -2.532861e+000 -5.914058e-001 -1.978312e+000 -2.118548e-002 -4.858973e-001 -1.691521e-001 -6.399378e-001 -8.710262e-001 4.149975e-001
<VARIANCE> 13
 3.801786e+001 2.700796e+001 4.197438e+001 4.973067e+001 4.212939e+001 3.554879e+001 4.359517e+001 3.028733e+001 3.528684e+001 3.336886e+001 3.149876e+001 2.674153e+001 8.785716e-002
<GCONST> 6.434286e+001
<MIXTURE> 3 2.500000e-001
<MEAN> 13
 -1.082609e+001 1.333223e+000 6.865222e-001 -4.904832e-001 -1.234718e+000 6.010503e-001 -6.577793e-001 1.079493e+000 7.021572e-001 9.861636e-001 4.825374e-001 1.632181e-001 4.742789e-001
<VARIANCE> 13
 3.801786e+001 2.700796e+001 4.197438e+001 4.973067e+001 4.212939e+001 3.554879e+001 4.359517e+001 3.028733e+001 3.528684e+001 3.336886e+001 3.149876e+001 2.674153e+001 8.785716e-002
<GCONST> 6.434286e+001
<TRANSP> 5
 0.000000e+000 1.000000e+000 0.000000e+000 0.000000e+000 0.000000e+000
 0.000000e+000 6.000000e-001 4.000000e-001 0.000000e+000 0.000000e+000
 0.000000e+000 0.000000e+000 6.000000e-001 4.000000e-001 0.000000e+000
 0.000000e+000 0.000000e+000 0.000000e+000 6.000000e-001 4.000000e-001
 0.000000e+000 0.000000e+000 0.000000e+000 0.000000e+000 0.000000e+000
<ENDHMM>
