~o
<STREAMINFO> 1 13
<VECSIZE> 13<NULLD><MFCC_E><DIAGC>
~h "i"
<BEGINHMM>
<NUMSTATES> 5
<STATE> 2
<NUMMIXES> 3
<MIXTURE> 1 2.145382e-001
<MEAN> 13
 -9.274947e+000 5.068083e+000 4.977618e+000 4.197243e+000 2.554702e+000 4.352470e+000 2.267704e+000 3.887155e+000 3.025491e+000 3.034563e+000 4.170875e+000 3.096759e+000 6.318757e-001
<VARIANCE> 13
 3.858034e+001 3.061639e+001 5.619559e+001 2.270742e+001 3.130306e+001 2.350857e+001 5.580038e+001 3.000562e+001 3.807620e+001 4.411307e+001 2.115360e+001 2.244307e+001 5.426227e-002
<GCONST> 6.281767e+001
<MIXTURE> 2 5.622796e-001
<MEAN> 13
 -1.155184e+001 4.710194e+000 9.804630e+000 -5.105756e+000 -6.016333e+000 -2.440746e+000 -8.596619e+000 -3.628814e+000 -5.995603e+000 -3.372299e+000 -1.450240e+000 -3.614246e+000 6.628281e-001
<VARIANCE> 13
 1.675200e+001 3.205652e+001 1.140448e+002 7.281480e+001 5.293727e+001 2.919322e+001 7.490749e+001 3.560484e+001 6.004926e+001 4.461221e+001 6.882404e+001 3.264527e+001 1.072288e-001
<GCONST> 6.781235e+001
<MIXTURE> 3 2.231745e-001
<MEAN> 13
 -1.097908e+001 4.131011e+000 7.202079e+000 -9.487707e-001 -3.502794e+000 -2.963521e-001 -4.803320e+000 -9.778947e-001 -2.748121e+000 -1.768662e+000 1.422902e+000 -1.183367e+000 5.908065e-001
<VARIANCE> 13
 1.902851e+001 3.267466e+001 1.071495e+002 3.726605e+001 4.510318e+001 2.281163e+001 7.074690e+001 2.882714e+001 4.689203e+001 4.342041e+001 2.991571e+001 2.404851e+001 9.941351e-002
<GCONST> 6.506267e+001
<STATE> 3
<NUMMIXES> 3
<MIXTURE> 1 2.509566e-001
<MEAN> 13
 -9.352053e+000 4.794528e+000 4.207747e+000 4.471941e+000 2.990346e+000 4.539024e+000 2.955062e+000 4.135313e+000 3.448809e+000 3.451781e+000 4.022064e+000 3.065213e+000 6.249611e-001
<VARIANCE> 13
 3.779895e+001 2.850266e+001 4.413416e+001 2.186748e+001 2.791551e+001 2.166406e+001 4.484888e+001 2.784002e+001 3.377270e+001 3.746238e+001 1.995092e+001 2.035627e+001 4.901478e-002
<GCONST> 6.141555e+001
<MIXTURE> 2 5.230983e-001
<MEAN> 13
 -1.139507e+001 4.206765e+000 7.550042e+000 -4.184767e+000 -5.173243e+000 -2.214159e+000 -7.112064e+000 -3.109185e+000 -4.937810e+000 -2.817588e+000 -1.520900e+000 -3.013684e+000 6.064101e-001
<VARIANCE> 13
 1.701148e+001 3.153301e+001 1.057500e+002 6.788244e+001 4.852108e+001 2.637350e+001 7.375599e+001 3.541202e+001 5.868030e+001 4.738609e+001 6.546499e+001 2.983825e+001 1.119062e-001
<GCONST> 6.739600e+001
<MIXTURE> 3 2.259476e-001
<MEAN> 13
 -1.094650e+001 3.620678e+000 5.280661e+000 -3.178509e-001 -2.652619e+000 -3.463200e-003 -3.385219e+000 -4.502973e-001 -1.741527e+000 -8.872865e-001 1.272642e+000 -7.006773e-001 5.430555e-001
<VARIANCE> 13
 1.910450e+001 3.031174e+001 8.975837e+001 3.376549e+001 3.904183e+001 2.106676e+001 6.379463e+001 2.670326e+001 4.093975e+001 3.934272e+001 2.733782e+001 2.077197e+001 9.478808e-002
<GCONST> 6.379338e+001
<STATE> 4
<NUMMIXES> 3
<MIXTURE> 1 2.802812e-001
<MEAN> 13
 -9.915985e+000 3.980124e+000 3.075141e+000 4.422873e+000 3.299552e+000 4.632411e+000 3.690555e+000 4.505203e+000 4.000817e+000 4.082877e+000 3.965312e+000 3.204560e+000 6.009344e-001
<VARIANCE> 13
 3.640875e+001 2.445588e+001 3.230027e+001 2.040031e+001 2.429403e+001 2.002617e+001 3.381142e+001 2.506562e+001 2.825850e+001 3.016934e+001 1.883018e+001 1.859670e+001 4.619124e-002
<GCONST> 5.963597e+001
<MIXTURE> 2 4.854403e-001
<MEAN> 13
 -1.154744e+001 2.975887e+000 4.090964e+000 -2.635588e+000 -3.685111e+000 -1.600490e+000 -4.603746e+000 -2.020635e+000 -3.078996e+000 -1.651392e+000 -1.281812e+000 -1.940833e+000 5.056856e-001
<VARIANCE> 13
 1.715257e+001 2.813851e+001 8.168935e+001 5.265129e+001 3.833811e+001 2.328309e+001 6.251791e+001 3.277750e+001 5.116351e+001 4.366324e+001 5.221789e+001 2.475428e+001 1.081111e-001
<GCONST> 6.550903e+001
<MIXTURE> 3 2.342798e-001
<MEAN> 13
 -1.131810e+001 2.535956e+000 2.660123e+000 3.369029e-001 -1.521052e+000 3.985513e-001 -1.503682e+000 3.281991e-001 -3.726443e-001 3.344840e-001 1.093043e+000 -4.301412e-002 4.694237e-001
<VARIANCE> 13
 1.857088e+001 2.438524e+001 6.038369e+001 2.676846e+001 2.931597e+001 1.913246e+001 4.805009e+001 2.346182e+001 3.159444e+001 3.064504e+001 2.230248e+001 1.713280e+001 8.447109e-002
<GCONST> 6.110286e+001
<TRANSP> 5
 0.000000e+000 1.000000e+000 0.000000e+000 0.000000e+000 0.000000e+000
 0.000000e+000 9.547734e-001 4.522663e-002 0.000000e+000 0.000000e+000
 0.000000e+000 0.000000e+000 9.547735e-001 4.522653e-002 0.000000e+000
 0.000000e+000 0.000000e+000 0.000000e+000 9.547743e-001 4.522573e-002
 0.000000e+000 0.000000e+000 0.000000e+000 0.000000e+000 0.000000e+000
<ENDHMM>
~h "sil"
<BEGINHMM>
<NUMSTATES> 5
<STATE> 2
<NUMMIXES> 3
<MIXTURE> 1 2.605881e-001
<MEAN> 13
 -1.110371e+001 2.580813e+000 1.637139e+000 3.800582e+000 3.098018e+000 4.378730e+000 4.161862e+000 4.910394e+000 4.750253e+000 5.002985e+000 4.202889e+000 3.737492e+000 5.076486e-001
<VARIANCE> 13
 4.628350e+001 1.858600e+001 2.024005e+001 2.044099e+001 2.142165e+001 2.101822e+001 2.316407e+001 2.184850e+001 2.315403e+001 2.300153e+001 2.069925e+001 1.953342e+001 4.460789e-002
<GCONST> 5.818144e+001
<MIXTURE> 2 4.898508e-001
<MEAN> 13
 -1.226275e+001 1.295863e-001 -6.290823e-001 -1.162472e+000 -2.115854e+000 -7.657655e-001 -1.621332e+000 -2.668148e-002 -2.865495e-001 5.002828e-002 -5.219707e-001 -6.217550e-001 3.791378e-001
<VARIANCE> 13
 2.741802e+001 1.934826e+001 3.077470e+001 3.593834e+001 2.987188e+001 2.699110e+001 3.009085e+001 2.415572e+001 2.744735e+001 2.667407e+001 2.453345e+001 2.002674e+001 8.248892e-002
<GCONST> 6.075385e+001
<MIXTURE> 3 2.495939e-001
<MEAN> 13
 -1.247221e+001 6.440299e-001 -2.585584e-001 5.400786e-001 -5.705668e-001 7.219946e-001 2.104368e-001 1.438972e+000 1.219972e+000 1.593752e+000 9.432389e-001 6.125772e-001 3.834052e-001
<VARIANCE> 13
 2.475131e+001 1.548461e+001 2.242194e+001 2.586229e+001 2.426948e+001 2.226960e+001 2.483881e+001 2.023697e+001 2.236885e+001 2.172961e+001 1.790165e+001 1.645179e+001 6.494214e-002
<GCONST> 5.785373e+001
<STATE> 3
<NUMMIXES> 3
<MIXTURE> 1 2.406779e-001
<MEAN> 13
 -1.050570e+001 2.774895e+000 1.707508e+000 3.582424e+000 2.913782e+000 4.352984e+000 4.129273e+000 4.897508e+000 4.711790e+000 4.956878e+000 4.280591e+000 3.798571e+000 5.087293e-001
<VARIANCE> 13
 5.264576e+001 1.893717e+001 2.249063e+001 2.232866e+001 2.340394e+001 2.203529e+001 2.543180e+001 2.268727e+001 2.422887e+001 2.400722e+001 2.156061e+001 2.045125e+001 4.816364e-002
<GCONST> 5.904110e+001
<MIXTURE> 2 5.112507e-001
<MEAN> 13
 -1.167487e+001 3.419286e-001 -1.944145e-001 -1.878223e+000 -2.639851e+000 -1.026139e+000 -2.240044e+000 -3.049196e-001 -6.025512e-001 -2.299896e-001 -7.812982e-001 -1.043838e+000 4.188797e-001
<VARIANCE> 13
 3.177957e+001 2.406841e+001 4.288918e+001 4.447400e+001 3.524084e+001 3.129354e+001 3.636307e+001 2.625967e+001 3.155185e+001 2.810883e+001 2.856054e+001 2.290683e+001 9.925084e-002
<GCONST> 6.291393e+001
<MIXTURE> 3 2.480351e-001
<MEAN> 13
 -1.198410e+001 8.386371e-001 -5.920189e-002 2.233015e-002 -1.039194e+000 5.237646e-001 -2.250178e-001 1.201495e+000 9.574913e-001 1.334152e+000 7.986763e-001 3.202322e-001 4.035864e-001
<VARIANCE> 13
 2.943054e+001 1.855945e+001 3.017965e+001 3.139465e+001 2.838968e+001 2.476033e+001 2.941854e+001 2.148014e+001 2.451749e+001 2.319384e+001 1.929823e+001 1.817477e+001 7.763368e-002
<GCONST> 5.970081e+001
<STATE> 4
<NUMMIXES> 3
<MIXTURE> 1 2.337187e-001
<MEAN> 13
 -9.832727e+000 3.091648e+000 1.848639e+000 3.424981e+000 2.786701e+000 4.367443e+000 4.056178e+000 4.827024e+000 4.623019e+000 4.876616e+000 4.338284e+000 3.917620e+000 5.173976e-001
<VARIANCE> 13
 5.771575e+001 2.021599e+001 2.506558e+001 2.457809e+001 2.566050e+001 2.315051e+001 2.807234e+001 2.366418e+001 2.543272e+001 2.520922e+001 2.239293e+001 2.121046e+001 5.060431e-002
<GCONST> 5.990624e+001
<MIXTURE> 2 5.206783e-001
<MEAN> 13
 -1.104024e+001 4.837668e-001 2.102963e-001 -2.526355e+000 -3.114050e+000 -1.112550e+000 -2.803887e+000 -5.068039e-001 -8.760739e-001 -5.233132e-001 -1.053819e+000 -1.366328e+000 4.565669e-001
<VARIANCE> 13
 3.464169e+001 2.832317e+001 5.226684e+001 5.297490e+001 4.098307e+001 3.535057e+001 4.205939e+001 2.764738e+001 3.474394e+001 3.000696e+001 3.202638e+001 2.524107e+001 1.091956e-001
<GCONST> 6.447426e+001
<MIXTURE> 3 2.456098e-001
<MEAN> 13
 -1.142406e+001 1.047864e+000 1.865461e-001 -4.164783e-001 -1.411464e+000 4.864794e-001 -5.967311e-001 9.999495e-001 7.303796e-001 1.088752e+000 6.558578e-001 1.382577e-001 4.273735e-001
<VARIANCE> 13
 3.307284e+001 2.136658e+001 3.699207e+001 3.727713e+001 3.278386e+001 2.737203e+001 3.379535e+001 2.229842e+001 2.594435e+001 2.482900e+001 2.074579e+001 1.961651e+001 8.604883e-002
<GCONST> 6.113017e+001
<TRANSP> 5
 0.000000e+000 1.000000e+000 0.000000e+000 0.000000e+000 0.000000e+000
 0.000000e+000 9.547659e-001 4.523416e-002 0.000000e+000 0.000000e+000
 0.000000e+000 0.000000e+000 9.547651e-001 4.523493e-002 0.000000e+000
 0.000000e+000 0.000000e+000 0.000000e+000 9.547667e-001 4.523335e-002
 0.000000e+000 0.000000e+000 0.000000e+000 0.000000e+000 0.000000e+000
<ENDHMM>
~h "ling"
<BEGINHMM>
<NUMSTATES> 5
<STATE> 2
<NUMMIXES> 3
<MIXTURE> 1 2.206438e-001
<MEAN> 13
 -8.700152e+000 5.713053e+000 5.031291e+000 4.254356e+000 1.313052e+000 2.702681e+000 1.398754e+000 2.708189e+000 2.343299e+000 2.942385e+000 3.044804e+000 2.780628e+000 6.452016e-001
<VARIANCE> 13
 3.369559e+001 3.453760e+001 5.222182e+001 2.911862e+001 4.779293e+001 2.654983e+001 4.216984e+001 3.663590e+001 3.335593e+001 2.496752e+001 2.101966e+001 2.057725e+001 5.651928e-002
<GCONST> 6.268861e+001
<MIXTURE> 2 5.393925e-001
<MEAN> 13
 -1.019380e+001 3.001400e+000 7.475652e+000 -2.778677e+000 -7.364994e+000 -3.047598e+000 -5.806468e+000 -3.360715e+000 -3.718346e+000 -1.572461e+000 -8.120398e-001 -1.650511e+000 6.219791e-001
<VARIANCE> 13
 1.837498e+001 2.755473e+001 9.204823e+001 6.969514e+001 7.815234e+001 3.281283e+001 5.132768e+001 4.040589e+001 3.705575e+001 3.357310e+001 4.178356e+001 2.413276e+001 9.327213e-002
<GCONST> 6.604268e+001
<MIXTURE> 3 2.399572e-001
<MEAN> 13
 -1.006235e+001 3.044901e+000 5.851420e+000 1.894173e-002 -4.586609e+000 -1.229693e+000 -3.219710e+000 -1.136367e+000 -1.753456e+000 -8.904064e-002 8.758450e-001 -2.919561e-001 5.774982e-001
<VARIANCE> 13
 2.091429e+001 2.677346e+001 7.637982e+001 4.410002e+001 7.090582e+001 2.627748e+001 4.217085e+001 3.124150e+001 3.235487e+001 2.581762e+001 2.593587e+001 2.104042e+001 8.424372e-002
<GCONST> 6.361182e+001
<STATE> 3
<NUMMIXES> 3
<MIXTURE> 1 2.450024e-001
<MEAN> 13
 -9.360572e+000 5.135191e+000 4.034829e+000 4.590486e+000 2.288985e+000 3.258830e+000 2.180228e+000 3.224768e+000 2.874605e+000 3.348965e+000 3.002180e+000 2.633502e+000 6.275554e-001
<VARIANCE> 13
 3.041983e+001 3.239846e+001 4.235428e+001 2.764347e+001 3.815951e+001 2.489036e+001 3.504313e+001 3.394016e+001 3.103219e+001 2.330854e+001 2.064222e+001 1.969757e+001 5.089929e-002
<GCONST> 6.140228e+001
<MIXTURE> 2 5.133668e-001
<MEAN> 13
 -1.051765e+001 2.500650e+000 5.620884e+000 -2.170271e+000 -6.173209e+000 -2.305835e+000 -4.828021e+000 -2.704918e+000 -2.956883e+000 -1.148387e+000 -8.770782e-001 -1.543801e+000 5.682784e-001
<VARIANCE> 13
 1.786081e+001 2.509414e+001 8.518582e+001 6.547733e+001 7.480962e+001 2.848347e+001 4.866616e+001 3.573004e+001 3.584470e+001 3.425895e+001 3.972273e+001 2.362342e+001 9.176084e-002
<GCONST> 6.531817e+001
<MIXTURE> 3 2.416331e-001
<MEAN> 13
 -1.054071e+001 2.588879e+000 4.195378e+000 5.307523e-001 -3.318395e+000 -5.592002e-001 -2.198483e+000 -5.753754e-001 -9.796986e-001 4.423295e-001 7.901261e-001 -2.017296e-001 5.309514e-001
<VARIANCE> 13
 1.914696e+001 2.444208e+001 6.525598e+001 4.087355e+001 6.274674e+001 2.308729e+001 3.794090e+001 2.732542e+001 2.936172e+001 2.486124e+001 2.427307e+001 1.970717e+001 7.695063e-002
<GCONST> 6.235065e+001
<STATE> 4
<NUMMIXES> 3
<MIXTURE> 1 2.632701e-001
<MEAN> 13
 -1.010739e+001 4.069589e+000 2.842242e+000 4.518759e+000 2.935103e+000 3.767009e+000 3.060389e+000 3.936481e+000 3.665459e+000 3.959806e+000 3.318603e+000 2.908899e+000 5.903573e-001
<VARIANCE> 13
 3.097229e+001 2.682109e+001 3.084381e+001 2.408856e+001 2.805060e+001 2.244621e+001 2.785567e+001 2.921827e+001 2.736437e+001 2.178741e+001 2.010810e+001 1.951924e+001 4.781599e-002
<GCONST> 5.969502e+001
<MIXTURE> 2 4.903250e-001
<MEAN> 13
 -1.126180e+001 1.702639e+000 3.079304e+000 -1.257399e+000 -4.377364e+000 -1.530704e+000 -3.356982e+000 -1.657991e+000 -1.848319e+000 -4.916023e-001 -6.978220e-001 -1.103961e+000 4.812411e-001
<VARIANCE> 13
 1.694672e+001 2.042835e+001 6.688426e+001 5.258883e+001 6.008768e+001 2.394405e+001 4.301528e+001 3.003992e+001 3.252922e+001 3.122058e+001 3.426134e+001 2.194749e+001 8.432212e-002
<GCONST> 6.341325e+001
<MIXTURE> 3 2.464049e-001
<MEAN> 13
 -1.138458e+001 1.800519e+000 2.166828e+000 9.542140e-001 -1.908560e+000 7.341968e-002 -9.746544e-001 2.406008e-001 -5.169368e-003 1.078076e+000 8.682085e-001 1.573112e-001 4.632070e-001
<VARIANCE> 13
 1.692476e+001 1.956118e+001 4.681901e+001 3.328910e+001 4.600052e+001 2.008077e+001 3.167791e+001 2.304778e+001 2.531745e+001 2.217551e+001 2.147770e+001 1.779429e+001 6.710818e-002
<GCONST> 6.004278e+001
<TRANSP> 5
 0.000000e+000 1.000000e+000 0.000000e+000 0.000000e+000 0.000000e+000
 0.000000e+000 9.547734e-001 4.522663e-002 0.000000e+000 0.000000e+000
 0.000000e+000 0.000000e+000 9.547735e-001 4.522653e-002 0.000000e+000
 0.000000e+000 0.000000e+000 0.000000e+000 9.547743e-001 4.522573e-002
 0.000000e+000 0.000000e+000 0.000000e+000 0.000000e+000 0.000000e+000
<ENDHMM>
~h "liou"
<BEGINHMM>
<NUMSTATES> 5
<STATE> 2
<NUMMIXES> 3
<MIXTURE> 1 1.884883e-001
<MEAN> 13
 -8.443969e+000 3.706903e+000 1.433926e+000 1.559230e+000 1.418461e+000 4.277940e+000 3.776070e+000 4.008514e+000 3.028849e+000 3.211818e+000 2.765803e+000 2.693940e+000 5.384739e-001
<VARIANCE> 13
 4.428209e+001 2.531095e+001 3.075072e+001 5.408814e+001 3.442624e+001 3.000717e+001 3.145418e+001 2.446034e+001 2.505054e+001 2.739771e+001 2.240251e+001 2.037615e+001 5.248555e-002
<GCONST> 6.162426e+001
<MIXTURE> 2 5.736307e-001
<MEAN> 13
 -7.774272e+000 -6.213717e-001 -1.286218e-001 -6.861947e+000 -6.072477e+000 -1.573067e+000 -3.396649e+000 5.302310e-002 -9.894965e-001 -8.399117e-001 -1.448249e+000 -3.417432e+000 5.719514e-001
<VARIANCE> 13
 3.285506e+001 3.013560e+001 5.327264e+001 8.761946e+001 7.121861e+001 6.210279e+001 4.633816e+001 3.264032e+001 4.126038e+001 3.258553e+001 4.493749e+001 3.596568e+001 1.125141e-001
<GCONST> 6.736163e+001
<MIXTURE> 3 2.378752e-001
<MEAN> 13
 -8.262707e+000 9.530553e-001 -2.200417e-001 -3.692009e+000 -3.415193e+000 7.899649e-001 -8.921933e-001 1.316914e+000 4.643627e-001 6.993090e-001 5.008760e-001 -9.312058e-001 5.078260e-001
<VARIANCE> 13
 3.840192e+001 2.675244e+001 4.021922e+001 7.459536e+001 5.140328e+001 4.855707e+001 4.380456e+001 2.604280e+001 2.855738e+001 2.707533e+001 2.561544e+001 2.630556e+001 9.381201e-002
<GCONST> 6.449253e+001
<STATE> 3
<NUMMIXES> 3
<MIXTURE> 1 2.237238e-001
<MEAN> 13
 -8.899918e+000 3.768690e+000 1.747814e+000 2.587806e+000 2.132156e+000 4.709350e+000 4.274344e+000 4.221615e+000 3.227870e+000 3.456395e+000 2.933599e+000 2.858470e+000 5.254767e-001
<VARIANCE> 13
 4.035925e+001 2.344016e+001 2.705543e+001 4.483482e+001 2.838977e+001 2.379980e+001 2.527646e+001 2.309459e+001 2.385353e+001 2.581723e+001 2.168368e+001 1.915083e+001 4.691746e-002
<GCONST> 6.012324e+001
<MIXTURE> 2 5.358812e-001
<MEAN> 13
 -8.473898e+000 -5.095205e-001 -1.053872e+000 -5.733979e+000 -4.602012e+000 -3.851178e-001 -2.377874e+000 1.048986e-001 -7.575672e-001 -6.915956e-001 -1.403894e+000 -3.001570e+000 5.024554e-001
<VARIANCE> 13
 3.220535e+001 2.654313e+001 4.030738e+001 8.515649e+001 5.907275e+001 5.014863e+001 3.810459e+001 2.894413e+001 3.363660e+001 3.017175e+001 3.799167e+001 3.587877e+001 1.087438e-001
<GCONST> 6.570507e+001
<MIXTURE> 3 2.403979e-001
<MEAN> 13
 -9.115461e+000 1.062528e+000 -5.699915e-001 -2.493922e+000 -2.209202e+000 1.538786e+000 3.379536e-002 1.319722e+000 5.739761e-001 8.161392e-001 4.527302e-001 -5.509664e-001 4.517049e-001
<VARIANCE> 13
 3.398258e+001 2.264126e+001 2.993367e+001 6.833767e+001 4.103252e+001 3.708935e+001 3.455706e+001 2.343787e+001 2.404292e+001 2.479587e+001 2.308593e+001 2.435112e+001 8.314095e-002
<GCONST> 6.242123e+001
<STATE> 4
<NUMMIXES> 3
<MIXTURE> 1 2.548000e-001
<MEAN> 13
 -9.487803e+000 3.451478e+000 1.984552e+000 3.520382e+000 2.732981e+000 4.910276e+000 4.581895e+000 4.545648e+000 3.711297e+000 4.051346e+000 3.438258e+000 3.274480e+000 4.995837e-001
<VARIANCE> 13
 4.087868e+001 2.041904e+001 2.322175e+001 3.195037e+001 2.263070e+001 2.004513e+001 2.138145e+001 2.192474e+001 2.296406e+001 2.405581e+001 2.121595e+001 1.897095e+001 4.447865e-002
<GCONST> 5.869541e+001
<MIXTURE> 2 5.018567e-001
<MEAN> 13
 -9.863521e+000 -3.180482e-001 -1.553588e+000 -3.556069e+000 -2.994649e+000 2.599503e-001 -1.435192e+000 1.063637e-001 -4.915681e-001 -2.246672e-001 -1.017993e+000 -2.075593e+000 3.961890e-001
<VARIANCE> 13
 3.030399e+001 1.963421e+001 2.719074e+001 6.903492e+001 4.097124e+001 3.424863e+001 2.803073e+001 2.438987e+001 2.609404e+001 2.599720e+001 2.926698e+001 3.029661e+001 9.525331e-002
<GCONST> 6.254840e+001
<MIXTURE> 3 2.433438e-001
<MEAN> 13
 -1.041394e+001 9.209098e-001 -6.755369e-001 -8.185496e-001 -1.061415e+000 1.714150e+000 6.400982e-001 1.386899e+000 7.828206e-001 1.188012e+000 6.208390e-001 -5.026003e-002 3.779498e-001
<VARIANCE> 13
 2.794290e+001 1.687750e+001 2.130968e+001 5.071379e+001 2.897364e+001 2.590019e+001 2.515444e+001 2.059412e+001 2.063601e+001 2.163102e+001 1.976395e+001 2.044800e+001 7.033633e-002
<GCONST> 5.935303e+001
<TRANSP> 5
 0.000000e+000 1.000000e+000 0.000000e+000 0.000000e+000 0.000000e+000
 0.000000e+000 9.547734e-001 4.522663e-002 0.000000e+000 0.000000e+000
 0.000000e+000 0.000000e+000 9.547735e-001 4.522653e-002 0.000000e+000
 0.000000e+000 0.000000e+000 0.000000e+000 9.547743e-001 4.522573e-002
 0.000000e+000 0.000000e+000 0.000000e+000 0.000000e+000 0.000000e+000
<ENDHMM>
~h "ba"
<BEGINHMM>
<NUMSTATES> 5
<STATE> 2
<NUMMIXES> 3
<MIXTURE> 1 2.045524e-001
<MEAN> 13
 -9.282891e+000 2.826890e+000 9.455534e-001 3.469363e+000 4.799968e+000 5.935461e+000 3.579616e+000 3.727299e+000 4.082176e+000 4.586857e+000 2.826559e+000 2.377377e+000 5.574597e-001
<VARIANCE> 13
 4.158795e+001 2.037441e+001 2.547749e+001 3.506224e+001 2.864102e+001 2.388680e+001 2.366883e+001 2.463461e+001 2.295935e+001 2.129868e+001 2.759340e+001 2.471416e+001 5.009546e-002
<GCONST> 6.004939e+001
<MIXTURE> 2 5.693163e-001
<MEAN> 13
 -7.511585e+000 -4.691304e+000 -4.925902e+000 -4.878127e+000 1.534005e+000 2.998175e+000 -4.055174e+000 -2.083320e+000 -1.071913e+000 -1.689041e+000 -4.215463e+000 -4.188596e+000 6.153612e-001
<VARIANCE> 13
 3.673011e+001 4.614522e+001 2.549357e+001 5.718332e+001 2.617652e+001 4.628531e+001 4.674952e+001 3.074472e+001 3.977839e+001 4.597491e+001 4.588870e+001 3.335114e+001 1.146969e-001
<GCONST> 6.566196e+001
<MIXTURE> 3 2.261241e-001
<MEAN> 13
 -8.708857e+000 -1.596962e+000 -3.246267e+000 -2.026408e+000 2.146784e+000 3.894081e+000 -9.479761e-001 -2.126148e-001 5.892482e-001 1.065327e+000 -1.340384e+000 -2.024997e+000 5.243511e-001
<VARIANCE> 13
 4.034054e+001 3.155087e+001 2.702534e+001 5.059486e+001 2.782830e+001 3.570484e+001 2.988912e+001 2.346280e+001 2.366973e+001 2.615836e+001 2.596822e+001 2.818985e+001 9.707040e-002
<GCONST> 6.240812e+001
<STATE> 3
<NUMMIXES> 3
<MIXTURE> 1 2.415175e-001
<MEAN> 13
 -9.701696e+000 3.187993e+000 1.710003e+000 4.338270e+000 4.965123e+000 6.002249e+000 4.020512e+000 4.143280e+000 4.202738e+000 4.813903e+000 3.301885e+000 2.817299e+000 5.550704e-001
<VARIANCE> 13
 3.994773e+001 1.964237e+001 2.404588e+001 3.021891e+001 2.696530e+001 2.185023e+001 2.318316e+001 2.425334e+001 2.217533e+001 2.151189e+001 2.565298e+001 2.345263e+001 4.446255e-002
<GCONST> 5.931096e+001
<MIXTURE> 2 5.362248e-001
<MEAN> 13
 -8.151974e+000 -4.106410e+000 -4.180771e+000 -3.631544e+000 1.198837e+000 2.339772e+000 -3.849630e+000 -1.886115e+000 -1.074963e+000 -1.853336e+000 -3.891283e+000 -3.704280e+000 5.716137e-001
<VARIANCE> 13
 3.602510e+001 4.599273e+001 2.255193e+001 5.225054e+001 2.379356e+001 3.977753e+001 4.651155e+001 3.154494e+001 3.858704e+001 4.948141e+001 4.255381e+001 3.164830e+001 1.154560e-001
<GCONST> 6.512190e+001
<MIXTURE> 3 2.222593e-001
<MEAN> 13
 -9.432249e+000 -1.016559e+000 -2.427744e+000 -8.898091e-001 1.919706e+000 3.267783e+000 -7.132680e-001 2.602439e-002 5.733425e-001 1.053838e+000 -9.823056e-001 -1.463680e+000 4.880960e-001
<VARIANCE> 13
 3.667811e+001 2.840037e+001 2.415010e+001 4.346585e+001 2.514506e+001 3.119346e+001 2.929332e+001 2.349189e+001 2.281203e+001 2.655957e+001 2.545372e+001 2.614267e+001 8.930697e-002
<GCONST> 6.148757e+001
<STATE> 4
<NUMMIXES> 3
<MIXTURE> 1 2.806714e-001
<MEAN> 13
 -1.007271e+001 3.168019e+000 2.168653e+000 4.850559e+000 4.730533e+000 5.880721e+000 4.570385e+000 4.752654e+000 4.589894e+000 5.207092e+000 4.015732e+000 3.462179e+000 5.378139e-001
<VARIANCE> 13
 4.251522e+001 1.785292e+001 2.083078e+001 2.405399e+001 2.381307e+001 2.007108e+001 2.185845e+001 2.302240e+001 2.198876e+001 2.163010e+001 2.366425e+001 2.226876e+001 4.100357e-002
<GCONST> 5.836940e+001
<MIXTURE> 2 4.974206e-001
<MEAN> 13
 -9.445295e+000 -3.000853e+000 -3.214408e+000 -1.979631e+000 5.968890e-001 1.311888e+000 -3.204460e+000 -1.332936e+000 -9.096742e-001 -1.635575e+000 -3.094325e+000 -2.815994e+000 4.895868e-001
<VARIANCE> 13
 3.372425e+001 3.881829e+001 1.902201e+001 4.152302e+001 2.051858e+001 3.082312e+001 4.335493e+001 2.889596e+001 3.391593e+001 5.052798e+001 3.949516e+001 2.889466e+001 1.098286e-001
<GCONST> 6.360149e+001
<MIXTURE> 3 2.219089e-001
<MEAN> 13
 -1.065791e+001 -4.304174e-001 -1.512260e+000 4.089930e-001 1.358523e+000 2.413791e+000 -1.766763e-001 5.292674e-001 7.431207e-001 1.254233e+000 -2.915480e-001 -6.587613e-001 4.294880e-001
<VARIANCE> 13
 3.015141e+001 2.124512e+001 1.934919e+001 3.172668e+001 2.104889e+001 2.471233e+001 2.669633e+001 2.178297e+001 2.121876e+001 2.549530e+001 2.345683e+001 2.299136e+001 7.620230e-002
<GCONST> 5.940367e+001
<TRANSP> 5
 0.000000e+000 1.000000e+000 0.000000e+000 0.000000e+000 0.000000e+000
 0.000000e+000 9.547734e-001 4.522663e-002 0.000000e+000 0.000000e+000
 0.000000e+000 0.000000e+000 9.547735e-001 4.522653e-002 0.000000e+000
 0.000000e+000 0.000000e+000 0.000000e+000 9.547743e-001 4.522573e-002
 0.000000e+000 0.000000e+000 0.000000e+000 0.000000e+000 0.000000e+000
<ENDHMM>
~h "er"
<BEGINHMM>
<NUMSTATES> 5
<STATE> 2
<NUMMIXES> 3
<MIXTURE> 1 1.891184e-001
<MEAN> 13
 -9.207732e+000 3.359949e+000 1.310214e+000 3.246072e+000 3.177143e+000 4.447095e+000 2.937950e+000 4.080494e+000 4.492835e+000 4.508500e+000 2.882685e+000 2.132720e+000 5.332951e-001
<VARIANCE> 13
 4.295783e+001 2.315983e+001 2.386308e+001 3.819114e+001 2.584155e+001 2.909466e+001 3.255012e+001 2.375140e+001 2.363943e+001 2.461667e+001 2.354789e+001 2.704905e+001 5.191426e-002
<GCONST> 6.074780e+001
<MIXTURE> 2 5.782250e-001
<MEAN> 13
 -7.717278e+000 -2.469283e+000 -3.566196e+000 -5.033034e+000 -2.849291e+000 -1.573437e+000 -4.970036e+000 1.450168e+000 1.684810e+000 4.502219e-001 -3.520378e+000 -4.946014e+000 5.536820e-001
<VARIANCE> 13
 3.986887e+001 2.780685e+001 1.973854e+001 6.903582e+001 3.265276e+001 4.830574e+001 4.635581e+001 2.647289e+001 3.647980e+001 4.459094e+001 4.649350e+001 4.522065e+001 1.239014e-001
<GCONST> 6.555331e+001
<MIXTURE> 3 2.326508e-001
<MEAN> 13
 -8.757013e+000 -3.613175e-001 -1.955826e+000 -1.987295e+000 -1.198606e+000 4.626275e-001 -2.531946e+000 1.791894e+000 2.864376e+000 2.373643e+000 -7.334598e-001 -2.480030e+000 4.811582e-001
<VARIANCE> 13
 4.244814e+001 2.097478e+001 1.692632e+001 5.623857e+001 2.808278e+001 4.065342e+001 4.400409e+001 2.405700e+001 2.622235e+001 3.070292e+001 2.729094e+001 3.684004e+001 9.959728e-002
<GCONST> 6.284492e+001
<STATE> 3
<NUMMIXES> 3
<MIXTURE> 1 2.172821e-001
<MEAN> 13
 -9.860114e+000 3.835936e+000 2.005234e+000 4.096694e+000 3.493002e+000 4.471190e+000 3.174855e+000 3.940728e+000 3.895858e+000 3.995655e+000 2.614309e+000 2.166522e+000 5.428181e-001
<VARIANCE> 13
 3.172101e+001 2.495037e+001 2.524244e+001 3.354227e+001 2.517870e+001 2.709745e+001 2.753329e+001 2.308508e+001 2.285406e+001 2.334483e+001 2.060361e+001 2.148877e+001 5.047023e-002
<GCONST> 5.967375e+001
<MIXTURE> 2 5.441657e-001
<MEAN> 13
 -8.886804e+000 -1.880378e+000 -3.088468e+000 -3.197981e+000 -2.531468e+000 -1.435495e+000 -3.627302e+000 1.341211e+000 1.226804e+000 3.357687e-001 -2.784654e+000 -3.604219e+000 4.751597e-001
<VARIANCE> 13
 3.596323e+001 2.526489e+001 1.875970e+001 5.685866e+001 2.964305e+001 4.120911e+001 4.070831e+001 2.618613e+001 3.115028e+001 3.968237e+001 3.884989e+001 3.882660e+001 1.147579e-001
<GCONST> 6.402975e+001
<MIXTURE> 3 2.385544e-001
<MEAN> 13
 -9.752902e+000 1.174437e-001 -1.432075e+000 -5.831254e-001 -7.418623e-001 4.017870e-001 -1.426802e+000 1.713847e+000 2.270633e+000 2.058011e+000 -4.051141e-001 -1.438879e+000 4.282607e-001
<VARIANCE> 13
 3.444091e+001 1.882734e+001 1.636396e+001 4.414837e+001 2.520607e+001 3.486861e+001 3.604544e+001 2.336737e+001 2.414787e+001 2.780947e+001 2.351127e+001 2.902767e+001 8.536644e-002
<GCONST> 6.103889e+001
<STATE> 4
<NUMMIXES> 3
<MIXTURE> 1 2.398244e-001
<MEAN> 13
 -1.051200e+001 3.888375e+000 2.394136e+000 4.619378e+000 3.624747e+000 4.528518e+000 3.485879e+000 4.027900e+000 3.616546e+000 3.831376e+000 2.700535e+000 2.411163e+000 5.319990e-001
<VARIANCE> 13
 2.558783e+001 2.475688e+001 2.478989e+001 2.782807e+001 2.381355e+001 2.491436e+001 2.379857e+001 2.241068e+001 2.176231e+001 2.231319e+001 1.874928e+001 1.787346e+001 5.039568e-002
<GCONST> 5.855695e+001
<MIXTURE> 2 5.141298e-001
<MEAN> 13
 -1.043043e+001 -1.176417e+000 -2.453976e+000 -1.415097e+000 -2.014422e+000 -1.056272e+000 -2.132270e+000 9.991564e-001 7.577934e-001 3.438111e-001 -1.656716e+000 -2.036533e+000 3.771927e-001
<VARIANCE> 13
 2.882717e+001 1.973212e+001 1.693133e+001 4.128323e+001 2.427736e+001 3.160135e+001 3.053688e+001 2.392345e+001 2.495115e+001 3.250278e+001 2.966076e+001 2.966809e+001 9.434546e-002
<GCONST> 6.113948e+001
<MIXTURE> 3 2.460454e-001
<MEAN> 13
 -1.093315e+001 4.445799e-001 -9.550759e-001 6.063523e-001 -3.630953e-001 4.750272e-001 -3.521470e-001 1.585190e+000 1.697684e+000 1.837998e+000 1.431181e-001 -3.565569e-001 3.661633e-001
<VARIANCE> 13
 2.553442e+001 1.549976e+001 1.517436e+001 2.999182e+001 2.081591e+001 2.660823e+001 2.614041e+001 2.124284e+001 2.106641e+001 2.387431e+001 1.939058e+001 2.076019e+001 6.994453e-002
<GCONST> 5.818848e+001
<TRANSP> 5
 0.000000e+000 1.000000e+000 0.000000e+000 0.000000e+000 0.000000e+000
 0.000000e+000 9.547734e-001 4.522663e-002 0.000000e+000 0.000000e+000
 0.000000e+000 0.000000e+000 9.547735e-001 4.522653e-002 0.000000e+000
 0.000000e+000 0.000000e+000 0.000000e+000 9.547743e-001 4.522573e-002
 0.000000e+000 0.000000e+000 0.000000e+000 0.000000e+000 0.000000e+000
<ENDHMM>
~h "jiou"
<BEGINHMM>
<NUMSTATES> 5
<STATE> 2
<NUMMIXES> 3
<MIXTURE> 1 1.872364e-001
<MEAN> 13
 -7.884628e+000 3.790472e+000 6.844698e-001 -5.997199e-001 3.090614e-001 4.821347e+000 3.689488e+000 3.770431e+000 3.190168e+000 3.114446e+000 2.954314e+000 2.803123e+000 5.896025e-001
<VARIANCE> 13
 6.887946e+001 2.704152e+001 2.909227e+001 7.315594e+001 4.173510e+001 2.764539e+001 2.797183e+001 2.522246e+001 2.744753e+001 2.751632e+001 2.061512e+001 1.968413e+001 5.772992e-002
<GCONST> 6.247585e+001
<MIXTURE> 2 5.616885e-001
<MEAN> 13
 -7.957872e+000 3.635362e-001 -1.623722e+000 -8.837010e+000 -4.958431e+000 1.861772e+000 -2.377904e+000 -1.126402e+000 -6.751059e-001 -8.792998e-001 -8.407965e-001 -2.176733e+000 6.050981e-001
<VARIANCE> 13
 6.033735e+001 2.901985e+001 5.798028e+001 1.188199e+002 4.961159e+001 6.178606e+001 3.952243e+001 2.933000e+001 3.242758e+001 3.040927e+001 2.795009e+001 2.955452e+001 1.087513e-001
<GCONST> 6.667315e+001
<MIXTURE> 3 2.510665e-001
<MEAN> 13
 -8.218230e+000 1.455730e+000 -1.107966e+000 -6.216762e+000 -3.694724e+000 2.658620e+000 -2.227568e-001 4.100733e-001 4.065929e-001 3.254529e-001 5.287998e-001 -3.822196e-001 5.705109e-001
<VARIANCE> 13
 6.330320e+001 2.721475e+001 4.428940e+001 1.091898e+002 4.501228e+001 4.891447e+001 3.605562e+001 2.607413e+001 2.750837e+001 2.826481e+001 1.995697e+001 2.354640e+001 9.673753e-002
<GCONST> 6.484385e+001
<STATE> 3
<NUMMIXES> 3
<MIXTURE> 1 2.094302e-001
<MEAN> 13
 -8.468816e+000 3.936239e+000 1.183382e+000 8.581986e-001 1.104321e+000 4.724136e+000 4.006363e+000 3.957308e+000 3.213476e+000 3.095807e+000 2.848948e+000 2.815834e+000 5.672273e-001
<VARIANCE> 13
 5.548730e+001 2.580882e+001 2.579822e+001 6.099081e+001 3.729197e+001 2.372097e+001 2.379001e+001 2.310826e+001 2.495923e+001 2.549269e+001 2.080075e+001 1.906380e+001 5.258980e-002
<GCONST> 6.110808e+001
<MIXTURE> 2 5.388932e-001
<MEAN> 13
 -8.008547e+000 3.343453e-001 -2.281358e+000 -7.736243e+000 -4.014554e+000 2.409716e+000 -1.737309e+000 -1.112894e+000 -8.792014e-001 -8.352992e-001 -8.484184e-001 -2.074285e+000 5.553662e-001
<VARIANCE> 13
 5.076936e+001 2.668741e+001 4.546731e+001 1.216248e+002 4.486506e+001 5.359064e+001 3.560407e+001 2.723000e+001 2.889036e+001 2.713934e+001 2.425976e+001 2.691512e+001 1.089870e-001
<GCONST> 6.531311e+001
<MIXTURE> 3 2.516811e-001
<MEAN> 13
 -8.566080e+000 1.477435e+000 -1.278992e+000 -4.668375e+000 -2.797984e+000 2.811160e+000 4.153834e-001 5.512190e-001 3.195169e-001 3.654760e-001 4.018626e-001 -3.162484e-001 5.190616e-001
<VARIANCE> 13
 5.150027e+001 2.492393e+001 3.455251e+001 1.044070e+002 4.154181e+001 4.077562e+001 3.048285e+001 2.404816e+001 2.473107e+001 2.565490e+001 1.856015e+001 2.142675e+001 9.077103e-002
<GCONST> 6.331164e+001
<STATE> 4
<NUMMIXES> 3
<MIXTURE> 1 2.370192e-001
<MEAN> 13
 -9.422042e+000 3.713195e+000 1.805942e+000 2.570489e+000 2.138571e+000 4.681760e+000 4.210395e+000 4.363966e+000 3.674758e+000 3.502703e+000 3.148441e+000 3.028215e+000 5.319488e-001
<VARIANCE> 13
 4.659695e+001 2.258869e+001 2.264891e+001 4.142016e+001 2.879336e+001 2.019702e+001 2.087366e+001 2.186204e+001 2.340238e+001 2.366609e+001 2.144724e+001 1.894333e+001 4.815003e-002
<GCONST> 5.947468e+001
<MIXTURE> 2 5.124345e-001
<MEAN> 13
 -9.155614e+000 3.202156e-001 -2.469091e+000 -5.318482e+000 -2.810508e+000 2.186508e+000 -1.160558e+000 -9.529100e-001 -8.972644e-001 -5.006517e-001 -7.529888e-001 -1.638811e+000 4.644562e-001
<VARIANCE> 13
 4.209187e+001 2.139062e+001 3.241521e+001 1.032222e+002 3.528707e+001 4.066474e+001 2.961408e+001 2.488984e+001 2.530054e+001 2.365860e+001 2.040341e+001 2.231554e+001 1.035245e-001
<GCONST> 6.292990e+001
<MIXTURE> 3 2.505459e-001
<MEAN> 13
 -9.841481e+000 1.301220e+000 -1.120445e+000 -2.346756e+000 -1.594502e+000 2.520368e+000 8.384616e-001 8.102024e-001 4.661778e-001 7.081282e-001 4.258114e-001 -9.987110e-002 4.409667e-001
<VARIANCE> 13
 3.917673e+001 2.007177e+001 2.558636e+001 8.049503e+001 3.298155e+001 3.039337e+001 2.425627e+001 2.205561e+001 2.223025e+001 2.254524e+001 1.724319e+001 1.833700e+001 7.928570e-002
<GCONST> 6.082109e+001
<TRANSP> 5
 0.000000e+000 1.000000e+000 0.000000e+000 0.000000e+000 0.000000e+000
 0.000000e+000 9.547734e-001 4.522663e-002 0.000000e+000 0.000000e+000
 0.000000e+000 0.000000e+000 9.547735e-001 4.522653e-002 0.000000e+000
 0.000000e+000 0.000000e+000 0.000000e+000 9.547743e-001 4.522573e-002
 0.000000e+000 0.000000e+000 0.000000e+000 0.000000e+000 0.000000e+000
<ENDHMM>
~h "qi"
<BEGINHMM>
<NUMSTATES> 5
<STATE> 2
<NUMMIXES> 3
<MIXTURE> 1 2.005396e-001
<MEAN> 13
 -9.844963e+000 5.072174e+000 5.300599e+000 3.186821e+000 1.521368e+000 2.869766e+000 1.711776e+000 3.313941e+000 2.737896e+000 2.609597e+000 3.964130e+000 3.653080e+000 6.309398e-001
<VARIANCE> 13
 5.752784e+001 2.844469e+001 6.185526e+001 2.345303e+001 4.006577e+001 2.568297e+001 5.090295e+001 2.777910e+001 3.428415e+001 4.051467e+001 2.110851e+001 2.032728e+001 5.337087e-002
<GCONST> 6.313048e+001
<MIXTURE> 2 5.619528e-001
<MEAN> 13
 -1.224430e+001 3.667411e+000 8.868572e+000 -4.433855e+000 -7.056612e+000 -2.907293e+000 -6.455647e+000 -3.527282e+000 -4.439869e+000 -2.888892e+000 -7.794129e-001 -2.437295e+000 6.643494e-001
<VARIANCE> 13
 3.185071e+001 2.701414e+001 1.038782e+002 6.535126e+001 6.501446e+001 2.734019e+001 6.259567e+001 4.359366e+001 5.035487e+001 3.538055e+001 4.699337e+001 3.111167e+001 9.552649e-002
<GCONST> 6.729189e+001
<MIXTURE> 3 2.374992e-001
<MEAN> 13
 -1.205714e+001 3.549409e+000 6.783970e+000 -9.574205e-001 -4.073583e+000 -1.002707e+000 -3.638115e+000 -8.241969e-001 -1.788620e+000 -1.306824e+000 1.231715e+000 2.373559e-002 6.055788e-001
<VARIANCE> 13
 3.617981e+001 2.699102e+001 9.377750e+001 3.413385e+001 5.729691e+001 2.374833e+001 5.708458e+001 2.883972e+001 3.752325e+001 3.642844e+001 2.410563e+001 2.177754e+001 8.766536e-002
<GCONST> 6.451907e+001
<STATE> 3
<NUMMIXES> 3
<MIXTURE> 1 2.284685e-001
<MEAN> 13
 -9.663445e+000 4.570120e+000 4.536303e+000 3.894869e+000 2.017397e+000 3.387385e+000 2.186718e+000 3.578075e+000 3.019053e+000 3.083592e+000 3.830128e+000 3.509299e+000 6.151124e-001
<VARIANCE> 13
 4.668098e+001 2.584538e+001 5.157508e+001 2.015669e+001 3.377990e+001 2.305964e+001 4.280114e+001 2.550587e+001 3.069375e+001 3.465989e+001 2.030796e+001 1.932527e+001 5.033958e-002
<GCONST> 6.154097e+001
<MIXTURE> 2 5.326193e-001
<MEAN> 13
 -1.181868e+001 3.025832e+000 7.513955e+000 -3.604437e+000 -6.468234e+000 -2.474948e+000 -5.707850e+000 -3.183049e+000 -3.857933e+000 -2.385547e+000 -7.613800e-001 -2.226651e+000 6.156755e-001
<VARIANCE> 13
 2.570530e+001 2.418062e+001 1.021726e+002 6.238114e+001 6.761470e+001 2.617401e+001 6.010293e+001 4.292448e+001 4.806720e+001 3.595163e+001 4.289006e+001 2.979103e+001 1.015226e-001
<GCONST> 6.673882e+001
<MIXTURE> 3 2.389166e-001
<MEAN> 13
 -1.168601e+001 2.860219e+000 5.332675e+000 -8.414052e-002 -3.231148e+000 -4.642642e-001 -2.800451e+000 -3.998613e-001 -1.168010e+000 -6.021768e-001 1.148190e+000 1.579197e-001 5.557527e-001
<VARIANCE> 13
 2.832159e+001 2.344909e+001 8.484817e+001 3.046254e+001 5.463726e+001 2.264964e+001 5.111293e+001 2.677405e+001 3.355997e+001 3.364696e+001 2.298282e+001 1.948461e+001 8.603135e-002
<GCONST> 6.327113e+001
<STATE> 4
<NUMMIXES> 3
<MIXTURE> 1 2.552556e-001
<MEAN> 13
 -1.008677e+001 3.832469e+000 3.426479e+000 4.190948e+000 2.591556e+000 3.908350e+000 3.016908e+000 4.066961e+000 3.543659e+000 3.711561e+000 3.786968e+000 3.349543e+000 5.905412e-001
<VARIANCE> 13
 4.077111e+001 2.207079e+001 3.721084e+001 1.848541e+001 2.665835e+001 1.987617e+001 3.270260e+001 2.316461e+001 2.635698e+001 2.785660e+001 1.982793e+001 1.889071e+001 4.892011e-002
<GCONST> 5.963792e+001
<MIXTURE> 2 5.014635e-001
<MEAN> 13
 -1.191386e+001 2.243778e+000 4.890288e+000 -2.451065e+000 -4.945012e+000 -1.776085e+000 -4.024929e+000 -2.510284e+000 -2.625363e+000 -1.558109e+000 -7.967024e-001 -1.741646e+000 5.347738e-001
<VARIANCE> 13
 2.051380e+001 2.004776e+001 8.663777e+001 5.309101e+001 6.047681e+001 2.349663e+001 5.043444e+001 4.160983e+001 4.224517e+001 3.551725e+001 3.509929e+001 2.556348e+001 1.002107e-001
<GCONST> 6.506586e+001
<MIXTURE> 3 2.432820e-001
<MEAN> 13
 -1.188291e+001 2.001960e+000 3.080299e+000 6.320719e-001 -1.911948e+000 1.930774e-001 -1.365479e+000 2.374638e-001 -1.695891e-001 3.609814e-001 1.016345e+000 3.053879e-001 4.877085e-001
<VARIANCE> 13
 2.165060e+001 1.829684e+001 6.261025e+001 2.507208e+001 4.354066e+001 2.010579e+001 3.939608e+001 2.468991e+001 2.802566e+001 2.850351e+001 2.065060e+001 1.649747e+001 7.717343e-002
<GCONST> 6.084001e+001
<TRANSP> 5
 0.000000e+000 1.000000e+000 0.000000e+000 0.000000e+000 0.000000e+000
 0.000000e+000 9.547734e-001 4.522663e-002 0.000000e+000 0.000000e+000
 0.000000e+000 0.000000e+000 9.547735e-001 4.522653e-002 0.000000e+000
 0.000000e+000 0.000000e+000 0.000000e+000 9.547743e-001 4.522573e-002
 0.000000e+000 0.000000e+000 0.000000e+000 0.000000e+000 0.000000e+000
<ENDHMM>
~h "si"
<BEGINHMM>
<NUMSTATES> 5
<STATE> 2
<NUMMIXES> 3
<MIXTURE> 1 1.996395e-001
<MEAN> 13
 -1.059595e+001 4.445934e+000 2.653818e+000 4.050326e+000 3.226557e+000 2.369081e+000 3.334501e+000 4.878469e+000 3.696336e+000 4.298303e+000 3.536051e+000 3.714787e+000 5.641722e-001
<VARIANCE> 13
 6.486924e+001 2.475138e+001 2.592302e+001 2.138837e+001 2.849401e+001 3.684076e+001 4.005769e+001 2.543455e+001 2.770491e+001 2.737389e+001 2.413256e+001 1.955883e+001 4.112468e-002
<GCONST> 6.107140e+001
<MIXTURE> 2 5.633383e-001
<MEAN> 13
 -1.118851e+001 2.485445e+000 3.385373e+000 -1.086377e+000 -5.273996e+000 -6.978609e+000 -6.648695e+000 -3.932612e-001 -2.400535e+000 -2.553558e+000 -1.998529e+000 5.714712e-001 6.196166e-001
<VARIANCE> 13
 4.524072e+001 2.456493e+001 4.876035e+001 2.982409e+001 4.694641e+001 6.035808e+001 8.186480e+001 2.869040e+001 4.045803e+001 3.240679e+001 2.319286e+001 2.028404e+001 8.871599e-002
<GCONST> 6.480888e+001
<MIXTURE> 3 2.370132e-001
<MEAN> 13
 -1.181823e+001 2.913844e+000 2.475121e+000 5.610519e-001 -2.295126e+000 -3.903897e+000 -3.301324e+000 1.097538e+000 -3.497146e-001 -3.015263e-001 -3.207227e-001 1.151626e+000 5.552647e-001
<VARIANCE> 13
 4.643552e+001 2.451134e+001 4.201540e+001 2.465167e+001 3.761555e+001 5.135648e+001 7.160966e+001 2.398542e+001 3.038514e+001 2.732092e+001 2.046792e+001 1.665060e+001 7.412384e-002
<GCONST> 6.283826e+001
<STATE> 3
<NUMMIXES> 3
<MIXTURE> 1 2.292997e-001
<MEAN> 13
 -9.873737e+000 4.125157e+000 3.027517e+000 4.547939e+000 3.243145e+000 3.069025e+000 3.571588e+000 4.919394e+000 4.000000e+000 4.372561e+000 3.600507e+000 3.789134e+000 5.545101e-001
<VARIANCE> 13
 5.273734e+001 2.285182e+001 2.431762e+001 2.146680e+001 2.720918e+001 3.432035e+001 3.603232e+001 2.379701e+001 2.665362e+001 2.610252e+001 2.272678e+001 1.972325e+001 4.081708e-002
<GCONST> 6.028938e+001
<MIXTURE> 2 5.328189e-001
<MEAN> 13
 -1.083041e+001 1.951765e+000 3.088262e+000 -8.923166e-001 -5.190043e+000 -6.229698e+000 -5.899159e+000 -2.182569e-001 -2.130615e+000 -2.101034e+000 -1.546805e+000 6.584770e-001 5.776584e-001
<VARIANCE> 13
 3.556048e+001 2.188755e+001 4.501504e+001 2.804576e+001 4.756798e+001 6.153102e+001 7.298809e+001 2.635627e+001 3.656361e+001 3.313208e+001 2.104392e+001 1.906358e+001 9.160521e-002
<GCONST> 6.393777e+001
<MIXTURE> 3 2.378851e-001
<MEAN> 13
 -1.132661e+001 2.376645e+000 2.362945e+000 7.847458e-001 -2.211283e+000 -3.114653e+000 -2.752582e+000 1.231582e+000 -1.461566e-001 1.274262e-001 -7.503593e-003 1.180090e+000 5.194321e-001
<VARIANCE> 13
 3.498857e+001 2.109636e+001 3.741472e+001 2.363653e+001 3.618399e+001 5.064456e+001 6.151775e+001 2.147330e+001 2.763091e+001 2.605257e+001 1.840169e+001 1.591280e+001 7.223883e-002
<GCONST> 6.161180e+001
<STATE> 4
<NUMMIXES> 3
<MIXTURE> 1 2.651580e-001
<MEAN> 13
 -9.821054e+000 3.595181e+000 2.880217e+000 4.788465e+000 3.406160e+000 3.861180e+000 4.099662e+000 5.101628e+000 4.525082e+000 4.664050e+000 3.845203e+000 3.847780e+000 5.360438e-001
<VARIANCE> 13
 4.633958e+001 2.030641e+001 2.222210e+001 2.086154e+001 2.465292e+001 2.852906e+001 2.925934e+001 2.236389e+001 2.487048e+001 2.403961e+001 2.159401e+001 1.973733e+001 4.052254e-002
<GCONST> 5.916021e+001
<MIXTURE> 2 4.946259e-001
<MEAN> 13
 -1.117524e+001 1.302153e+000 1.840549e+000 -4.652679e-001 -4.204615e+000 -4.455405e+000 -4.044680e+000 2.877177e-003 -1.454587e+000 -1.197113e+000 -8.925644e-001 4.873212e-001 4.874595e-001
<VARIANCE> 13
 2.588624e+001 1.765288e+001 3.752650e+001 2.356439e+001 4.317188e+001 5.546311e+001 5.720299e+001 2.337084e+001 3.063038e+001 3.067214e+001 1.846947e+001 1.710363e+001 8.993571e-002
<GCONST> 6.197290e+001
<MIXTURE> 3 2.402175e-001
<MEAN> 13
 -1.154370e+001 1.662894e+000 1.476631e+000 1.057372e+000 -1.597803e+000 -1.670299e+000 -1.397918e+000 1.422766e+000 3.877354e-001 8.064281e-001 4.513270e-001 1.080117e+000 4.544817e-001
<VARIANCE> 13
 2.407039e+001 1.656868e+001 2.971432e+001 2.066595e+001 3.129403e+001 4.265062e+001 4.534076e+001 1.942292e+001 2.426552e+001 2.329507e+001 1.634517e+001 1.501048e+001 6.669277e-002
<GCONST> 5.941047e+001
<TRANSP> 5
 0.000000e+000 1.000000e+000 0.000000e+000 0.000000e+000 0.000000e+000
 0.000000e+000 9.547734e-001 4.522663e-002 0.000000e+000 0.000000e+000
 0.000000e+000 0.000000e+000 9.547735e-001 4.522653e-002 0.000000e+000
 0.000000e+000 0.000000e+000 0.000000e+000 9.547743e-001 4.522573e-002
 0.000000e+000 0.000000e+000 0.000000e+000 0.000000e+000 0.000000e+000
<ENDHMM>
~h "wu"
<BEGINHMM>
<NUMSTATES> 5
<STATE> 2
<NUMMIXES> 3
<MIXTURE> 1 2.140318e-001
<MEAN> 13
 -6.443557e+000 5.289201e+000 1.777444e+000 2.062780e+000 8.788655e-001 3.652873e+000 3.329044e+000 4.273273e+000 3.906367e+000 3.502331e+000 3.147735e+000 3.117803e+000 5.805287e-001
<VARIANCE> 13
 6.375371e+001 3.116563e+001 1.792482e+001 4.236129e+001 4.690925e+001 2.669780e+001 2.700457e+001 2.461312e+001 3.051335e+001 3.049118e+001 2.724691e+001 2.253872e+001 5.520156e-002
<GCONST> 6.211026e+001
<MIXTURE> 2 5.370986e-001
<MEAN> 13
 -4.952626e+000 6.772700e+000 -4.468129e-001 -7.559194e+000 -8.180616e+000 -2.000901e+000 -3.033371e+000 -1.018461e+000 -2.002447e+000 -3.070387e+000 -2.734692e+000 -8.955638e-001 6.347911e-001
<VARIANCE> 13
 5.516158e+001 4.711259e+001 1.777711e+001 9.687251e+001 6.489583e+001 3.250676e+001 3.086868e+001 2.094762e+001 3.125411e+001 2.934585e+001 2.574661e+001 1.776659e+001 1.197320e-001
<GCONST> 6.415694e+001
<MIXTURE> 3 2.488638e-001
<MEAN> 13
 -5.697662e+000 6.152049e+000 -1.091870e-001 -4.480875e+000 -5.803159e+000 -5.570944e-001 -1.177163e+000 2.262904e-001 -4.637998e-001 -1.300785e+000 -1.157346e+000 1.891954e-004 6.031278e-001
<VARIANCE> 13
 5.864631e+001 4.479519e+001 1.579275e+001 7.586021e+001 6.380272e+001 2.785197e+001 2.729422e+001 2.137004e+001 2.860138e+001 2.895893e+001 2.362366e+001 1.610724e+001 1.067302e-001
<GCONST> 6.312923e+001
<STATE> 3
<NUMMIXES> 3
<MIXTURE> 1 2.353638e-001
<MEAN> 13
 -7.693362e+000 4.567234e+000 1.897094e+000 2.915971e+000 1.695612e+000 4.021780e+000 3.645592e+000 4.414721e+000 4.010702e+000 3.769565e+000 3.326350e+000 3.133991e+000 5.499780e-001
<VARIANCE> 13
 5.873174e+001 2.722239e+001 1.786129e+001 3.586632e+001 3.947307e+001 2.528140e+001 2.549472e+001 2.361757e+001 2.820425e+001 2.823331e+001 2.513378e+001 2.139392e+001 4.792665e-002
<GCONST> 6.096722e+001
<MIXTURE> 2 5.162321e-001
<MEAN> 13
 -5.972917e+000 5.828515e+000 -4.893515e-001 -6.192964e+000 -7.226041e+000 -1.527509e+000 -2.526579e+000 -9.476394e-001 -1.719047e+000 -2.636865e+000 -2.477969e+000 -9.585306e-001 5.844706e-001
<VARIANCE> 13
 5.400409e+001 4.479338e+001 1.697125e+001 9.085437e+001 6.844854e+001 3.015614e+001 2.754792e+001 2.034368e+001 3.083866e+001 3.035890e+001 2.632668e+001 1.687833e+001 1.228623e-001
<GCONST> 6.382725e+001
<MIXTURE> 3 2.484061e-001
<MEAN> 13
 -6.940570e+000 5.175247e+000 -3.264045e-002 -3.078620e+000 -4.540319e+000 -8.079052e-002 -6.947787e-001 3.870803e-001 -2.042248e-001 -7.725688e-001 -7.832067e-001 5.106374e-002 5.506676e-001
<VARIANCE> 13
 5.478561e+001 4.070470e+001 1.526075e+001 7.072984e+001 6.261461e+001 2.553844e+001 2.437464e+001 2.061534e+001 2.801301e+001 2.895393e+001 2.310278e+001 1.541580e+001 1.032503e-001
<GCONST> 6.248621e+001
<STATE> 4
<NUMMIXES> 3
<MIXTURE> 1 2.553533e-001
<MEAN> 13
 -9.070794e+000 3.701861e+000 1.883016e+000 3.596081e+000 2.406366e+000 4.308321e+000 3.895574e+000 4.523911e+000 4.078427e+000 4.067433e+000 3.528780e+000 3.175498e+000 5.117952e-001
<VARIANCE> 13
 5.065770e+001 2.244227e+001 1.800653e+001 2.767172e+001 2.999346e+001 2.249650e+001 2.328616e+001 2.217794e+001 2.567395e+001 2.598429e+001 2.317595e+001 2.004914e+001 4.049167e-002
<GCONST> 5.933849e+001
<MIXTURE> 2 4.934016e-001
<MEAN> 13
 -7.973386e+000 4.045892e+000 -7.207572e-001 -3.876772e+000 -5.256379e+000 -9.865307e-001 -1.780501e+000 -5.889837e-001 -1.184422e+000 -1.642643e+000 -1.778461e+000 -8.280643e-001 4.883893e-001
<VARIANCE> 13
 4.824974e+001 3.784306e+001 1.515060e+001 7.319104e+001 6.184733e+001 2.550545e+001 2.317090e+001 1.918718e+001 2.841110e+001 2.916949e+001 2.526655e+001 1.570513e+001 1.164907e-001
<GCONST> 6.242748e+001
<MIXTURE> 3 2.512448e-001
<MEAN> 13
 -8.887954e+000 3.582000e+000 -8.840108e-002 -1.166179e+000 -2.693166e+000 4.752179e-001 -9.414036e-002 7.582233e-001 2.605205e-001 1.139175e-001 -1.631599e-001 2.352490e-001 4.674727e-001
<VARIANCE> 13
 4.474762e+001 3.216632e+001 1.455439e+001 5.494786e+001 5.118548e+001 2.177054e+001 2.088804e+001 1.927037e+001 2.568370e+001 2.678399e+001 2.127486e+001 1.452187e+001 9.057073e-002
<GCONST> 6.072762e+001
<TRANSP> 5
 0.000000e+000 1.000000e+000 0.000000e+000 0.000000e+000 0.000000e+000
 0.000000e+000 9.547734e-001 4.522663e-002 0.000000e+000 0.000000e+000
 0.000000e+000 0.000000e+000 9.547735e-001 4.522653e-002 0.000000e+000
 0.000000e+000 0.000000e+000 0.000000e+000 9.547743e-001 4.522573e-002
 0.000000e+000 0.000000e+000 0.000000e+000 0.000000e+000 0.000000e+000
<ENDHMM>
~h "san"
<BEGINHMM>
<NUMSTATES> 5
<STATE> 2
<NUMMIXES> 3
<MIXTURE> 1 2.124321e-001
<MEAN> 13
 -9.569818e+000 4.780138e+000 2.898870e+000 4.627510e+000 3.224229e+000 3.500202e+000 3.383714e+000 3.925597e+000 3.467911e+000 3.514432e+000 2.490853e+000 2.555407e+000 6.136795e-001
<VARIANCE> 13
 4.916268e+001 2.874711e+001 2.916446e+001 2.585853e+001 2.240079e+001 2.471429e+001 2.666657e+001 2.578173e+001 2.701432e+001 2.467411e+001 2.678270e+001 2.161624e+001 4.328397e-002
<GCONST> 6.034457e+001
<MIXTURE> 2 5.601348e-001
<MEAN> 13
 -8.865597e+000 -2.389884e+000 -1.700266e+000 -2.704589e+000 -1.923521e+000 -1.927415e+000 -3.331855e+000 7.667484e-001 -1.528454e+000 -3.404218e+000 -5.029861e+000 -2.915445e+000 6.467364e-001
<VARIANCE> 13
 4.414345e+001 5.662943e+001 2.833905e+001 4.805367e+001 3.108390e+001 4.194390e+001 3.515842e+001 3.669527e+001 5.586616e+001 4.841076e+001 4.671889e+001 2.578947e+001 9.354694e-002
<GCONST> 6.589597e+001
<MIXTURE> 3 2.274250e-001
<MEAN> 13
 -9.970013e+000 5.137005e-001 -5.531743e-001 1.449142e-001 -2.917271e-001 -3.572824e-002 -1.117149e+000 1.438009e+000 5.977001e-001 -4.721183e-001 -2.034043e+000 -1.096066e+000 5.713356e-001
<VARIANCE> 13
 4.548756e+001 3.973190e+001 2.768772e+001 3.710144e+001 2.389494e+001 2.837985e+001 3.102334e+001 2.654235e+001 2.857733e+001 3.076078e+001 3.403052e+001 2.363671e+001 7.937978e-002
<GCONST> 6.249487e+001
<STATE> 3
<NUMMIXES> 3
<MIXTURE> 1 2.467907e-001
<MEAN> 13
 -9.465313e+000 5.002813e+000 3.564059e+000 5.235752e+000 3.530990e+000 3.921837e+000 3.389073e+000 4.031637e+000 3.418604e+000 3.452548e+000 2.616426e+000 2.471617e+000 6.077794e-001
<VARIANCE> 13
 3.951342e+001 2.816269e+001 2.809068e+001 2.559649e+001 2.257644e+001 2.399988e+001 2.471468e+001 2.438186e+001 2.502255e+001 2.325192e+001 2.428719e+001 2.015079e+001 4.101648e-002
<GCONST> 5.954670e+001
<MIXTURE> 2 5.244705e-001
<MEAN> 13
 -9.002319e+000 -1.834337e+000 -1.209461e+000 -1.853300e+000 -1.805241e+000 -1.743342e+000 -3.094848e+000 5.448208e-001 -1.720284e+000 -3.132278e+000 -4.301620e+000 -2.630424e+000 6.002902e-001
<VARIANCE> 13
 3.560900e+001 5.115988e+001 2.624589e+001 4.254395e+001 3.104939e+001 3.735062e+001 3.176851e+001 3.400022e+001 5.221509e+001 4.872907e+001 4.434387e+001 2.446783e+001 9.748462e-002
<GCONST> 6.496169e+001
<MIXTURE> 3 2.287420e-001
<MEAN> 13
 -1.004305e+001 8.458028e-001 4.223371e-002 8.340864e-001 -1.333666e-001 2.075069e-001 -9.273306e-001 1.256994e+000 4.440268e-001 -2.019636e-001 -1.439097e+000 -8.488097e-001 5.313373e-001
<VARIANCE> 13
 3.425550e+001 3.423163e+001 2.552080e+001 3.193761e+001 2.306909e+001 2.570234e+001 2.707361e+001 2.424295e+001 2.604128e+001 2.889310e+001 3.014325e+001 2.124509e+001 7.695170e-002
<GCONST> 6.105523e+001
<STATE> 4
<NUMMIXES> 3
<MIXTURE> 1 2.776433e-001
<MEAN> 13
 -9.588201e+000 4.732594e+000 3.625807e+000 5.422274e+000 3.777187e+000 4.405887e+000 3.769019e+000 4.399593e+000 3.754179e+000 3.791474e+000 3.051428e+000 2.697640e+000 5.831930e-001
<VARIANCE> 13
 3.838045e+001 2.572575e+001 2.568239e+001 2.389026e+001 2.176303e+001 2.214234e+001 2.289397e+001 2.303020e+001 2.347823e+001 2.265700e+001 2.269420e+001 1.976881e+001 4.065055e-002
<GCONST> 5.883212e+001
<MIXTURE> 2 4.880753e-001
<MEAN> 13
 -1.003892e+001 -8.698832e-001 -8.625372e-001 -7.416235e-001 -1.593480e+000 -1.321325e+000 -2.344270e+000 2.531358e-001 -1.372100e+000 -2.048402e+000 -2.862665e+000 -1.932219e+000 5.035810e-001
<VARIANCE> 13
 2.825223e+001 3.732153e+001 2.170698e+001 3.238433e+001 2.710371e+001 2.944646e+001 2.673324e+001 2.873839e+001 4.283204e+001 4.358223e+001 3.795291e+001 2.210139e+001 9.683005e-002
<GCONST> 6.266396e+001
<MIXTURE> 3 2.342799e-001
<MEAN> 13
 -1.082617e+001 1.046313e+000 2.219822e-001 1.358915e+000 -4.915100e-002 5.096364e-001 -3.948292e-001 1.184379e+000 5.938951e-001 4.601574e-001 -5.008790e-001 -3.814704e-001 4.616795e-001
<VARIANCE> 13
 2.488262e+001 2.465514e+001 2.112537e+001 2.446360e+001 2.056068e+001 2.192638e+001 2.252017e+001 2.104770e+001 2.253389e+001 2.530396e+001 2.454593e+001 1.829697e+001 7.176326e-002
<GCONST> 5.865037e+001
<TRANSP> 5
 0.000000e+000 1.000000e+000 0.000000e+000 0.000000e+000 0.000000e+000
 0.000000e+000 9.547734e-001 4.522663e-002 0.000000e+000 0.000000e+000
 0.000000e+000 0.000000e+000 9.547735e-001 4.522653e-002 0.000000e+000
 0.000000e+000 0.000000e+000 0.000000e+000 9.547743e-001 4.522573e-002
 0.000000e+000 0.000000e+000 0.000000e+000 0.000000e+000 0.000000e+000
<ENDHMM>
