~o
<STREAMINFO> 1 13
<VECSIZE> 13<NULLD><MFCC_E><DIAGC>
~h "i"
<BEGINHMM>
<NUMSTATES> 5
<STATE> 2
<NUMMIXES> 3
<MIXTURE> 1 4.354402e-003
<MEAN> 13
 -9.967214e+000 1.012178e+001 8.084970e+000 6.704854e+000 5.094772e+000 2.300341e+000 -2.298877e+000 -3.166868e+000 -1.927048e+000 -4.585997e-001 2.991750e+000 9.358966e-001 7.563124e-001
<VARIANCE> 13
 1.051511e+001 3.220385e+001 2.375141e+001 1.475595e+001 1.318497e+001 3.746146e+001 3.984933e+001 3.394008e+001 2.562642e+001 3.925451e+001 2.780825e+001 2.812324e+001 1.050129e-002
<GCONST> 5.800804e+001
<MIXTURE> 2 7.288641e-001
<MEAN> 13
 -1.159965e+001 7.284441e+000 1.875093e+001 -1.182452e+001 -1.065402e+001 -4.311565e+000 -1.574956e+001 -6.420522e+000 -1.115142e+001 -5.424160e+000 -3.073183e+000 -7.157098e+000 9.348328e-001
<VARIANCE> 13
 1.151433e+001 2.252833e+001 3.345264e+001 5.636594e+001 4.858887e+001 3.486279e+001 2.695939e+001 3.180094e+001 4.891552e+001 4.935742e+001 1.178115e+002 3.117791e+001 5.477206e-003
<GCONST> 6.197223e+001
<MIXTURE> 3 2.667793e-001
<MEAN> 13
 -5.303291e+000 1.235374e+001 2.027173e+001 -4.221680e-001 -8.769124e+000 -8.449972e-001 -1.330495e+001 -3.399048e+000 -7.880237e+000 -1.101862e+001 5.035302e+000 -1.680281e+000 9.407581e-001
<VARIANCE> 13
 5.835179e+000 2.293785e+001 2.206969e+001 8.818023e+000 3.208205e+001 1.449926e+001 1.726764e+001 1.240350e+001 1.305923e+001 1.815151e+001 1.312031e+001 1.247930e+001 3.606618e-003
<GCONST> 5.051080e+001
<STATE> 3
<NUMMIXES> 3
<MIXTURE> 1 2.890568e-001
<MEAN> 13
 -1.051077e+001 8.966604e+000 8.786684e+000 1.060173e+001 8.345664e+000 8.338867e+000 5.092467e+000 4.281226e+000 2.422886e+000 1.856260e+000 1.598725e+000 7.903321e-001 7.417067e-001
<VARIANCE> 13
 7.651382e+000 1.932025e+001 1.363899e+001 1.714334e+001 1.504326e+001 2.013410e+001 2.052818e+001 1.790217e+001 1.842313e+001 1.701818e+001 1.884641e+001 1.608915e+001 2.478944e-002
<GCONST> 5.372807e+001
<MIXTURE> 2 4.889754e-001
<MEAN> 13
 -1.103345e+001 9.412954e+000 1.034565e+001 -2.706631e-001 -1.637148e+000 -5.462207e+000 -7.011199e+000 -1.111434e+001 -9.064852e+000 -6.488444e+000 -6.265624e+000 -2.832573e+000 8.091956e-001
<VARIANCE> 13
 2.072111e+001 1.973849e+001 1.684465e+001 2.699669e+001 3.156642e+001 3.811673e+001 3.294619e+001 2.547928e+001 3.493030e+001 2.481714e+001 2.914621e+001 2.271775e+001 1.513506e-002
<GCONST> 5.892098e+001
<MIXTURE> 3 2.219671e-001
<MEAN> 13
 -8.254003e+000 1.101246e+001 9.784545e+000 4.579349e+000 -6.857923e-001 9.735372e-002 -4.073150e+000 -2.648419e+000 -2.849658e+000 -1.184264e+000 -4.247618e-001 -6.103907e-001 6.740060e-001
<VARIANCE> 13
 6.681865e+000 1.604646e+001 1.404739e+001 2.441994e+001 1.588068e+001 1.502448e+001 1.415756e+001 1.228914e+001 1.166308e+001 1.150654e+001 1.400368e+001 1.290962e+001 2.658518e-002
<GCONST> 5.150811e+001
<STATE> 4
<NUMMIXES> 3
<MIXTURE> 1 5.353015e-001
<MEAN> 13
 -1.128589e+001 3.396764e+000 1.978621e+000 4.951643e+000 4.167409e+000 5.208613e+000 5.101598e+000 4.681471e+000 4.338625e+000 4.021204e+000 3.430209e+000 2.945209e+000 7.171775e-001
<VARIANCE> 13
 3.990044e+000 7.639112e+000 1.303209e+001 1.236987e+001 1.479324e+001 1.345164e+001 1.391064e+001 1.410505e+001 1.308546e+001 1.290576e+001 1.460109e+001 1.481653e+001 1.232765e-002
<GCONST> 4.907473e+001
<MIXTURE> 2 1.685493e-001
<MEAN> 13
 -1.131496e+001 3.763569e+000 3.538610e+000 1.835093e+000 -2.385840e+000 -1.586026e+000 -4.089178e+000 -4.389801e+000 -3.781222e+000 -3.592157e+000 -4.355240e+000 -3.083678e+000 5.419968e-001
<VARIANCE> 13
 7.612767e+000 8.476466e+000 1.285736e+001 1.028746e+001 1.558524e+001 1.393249e+001 1.745232e+001 1.272356e+001 1.339002e+001 1.173149e+001 1.714796e+001 1.680397e+001 1.865985e-002
<GCONST> 5.046674e+001
<MIXTURE> 3 2.961499e-001
<MEAN> 13
 -9.602847e+000 5.210387e+000 3.888020e+000 4.582347e+000 1.250224e+000 1.251764e+000 -5.011552e-001 -8.505004e-001 -1.385245e+000 -1.106312e-001 -2.374226e-001 -3.558473e-002 5.486854e-001
<VARIANCE> 13
 4.132073e+000 1.072426e+001 1.225737e+001 1.035547e+001 1.104875e+001 1.067016e+001 1.004903e+001 1.327250e+001 1.030357e+001 1.127258e+001 9.547076e+000 1.024255e+001 2.403327e-002
<GCONST> 4.779960e+001
<TRANSP> 5
 0.000000e+000 1.000000e+000 0.000000e+000 0.000000e+000 0.000000e+000
 0.000000e+000 9.724073e-001 2.759264e-002 0.000000e+000 0.000000e+000
 0.000000e+000 0.000000e+000 8.844327e-001 1.155674e-001 0.000000e+000
 0.000000e+000 0.000000e+000 0.000000e+000 9.280927e-001 7.190735e-002
 0.000000e+000 0.000000e+000 0.000000e+000 0.000000e+000 0.000000e+000
<ENDHMM>
~h "sil"
<BEGINHMM>
<NUMSTATES> 5
<STATE> 2
<NUMMIXES> 3
<MIXTURE> 1 1.938538e-001
<MEAN> 13
 -1.366057e+001 5.634466e-001 -4.014306e-001 2.977344e+000 2.483810e+000 4.410421e+000 4.408013e+000 5.028194e+000 4.981430e+000 5.313050e+000 4.180512e+000 3.459646e+000 5.386520e-001
<VARIANCE> 13
 1.341753e+001 1.037156e+001 1.011535e+001 1.214460e+001 1.341613e+001 1.357588e+001 1.490315e+001 1.656617e+001 1.757492e+001 1.653868e+001 1.418654e+001 1.329934e+001 4.074982e-002
<GCONST> 5.206454e+001
<MIXTURE> 2 3.547344e-001
<MEAN> 13
 -1.375432e+001 -8.809761e-001 -1.855329e+000 -2.155832e-001 -2.293413e+000 -1.384237e+000 -1.803903e+000 -3.275872e-001 -9.589105e-002 4.659932e-001 -1.148654e-001 -1.356191e-001 2.905244e-001
<VARIANCE> 13
 5.319120e+000 6.161241e+000 1.167452e+001 1.758286e+001 1.663832e+001 1.692656e+001 1.692450e+001 1.870628e+001 1.972939e+001 1.926811e+001 1.749999e+001 1.504889e+001 2.679005e-002
<GCONST> 5.199887e+001
<MIXTURE> 3 4.513811e-001
<MEAN> 13
 -1.306413e+001 -2.308675e-002 -1.307545e+000 1.032627e+000 -4.226085e-002 1.239073e+000 9.464610e-001 1.940165e+000 1.741891e+000 2.087681e+000 1.150910e+000 7.259631e-001 3.043931e-001
<VARIANCE> 13
 5.116849e+000 4.820852e+000 6.719187e+000 9.348095e+000 9.902387e+000 1.048110e+001 1.088586e+001 1.208129e+001 1.372842e+001 1.240034e+001 1.052213e+001 1.024864e+001 2.188951e-002
<GCONST> 4.675557e+001
<STATE> 3
<NUMMIXES> 3
<MIXTURE> 1 2.318497e-001
<MEAN> 13
 -1.235803e+001 2.292038e+000 2.805561e+000 4.423375e+000 3.910370e+000 6.282619e+000 6.205724e+000 6.647775e+000 6.832439e+000 7.074485e+000 6.648862e+000 5.882222e+000 4.305653e-001
<VARIANCE> 13
 5.519241e+001 1.382381e+001 1.622730e+001 1.839789e+001 2.199363e+001 2.268443e+001 2.167212e+001 2.269437e+001 2.048598e+001 1.926686e+001 1.975901e+001 1.815688e+001 2.717091e-002
<GCONST> 5.689430e+001
<MIXTURE> 2 3.216285e-001
<MEAN> 13
 -1.556991e+001 7.943977e-001 -8.310795e-001 -4.013520e-002 -2.055914e+000 -9.243577e-001 -9.648193e-001 -1.425634e-002 -3.372946e-001 -1.546492e-001 -3.057597e-001 -5.512858e-001 1.757138e-001
<VARIANCE> 13
 1.247340e+001 1.607093e+001 2.072463e+001 2.420390e+001 2.402935e+001 2.396246e+001 2.566695e+001 2.575385e+001 2.277885e+001 2.123464e+001 1.908982e+001 1.639344e+001 3.192297e-002
<GCONST> 5.674347e+001
<MIXTURE> 3 4.465155e-001
<MEAN> 13
 -8.255636e+000 8.702992e-001 -3.523660e-001 6.038312e-001 -1.692877e-001 5.912760e-001 3.208572e-001 6.451227e-001 3.999478e-001 5.203236e-001 2.462745e-001 1.544612e-001 7.390359e-002
<VARIANCE> 13
 4.571743e+001 3.834757e+000 3.839401e+000 4.560529e+000 4.508775e+000 4.617509e+000 4.755304e+000 5.354553e+000 5.236040e+000 5.266497e+000 4.602275e+000 4.432350e+000 4.426782e-002
<GCONST> 4.140974e+001
<STATE> 4
<NUMMIXES> 3
<MIXTURE> 1 3.534223e-001
<MEAN> 13
 2.066973e-001 5.890534e+000 5.101327e+000 7.138111e+000 7.044261e+000 8.654315e+000 8.874673e+000 9.728349e+000 9.764784e+000 1.017132e+001 9.765037e+000 9.539694e+000 5.204107e-001
<VARIANCE> 13
 8.634825e+001 7.232643e+000 4.877286e+000 4.668462e+000 4.592446e+000 4.409113e+000 4.212792e+000 4.599447e+000 4.021644e+000 3.719528e+000 3.458328e+000 3.406184e+000 1.462058e-002
<GCONST> 4.037330e+001
<MIXTURE> 2 2.762014e-001
<MEAN> 13
 -1.691155e+001 4.710595e+000 2.551880e+000 -7.256383e-001 -1.897941e+000 -2.000093e+000 -6.416937e-001 -1.211765e+000 -7.447481e-001 -4.936993e-001 -5.226631e-001 -7.120174e-001 5.689822e-001
<VARIANCE> 13
 4.708995e+001 2.760513e+001 5.034137e+001 5.583065e+001 4.202741e+001 3.664606e+001 5.511806e+001 4.179889e+001 3.690560e+001 3.108057e+001 2.760475e+001 2.550126e+001 1.993306e-002
<GCONST> 6.377187e+001
<MIXTURE> 3 3.703759e-001
<MEAN> 13
 -1.455415e+001 1.445872e+000 4.739017e-001 1.319379e+000 8.034237e-001 1.624276e+000 2.879647e+000 2.000005e+000 1.977313e+000 3.199990e+000 1.929460e+000 2.036440e+000 4.427313e-001
<VARIANCE> 13
 1.937477e+001 1.011268e+001 1.508926e+001 1.976540e+001 1.814805e+001 1.891649e+001 2.011380e+001 1.802657e+001 1.938179e+001 1.996179e+001 1.693072e+001 1.559659e+001 3.254440e-002
<GCONST> 5.470912e+001
<TRANSP> 5
 0.000000e+000 1.000000e+000 0.000000e+000 0.000000e+000 0.000000e+000
 0.000000e+000 9.799803e-001 2.001968e-002 0.000000e+000 0.000000e+000
 0.000000e+000 0.000000e+000 9.030545e-001 9.694552e-002 0.000000e+000
 0.000000e+000 0.000000e+000 0.000000e+000 8.814455e-001 1.185545e-001
 0.000000e+000 0.000000e+000 0.000000e+000 0.000000e+000 0.000000e+000
<ENDHMM>
~h "ling"
<BEGINHMM>
<NUMSTATES> 5
<STATE> 2
<NUMMIXES> 3
<MIXTURE> 1 8.908394e-002
<MEAN> 13
 -3.728267e+000 1.465794e+001 1.086797e+001 8.600044e+000 6.869949e-001 -1.126869e+000 -4.011541e+000 -4.065570e+000 -3.096785e+000 2.426485e-001 7.345548e-001 9.428273e-001 8.617563e-001
<VARIANCE> 13
 1.082950e+001 9.804304e+000 7.581477e+000 1.437678e+001 1.874686e+001 1.702695e+001 1.344141e+001 2.085793e+001 1.726822e+001 1.124301e+001 1.210610e+001 8.762611e+000 6.397805e-003
<GCONST> 4.953173e+001
<MIXTURE> 2 7.415574e-001
<MEAN> 13
 -7.996848e+000 4.207025e+000 1.708212e+001 -9.159635e+000 -1.581201e+001 -5.355844e+000 -1.155782e+001 -5.661203e+000 -6.969603e+000 -2.836708e+000 -1.188512e-001 -2.939776e+000 9.182718e-001
<VARIANCE> 13
 1.215551e+001 3.320746e+001 4.340273e+001 7.394556e+001 4.927203e+001 3.938019e+001 3.849112e+001 4.535197e+001 3.465768e+001 4.374382e+001 7.030013e+001 3.269346e+001 6.707125e-003
<GCONST> 6.306155e+001
<MIXTURE> 3 1.693573e-001
<MEAN> 13
 -4.061030e+000 7.924075e+000 1.237039e+001 8.543652e-001 -9.895311e+000 -4.522453e+000 -7.804481e+000 -3.582621e+000 -4.540854e+000 -2.984041e+000 1.684873e+000 1.128013e+000 8.570465e-001
<VARIANCE> 13
 1.175179e+001 2.346645e+001 3.113707e+001 1.815441e+001 3.659031e+001 2.146332e+001 1.847520e+001 1.632175e+001 2.277901e+001 1.202072e+001 2.600595e+001 2.761806e+001 1.749955e-002
<GCONST> 5.636803e+001
<STATE> 3
<NUMMIXES> 3
<MIXTURE> 1 2.805414e-001
<MEAN> 13
 -8.948518e+000 9.657290e+000 8.377049e+000 1.007626e+001 6.779699e+000 5.108502e+000 1.870192e+000 1.280670e+000 1.956395e-002 1.559742e-001 -6.112986e-001 -9.783399e-001 7.257447e-001
<VARIANCE> 13
 5.251678e+000 1.711651e+001 1.009317e+001 1.415472e+001 1.513097e+001 1.429844e+001 1.473628e+001 1.342479e+001 1.523178e+001 1.079621e+001 1.238374e+001 1.267734e+001 1.195519e-002
<GCONST> 4.974940e+001
<MIXTURE> 2 4.229099e-001
<MEAN> 13
 -8.738803e+000 8.864490e+000 6.432641e+000 4.191720e+000 -2.658954e+000 -4.718812e+000 -6.094147e+000 -7.985818e+000 -7.418251e+000 -5.150220e+000 -5.820345e+000 -4.632344e+000 6.923937e-001
<VARIANCE> 13
 6.544437e+000 7.372144e+000 8.700012e+000 1.800129e+001 1.947500e+001 1.773946e+001 1.970595e+001 2.551818e+001 3.011346e+001 3.854259e+001 2.696112e+001 1.997388e+001 1.578355e-002
<GCONST> 5.408450e+001
<MIXTURE> 3 2.965486e-001
<MEAN> 13
 -8.750108e+000 8.780099e+000 7.069027e+000 6.106800e+000 8.584846e-001 2.802699e-002 -1.995055e+000 -2.088860e+000 -2.256091e+000 -1.494814e+000 -2.228834e+000 -1.641559e+000 6.378871e-001
<VARIANCE> 13
 2.854963e+000 9.832143e+000 5.950354e+000 7.507353e+000 1.133380e+001 1.330895e+001 1.000653e+001 1.268171e+001 1.024830e+001 1.371146e+001 1.432168e+001 1.407968e+001 2.018685e-002
<GCONST> 4.723520e+001
<STATE> 4
<NUMMIXES> 3
<MIXTURE> 1 5.768946e-001
<MEAN> 13
 -1.110931e+001 3.806251e+000 1.018919e+000 4.321438e+000 4.608905e+000 4.940125e+000 4.751365e+000 5.200570e+000 4.751476e+000 4.094206e+000 3.882000e+000 3.898166e+000 7.265042e-001
<VARIANCE> 13
 4.417254e+000 1.038613e+001 1.698031e+001 1.830752e+001 1.561288e+001 1.534510e+001 1.376419e+001 1.489556e+001 1.013751e+001 9.904016e+000 9.752974e+000 9.095729e+000 7.852759e-003
<GCONST> 4.850745e+001
<MIXTURE> 2 1.687330e-001
<MEAN> 13
 -1.029843e+001 2.490419e+000 2.491974e+000 4.178432e+000 4.493045e-001 -4.107913e-001 -3.110306e+000 -3.570087e+000 -3.962809e+000 -4.263922e+000 -3.797264e+000 -2.493729e+000 4.835856e-001
<VARIANCE> 13
 4.373507e+000 5.876010e+000 9.905829e+000 1.366460e+001 1.431772e+001 1.530012e+001 1.496568e+001 1.501885e+001 1.294129e+001 1.231054e+001 1.627133e+001 1.541272e+001 9.384564e-003
<GCONST> 4.877799e+001
<MIXTURE> 3 2.543707e-001
<MEAN> 13
 -9.971566e+000 2.546572e+000 2.225684e+000 4.604891e+000 1.450749e+000 6.787002e-001 -5.516652e-001 -1.533938e-001 -4.006200e-001 -2.561030e-001 -6.859410e-001 -9.109309e-002 4.807286e-001
<VARIANCE> 13
 2.043386e+000 4.387231e+000 6.745073e+000 8.143864e+000 1.049525e+001 1.034600e+001 8.575963e+000 1.068885e+001 9.326527e+000 1.109697e+001 1.198354e+001 1.318648e+001 1.334259e-002
<GCONST> 4.468294e+001
<TRANSP> 5
 0.000000e+000 1.000000e+000 0.000000e+000 0.000000e+000 0.000000e+000
 0.000000e+000 9.724722e-001 2.752781e-002 0.000000e+000 0.000000e+000
 0.000000e+000 0.000000e+000 9.119180e-001 8.808199e-002 0.000000e+000
 0.000000e+000 0.000000e+000 0.000000e+000 9.254341e-001 7.456592e-002
 0.000000e+000 0.000000e+000 0.000000e+000 0.000000e+000 0.000000e+000
<ENDHMM>
~h "liou"
<BEGINHMM>
<NUMSTATES> 5
<STATE> 2
<NUMMIXES> 3
<MIXTURE> 1 2.652113e-002
<MEAN> 13
 2.186770e+000 1.178858e+001 -5.104775e+000 -1.584312e+001 -1.011821e+001 8.892819e+000 8.219738e+000 1.956134e+000 4.593593e-001 -2.606325e+000 -2.287682e+000 4.130126e+000 7.268082e-001
<VARIANCE> 13
 4.526118e+000 2.379458e+000 6.101449e+000 1.814388e+001 2.715530e+001 9.407870e+000 1.346179e+001 2.674138e+001 2.317664e+001 1.138795e+001 1.647408e+001 6.542698e+000 4.401210e-003
<GCONST> 4.723515e+001
<MIXTURE> 2 8.240817e-001
<MEAN> 13
 -3.855764e+000 -3.658492e+000 4.568728e+000 -1.085643e+001 -1.306358e+001 -8.071570e+000 -8.301146e+000 1.446184e+000 -1.825594e+000 -1.174997e+000 -2.117821e+000 -6.679116e+000 9.179299e-001
<VARIANCE> 13
 1.670439e+001 3.379989e+001 7.809615e+001 5.948387e+001 7.350288e+001 6.272474e+001 4.069371e+001 4.787187e+001 6.940068e+001 4.292392e+001 7.804915e+001 3.759089e+001 5.067264e-003
<GCONST> 6.538133e+001
<MIXTURE> 3 1.493968e-001
<MEAN> 13
 1.978117e+000 8.976676e-001 -6.352055e+000 -1.843775e+001 -7.515022e+000 9.382563e+000 -1.984260e+000 -4.156397e+000 8.401867e-002 3.411768e+000 2.500280e+000 -3.403948e+000 8.397250e-001
<VARIANCE> 13
 1.094862e+001 3.435651e+001 1.748381e+001 3.759326e+001 2.252802e+001 2.868705e+001 2.052413e+001 1.636033e+001 2.378793e+001 3.242894e+001 1.943766e+001 3.157103e+001 5.990688e-003
<GCONST> 5.654831e+001
<STATE> 3
<NUMMIXES> 3
<MIXTURE> 1 1.814935e-001
<MEAN> 13
 -7.827150e+000 1.022662e+001 6.395971e+000 6.331388e+000 4.144232e+000 5.788577e+000 3.869769e+000 2.407444e+000 -6.331527e-001 -5.351422e-001 -3.088861e-001 5.290174e-002 6.433368e-001
<VARIANCE> 13
 6.698060e+000 2.654743e+001 2.695281e+001 2.945988e+001 2.219975e+001 1.958915e+001 2.344051e+001 2.629553e+001 2.488860e+001 1.765518e+001 1.766667e+001 1.320992e+001 1.965238e-002
<GCONST> 5.585772e+001
<MIXTURE> 2 5.133396e-001
<MEAN> 13
 -4.219609e+000 2.581945e+000 -8.659727e+000 -1.565707e+001 -3.963092e+000 4.883325e+000 -2.419622e+000 -3.648685e+000 -2.335794e+000 -1.593777e+000 -1.547684e+000 -4.279416e+000 6.852465e-001
<VARIANCE> 13
 1.068836e+001 1.934939e+001 1.219194e+001 5.633512e+001 3.185230e+001 2.062786e+001 2.658393e+001 1.899881e+001 3.136386e+001 4.554399e+001 4.819088e+001 3.507764e+001 1.438323e-002
<GCONST> 5.892412e+001
<MIXTURE> 3 3.051657e-001
<MEAN> 13
 -4.723105e+000 7.697733e+000 -3.334506e+000 -8.631258e+000 -5.107555e+000 5.856593e+000 5.447470e+000 3.276119e+000 -2.498631e+000 -4.587286e+000 -1.784967e+000 9.403999e-001 5.259210e-001
<VARIANCE> 13
 9.203994e+000 1.215890e+001 1.155490e+001 3.735080e+001 2.542459e+001 1.839606e+001 1.375510e+001 1.533814e+001 1.698959e+001 1.590006e+001 1.413254e+001 1.499820e+001 1.498493e-002
<GCONST> 5.293179e+001
<STATE> 4
<NUMMIXES> 3
<MIXTURE> 1 3.848518e-001
<MEAN> 13
 -1.007610e+001 4.483840e+000 4.185722e+000 5.996673e+000 4.421072e+000 5.503635e+000 4.417023e+000 3.124819e+000 9.373568e-001 -3.911938e-001 -9.708674e-001 -1.970661e-001 4.850479e-001
<VARIANCE> 13
 1.933113e+000 1.345794e+001 1.629221e+001 1.458509e+001 9.861630e+000 1.241143e+001 1.655815e+001 1.947979e+001 2.142459e+001 2.079870e+001 1.411042e+001 1.310364e+001 2.323707e-002
<GCONST> 5.076254e+001
<MIXTURE> 2 2.924342e-001
<MEAN> 13
 -1.075104e+001 1.549363e+000 -1.237423e+000 -7.835430e-001 -1.850472e+000 -6.142291e-001 -1.899189e+000 -1.773944e+000 -2.377552e+000 -2.085103e+000 -9.233284e-001 -9.163433e-001 2.998164e-001
<VARIANCE> 13
 8.967981e+000 9.061933e+000 1.763000e+001 2.300996e+001 1.777413e+001 1.562024e+001 1.821757e+001 1.796558e+001 2.134141e+001 2.427775e+001 2.039596e+001 1.786882e+001 4.215432e-002
<GCONST> 5.469501e+001
<MIXTURE> 3 3.227126e-001
<MEAN> 13
 -3.379407e+000 4.601877e-001 -1.417758e-001 4.137590e-001 1.807957e-001 4.846887e-001 2.567526e-001 3.078403e-001 1.838623e-001 8.346011e-002 -1.289402e-001 -1.735996e-001 -2.482270e-002
<VARIANCE> 13
 2.336146e+001 1.285185e+000 9.438287e-001 1.399702e+000 1.453961e+000 2.133329e+000 1.709787e+000 1.863613e+000 2.684358e+000 1.918607e+000 2.040020e+000 2.108222e+000 3.833690e-002
<GCONST> 2.970020e+001
<TRANSP> 5
 0.000000e+000 1.000000e+000 0.000000e+000 0.000000e+000 0.000000e+000
 0.000000e+000 9.668328e-001 3.316721e-002 0.000000e+000 0.000000e+000
 0.000000e+000 0.000000e+000 9.257476e-001 7.425246e-002 0.000000e+000
 0.000000e+000 0.000000e+000 0.000000e+000 9.333982e-001 6.660169e-002
 0.000000e+000 0.000000e+000 0.000000e+000 0.000000e+000 0.000000e+000
<ENDHMM>
~h "ba"
<BEGINHMM>
<NUMSTATES> 5
<STATE> 2
<NUMMIXES> 3
<MIXTURE> 1 2.281144e-002
<MEAN> 13
 -4.765065e+000 4.378222e+000 -1.463875e+000 9.272287e-001 1.336760e+001 1.037138e+001 -3.111985e+000 -1.182185e+000 1.728408e+000 1.114282e+000 -3.481595e+000 -4.373387e-001 7.633522e-001
<VARIANCE> 13
 1.433063e+001 1.390405e+001 5.892198e+000 6.682590e+000 6.452549e+001 1.144128e+001 1.673263e+001 2.850096e+001 1.868406e+001 1.705405e+001 2.335451e+001 1.793639e+001 8.453477e-003
<GCONST> 5.266021e+001
<MIXTURE> 2 6.904491e-001
<MEAN> 13
 -2.817416e+000 -1.106429e+001 -7.918729e+000 -1.194851e+001 2.317854e+000 5.509204e+000 -6.647064e+000 -4.023169e+000 -2.676475e+000 -4.591309e+000 -7.699924e+000 -8.284631e+000 9.273573e-001
<VARIANCE> 13
 1.407840e+001 3.084450e+001 1.442204e+001 1.812309e+001 2.272726e+001 5.627415e+001 5.049004e+001 4.741046e+001 7.017641e+001 7.241660e+001 6.692622e+001 3.460543e+001 4.578408e-003
<GCONST> 6.136101e+001
<MIXTURE> 3 2.867391e-001
<MEAN> 13
 -6.448975e-001 -3.531660e+000 -9.986588e+000 -1.050087e+001 5.949783e+000 1.009582e+001 -2.757912e+000 -3.071894e+000 -2.019140e+000 2.742304e+000 -4.714241e+000 -6.060234e+000 8.219845e-001
<VARIANCE> 13
 1.834172e+001 2.762977e+001 2.039114e+001 2.390017e+001 3.243643e+001 1.739160e+001 1.535218e+001 7.076272e+000 1.526312e+001 1.498447e+001 8.452351e+000 1.456794e+001 1.814759e-002
<GCONST> 5.356924e+001
<STATE> 3
<NUMMIXES> 3
<MIXTURE> 1 2.886046e-001
<MEAN> 13
 -9.724639e+000 7.443470e+000 6.552992e+000 9.748923e+000 8.857422e+000 7.056177e+000 2.736810e+000 1.819817e+000 1.699948e+000 1.339399e+000 -3.764891e-001 -7.303136e-001 6.479794e-001
<VARIANCE> 13
 3.454945e+000 1.744274e+001 1.302071e+001 1.297401e+001 2.188245e+001 2.431485e+001 2.209632e+001 2.429348e+001 1.877225e+001 1.960913e+001 1.770703e+001 1.391445e+001 7.366618e-003
<GCONST> 5.218748e+001
<MIXTURE> 2 4.803575e-001
<MEAN> 13
 -6.573861e+000 -3.862092e+000 -5.347610e+000 1.993292e+000 2.341863e+000 -4.089972e+000 -1.261143e+001 -3.895426e+000 -1.605204e+000 -7.861454e+000 -8.304805e+000 -5.917227e+000 8.588445e-001
<VARIANCE> 13
 4.059925e+000 4.066469e+001 1.456054e+001 8.317163e+000 1.463099e+001 1.845594e+001 3.273285e+001 1.553362e+001 3.078327e+001 3.503783e+001 1.854661e+001 1.944931e+001 1.322993e-002
<GCONST> 5.417170e+001
<MIXTURE> 3 2.310366e-001
<MEAN> 13
 -9.440843e+000 1.351141e+000 -2.818854e+000 2.877501e+000 6.012872e+000 5.147832e+000 -1.645956e-001 -3.810573e-001 1.986259e-001 -5.012865e-001 -2.808164e+000 -2.768171e+000 4.858621e-001
<VARIANCE> 13
 1.332112e+001 2.305002e+001 2.961247e+001 1.594506e+001 2.641459e+001 1.958451e+001 1.589050e+001 1.679962e+001 2.138964e+001 1.967610e+001 1.707676e+001 1.629212e+001 3.607095e-002
<GCONST> 5.596094e+001
<STATE> 4
<NUMMIXES> 3
<MIXTURE> 1 6.448435e-001
<MEAN> 13
 -1.163181e+001 3.194093e+000 1.240840e+000 4.921417e+000 4.600811e+000 5.911560e+000 5.162323e+000 5.589844e+000 5.271688e+000 5.521398e+000 5.034114e+000 3.984664e+000 6.831058e-001
<VARIANCE> 13
 5.684117e+000 1.212203e+001 1.767627e+001 1.661195e+001 1.688958e+001 1.591155e+001 1.350603e+001 1.473090e+001 1.371390e+001 1.347254e+001 1.142845e+001 1.097163e+001 1.515259e-002
<GCONST> 5.055517e+001
<MIXTURE> 2 1.155401e-001
<MEAN> 13
 -1.080992e+001 1.864141e+000 9.785520e-001 3.786510e+000 2.319312e+000 -2.349976e-001 -4.731176e+000 -2.445638e+000 -2.565637e+000 -6.457788e+000 -7.882288e+000 -5.546412e+000 6.428732e-001
<VARIANCE> 13
 2.486084e+000 4.113433e+000 9.638648e+000 1.005386e+001 1.667064e+001 2.005116e+001 1.949675e+001 1.440098e+001 1.253152e+001 1.642024e+001 1.717997e+001 1.498360e+001 2.975376e-002
<GCONST> 4.960325e+001
<MIXTURE> 3 2.396158e-001
<MEAN> 13
 -1.150471e+001 1.568390e+000 8.233185e-001 4.354540e+000 4.277085e+000 4.560421e+000 1.963857e+000 1.088421e+000 3.648787e-001 8.597898e-001 1.241653e-001 -2.741823e-001 4.672572e-001
<VARIANCE> 13
 2.697669e+000 6.598996e+000 1.159367e+001 1.167715e+001 1.187050e+001 1.284540e+001 1.166597e+001 1.234396e+001 1.245465e+001 1.183233e+001 1.465087e+001 1.382259e+001 1.743966e-002
<GCONST> 4.793141e+001
<TRANSP> 5
 0.000000e+000 1.000000e+000 0.000000e+000 0.000000e+000 0.000000e+000
 0.000000e+000 9.706515e-001 2.934847e-002 0.000000e+000 0.000000e+000
 0.000000e+000 0.000000e+000 9.282942e-001 7.170581e-002 0.000000e+000
 0.000000e+000 0.000000e+000 0.000000e+000 9.429245e-001 5.707552e-002
 0.000000e+000 0.000000e+000 0.000000e+000 0.000000e+000 0.000000e+000
<ENDHMM>
~h "er"
<BEGINHMM>
<NUMSTATES> 5
<STATE> 2
<NUMMIXES> 3
<MIXTURE> 1 1.386502e-002
<MEAN> 13
 -1.558825e+001 -1.437651e+000 -4.015285e+000 -2.310349e+000 -1.025729e+000 -1.329671e-001 1.961994e+000 6.504303e+000 1.012286e+001 9.101484e+000 2.192101e+000 -5.886362e-001 6.209399e-001
<VARIANCE> 13
 1.116944e+001 5.372703e+000 4.720516e+000 8.535098e+000 1.286159e+001 1.361314e+001 9.581821e+000 8.582711e+000 2.489587e+001 2.834247e+001 1.522062e+001 2.695703e+001 5.762985e-003
<GCONST> 4.867757e+001
<MIXTURE> 2 8.312984e-001
<MEAN> 13
 -2.624672e+000 -6.266419e+000 -6.024723e+000 -1.223760e+001 -4.996817e+000 -2.480345e+000 -9.432855e+000 2.321699e+000 2.636446e+000 3.242222e-001 -6.769728e+000 -1.030316e+001 9.091987e-001
<VARIANCE> 13
 1.606653e+001 2.633703e+001 2.280794e+001 5.671613e+001 4.208468e+001 7.102293e+001 3.477478e+001 3.101904e+001 5.285917e+001 7.173750e+001 6.135661e+001 3.346019e+001 9.383450e-003
<GCONST> 6.329036e+001
<MIXTURE> 3 1.548335e-001
<MEAN> 13
 -9.422247e-001 1.517843e+000 -4.183311e+000 -1.108679e+001 -3.875589e+000 2.743313e+000 -9.273163e+000 -2.559564e+000 7.315360e+000 7.431673e+000 -2.360483e+000 -8.299440e+000 7.792109e-001
<VARIANCE> 13
 2.833151e+001 1.320716e+001 1.240524e+001 3.728177e+001 1.434830e+001 6.221413e+001 3.160483e+001 2.923511e+001 2.357393e+001 2.533175e+001 1.769200e+001 1.038713e+001 2.247112e-002
<GCONST> 5.738701e+001
<STATE> 3
<NUMMIXES> 3
<MIXTURE> 1 1.848236e-001
<MEAN> 13
 -7.430689e+000 4.799138e+000 2.647192e-001 2.294676e+000 3.060847e+000 4.161472e+000 5.795674e-001 1.764595e+000 3.108367e+000 2.890737e+000 -1.054765e+000 -3.515891e+000 5.756863e-001
<VARIANCE> 13
 1.134927e+001 1.262634e+001 7.601505e+000 2.014618e+001 1.148325e+001 1.262028e+001 1.730980e+001 1.504230e+001 1.170111e+001 2.042393e+001 1.495501e+001 1.342023e+001 1.114666e-002
<GCONST> 5.070862e+001
<MIXTURE> 2 5.432491e-001
<MEAN> 13
 -5.913863e+000 3.377016e-002 -3.261341e+000 1.472414e+000 -5.844727e+000 -9.304638e+000 -3.152734e+000 5.786345e+000 8.978505e-001 -5.215088e+000 -5.151969e+000 -3.242093e+000 6.152835e-001
<VARIANCE> 13
 2.364015e+001 2.111146e+001 1.402151e+001 2.687287e+001 2.791745e+001 4.809111e+001 3.117168e+001 3.906957e+001 4.618329e+001 4.833307e+001 3.026867e+001 2.683286e+001 1.425499e-002
<GCONST> 6.050390e+001
<MIXTURE> 3 2.719265e-001
<MEAN> 13
 -6.654985e+000 3.780949e+000 -2.949692e+000 -1.725582e+000 6.373116e-001 2.105623e+000 -3.017087e+000 -1.405283e-001 2.989302e+000 2.349880e+000 -2.238564e+000 -4.461026e+000 5.526404e-001
<VARIANCE> 13
 1.288268e+001 1.292005e+001 1.151282e+001 2.704860e+001 1.907718e+001 1.988189e+001 1.726008e+001 2.295985e+001 1.640123e+001 2.191877e+001 1.397021e+001 1.511213e+001 1.118672e-002
<GCONST> 5.341270e+001
<STATE> 4
<NUMMIXES> 3
<MIXTURE> 1 5.283409e-001
<MEAN> 13
 -9.610645e+000 7.649214e+000 6.798901e+000 8.349455e+000 5.587956e+000 4.913126e+000 2.657740e+000 2.189440e+000 7.038936e-001 6.575965e-001 4.596511e-001 7.706441e-001 6.219321e-001
<VARIANCE> 13
 4.427793e+000 2.262026e+001 1.390137e+001 1.409765e+001 1.822336e+001 2.404548e+001 2.402758e+001 2.456209e+001 2.194951e+001 2.177241e+001 1.757270e+001 1.479417e+001 2.851877e-002
<GCONST> 5.441298e+001
<MIXTURE> 2 2.405724e-001
<MEAN> 13
 -1.209034e+001 -8.588281e-001 -3.818787e+000 -1.631514e+000 -1.751395e+000 -1.409550e+000 -2.853519e+000 -1.583163e+000 -6.495214e-001 -6.602603e-001 -1.851182e+000 -1.357552e+000 2.712252e-001
<VARIANCE> 13
 5.961184e+000 8.439379e+000 1.197464e+001 2.008118e+001 1.535085e+001 1.975102e+001 2.042472e+001 2.019606e+001 2.312046e+001 2.748270e+001 2.952607e+001 2.321483e+001 2.323205e-002
<GCONST> 5.425188e+001
<MIXTURE> 3 2.310866e-001
<MEAN> 13
 -2.394032e+000 2.043360e-001 -2.218208e-001 1.762598e-001 1.067991e-001 2.538344e-001 -2.243095e-001 4.856434e-003 1.992240e-002 2.095336e-001 -9.624565e-002 -1.802324e-003 -5.536329e-002
<VARIANCE> 13
 2.000518e+001 6.958625e-001 1.198860e+000 1.186714e+000 1.364671e+000 1.472689e+000 1.521311e+000 1.697164e+000 1.699908e+000 2.262864e+000 1.555364e+000 2.099295e+000 3.586918e-002
<GCONST> 2.772752e+001
<TRANSP> 5
 0.000000e+000 1.000000e+000 0.000000e+000 0.000000e+000 0.000000e+000
 0.000000e+000 9.700420e-001 2.995802e-002 0.000000e+000 0.000000e+000
 0.000000e+000 0.000000e+000 8.903961e-001 1.096040e-001 0.000000e+000
 0.000000e+000 0.000000e+000 0.000000e+000 9.476942e-001 5.230581e-002
 0.000000e+000 0.000000e+000 0.000000e+000 0.000000e+000 0.000000e+000
<ENDHMM>
~h "jiou"
<BEGINHMM>
<NUMSTATES> 5
<STATE> 2
<NUMMIXES> 3
<MIXTURE> 1 3.013985e-002
<MEAN> 13
 -1.960475e+001 2.942505e+000 5.389144e+000 -7.594469e+000 -3.837659e+000 5.841801e+000 5.957630e-001 -2.293188e+000 4.980528e+000 1.877994e+000 1.034652e+000 1.597474e+000 8.239174e-001
<VARIANCE> 13
 2.296935e+002 3.010828e+001 4.231481e+001 2.989528e+001 2.897098e+001 4.044507e+001 2.744962e+001 2.237068e+001 2.805960e+001 1.914699e+001 1.498270e+001 2.203536e+001 1.287537e-002
<GCONST> 6.109671e+001
<MIXTURE> 2 8.195505e-001
<MEAN> 13
 -2.471858e+000 -3.046046e+000 1.167409e+000 -1.229687e+001 -9.118822e+000 -4.479120e-001 -8.301949e+000 -2.192466e+000 -2.674997e-001 -5.125036e-001 -1.141011e+000 -5.252973e+000 9.381763e-001
<VARIANCE> 13
 1.668299e+001 3.551748e+001 1.019814e+002 1.068219e+002 6.294068e+001 1.398055e+002 3.293882e+001 3.936745e+001 5.233644e+001 4.157038e+001 4.475094e+001 3.994175e+001 2.301224e-003
<GCONST> 6.492210e+001
<MIXTURE> 3 1.503077e-001
<MEAN> 13
 4.006554e+000 4.654795e+000 -4.538875e+000 -1.545654e+001 -1.134584e+001 6.996328e+000 2.911058e+000 -1.549031e+000 1.020784e+000 -7.840077e-002 1.661406e+000 1.739998e+000 8.690273e-001
<VARIANCE> 13
 2.512258e+001 4.972493e+001 2.178540e+001 6.479603e+001 3.477166e+001 3.173034e+001 5.172406e+001 1.753765e+001 2.287452e+001 3.723742e+001 8.887528e+000 1.188870e+001 8.320333e-003
<GCONST> 5.871003e+001
<STATE> 3
<NUMMIXES> 3
<MIXTURE> 1 5.555436e-002
<MEAN> 13
 -5.277300e+000 9.463921e+000 -7.240053e-001 -3.760570e+000 -1.533207e+000 6.674572e+000 6.570342e+000 5.123298e+000 -1.157349e+000 -3.413172e+000 -1.564833e+000 3.406185e-002 6.387138e-001
<VARIANCE> 13
 5.865885e+000 1.727991e+001 1.624277e+001 1.223673e+001 1.737782e+001 3.184663e+001 1.209929e+001 2.307977e+001 2.181895e+001 1.798379e+001 1.457979e+001 1.760180e+001 1.364719e-002
<GCONST> 5.297709e+001
<MIXTURE> 2 6.906482e-001
<MEAN> 13
 -1.783120e+000 2.939407e+000 -9.571032e+000 -2.031628e+001 -5.054160e+000 7.709927e+000 -1.598932e+000 -4.633792e+000 -3.951770e+000 -1.908913e+000 -2.123911e+000 -3.158372e+000 8.580032e-001
<VARIANCE> 13
 1.235580e+001 1.535934e+001 9.888016e+000 5.898789e+001 3.609518e+001 2.019191e+001 1.874912e+001 1.912517e+001 2.444356e+001 3.782045e+001 2.621928e+001 2.242429e+001 7.539829e-003
<GCONST> 5.629880e+001
<MIXTURE> 3 2.537974e-001
<MEAN> 13
 -8.468146e-001 9.298779e+000 -5.659993e+000 -1.469999e+001 -1.013913e+001 4.510272e+000 4.760877e+000 1.529077e+000 -2.265030e+000 -3.979975e+000 -9.817716e-001 1.707999e+000 7.257769e-001
<VARIANCE> 13
 1.995978e+001 1.757538e+001 1.240668e+001 2.775463e+001 2.247624e+001 2.018405e+001 1.951860e+001 2.116316e+001 2.401622e+001 2.138507e+001 1.351363e+001 1.161118e+001 1.358440e-002
<GCONST> 5.473349e+001
<STATE> 4
<NUMMIXES> 3
<MIXTURE> 1 4.376191e-001
<MEAN> 13
 -9.097548e+000 7.321892e+000 5.580288e+000 6.274384e+000 4.482744e+000 5.471449e+000 3.581296e+000 2.796159e+000 4.653096e-001 -7.159349e-001 -1.016073e+000 -7.615389e-001 5.903986e-001
<VARIANCE> 13
 3.229064e+000 1.918543e+001 1.541675e+001 1.415648e+001 1.197321e+001 1.397901e+001 1.687108e+001 1.731924e+001 1.884057e+001 1.629510e+001 1.681354e+001 1.493064e+001 1.878814e-002
<GCONST> 5.147997e+001
<MIXTURE> 2 3.134539e-001
<MEAN> 13
 -8.572619e+000 4.173552e+000 -7.490391e-001 -1.656423e+000 -2.851763e+000 1.120774e+000 1.255139e+000 7.542834e-002 -3.453681e+000 -3.921810e+000 -3.680819e+000 -2.947631e+000 4.743157e-001
<VARIANCE> 13
 7.222751e+000 1.450349e+001 1.194710e+001 1.537317e+001 1.492594e+001 1.989775e+001 2.539218e+001 2.360655e+001 2.479275e+001 2.129021e+001 2.071581e+001 1.765038e+001 2.488675e-002
<GCONST> 5.432384e+001
<MIXTURE> 3 2.489285e-001
<MEAN> 13
 -2.665082e+000 6.570848e-001 -1.018555e-001 1.731088e-001 -1.361154e-001 2.646729e-001 8.915191e-002 1.032016e-001 -2.027040e-001 -9.207689e-002 -5.990002e-002 -2.217119e-001 -7.626793e-003
<VARIANCE> 13
 1.920292e+001 2.885792e+000 1.675223e+000 1.534206e+000 1.303384e+000 2.174256e+000 1.876579e+000 1.416386e+000 1.468737e+000 1.728697e+000 2.034738e+000 2.398657e+000 6.075928e-002
<GCONST> 3.058664e+001
<TRANSP> 5
 0.000000e+000 1.000000e+000 0.000000e+000 0.000000e+000 0.000000e+000
 0.000000e+000 9.593692e-001 4.063084e-002 0.000000e+000 0.000000e+000
 0.000000e+000 0.000000e+000 9.471723e-001 5.282767e-002 0.000000e+000
 0.000000e+000 0.000000e+000 0.000000e+000 9.192413e-001 8.075874e-002
 0.000000e+000 0.000000e+000 0.000000e+000 0.000000e+000 0.000000e+000
<ENDHMM>
~h "qi"
<BEGINHMM>
<NUMSTATES> 5
<STATE> 2
<NUMMIXES> 3
<MIXTURE> 1 1.249812e-001
<MEAN> 13
 -2.480019e+001 8.313478e+000 5.704288e+000 -7.324514e+000 2.886567e+000 1.084356e+000 1.883515e+000 8.670606e-001 3.554837e+000 9.091223e-001 2.346447e+000 5.853619e-001 8.344577e-001
<VARIANCE> 13
 2.372372e+001 3.495763e+001 2.416624e+001 3.530963e+001 2.990606e+001 1.600499e+001 2.610649e+001 3.594287e+001 2.384333e+001 1.791932e+001 2.303976e+001 2.541829e+001 1.017798e-002
<GCONST> 5.821975e+001
<MIXTURE> 2 7.472580e-001
<MEAN> 13
 -8.827896e+000 5.003551e+000 1.854846e+001 -8.788174e+000 -1.398823e+001 -5.780388e+000 -1.295301e+001 -5.632768e+000 -9.367698e+000 -7.077458e+000 -7.201889e-001 -3.832632e+000 9.479984e-001
<VARIANCE> 13
 1.628083e+001 2.645681e+001 3.143504e+001 6.960485e+001 3.378774e+001 1.998766e+001 2.940391e+001 5.035397e+001 3.697654e+001 3.427081e+001 8.123563e+001 4.156586e+001 2.358106e-003
<GCONST> 6.068340e+001
<MIXTURE> 3 1.277541e-001
<MEAN> 13
 -8.678269e+000 1.112836e+001 1.532156e+001 -1.883298e+000 -7.074592e+000 -3.561795e+000 -9.310048e+000 -3.097832e+000 -3.977753e+000 -6.332209e+000 1.344723e+000 1.431628e+000 8.871738e-001
<VARIANCE> 13
 5.512381e+001 3.031609e+001 5.366430e+001 2.429468e+001 2.833653e+001 1.419615e+001 2.989322e+001 1.727125e+001 1.776925e+001 1.847313e+001 1.802158e+001 3.174928e+001 7.137741e-003
<GCONST> 5.793133e+001
<STATE> 3
<NUMMIXES> 3
<MIXTURE> 1 7.882000e-002
<MEAN> 13
 -9.300775e+000 1.200422e+001 1.051505e+001 9.316285e+000 6.333953e+000 4.698797e+000 9.623341e-001 -1.473391e+000 -2.028966e+000 -2.153962e-001 -5.097257e-001 6.620914e-001 6.775378e-001
<VARIANCE> 13
 3.082030e+000 7.667509e+000 6.364949e+000 1.050056e+001 9.706406e+000 2.208758e+001 1.320602e+001 7.666237e+000 9.899694e+000 1.397863e+001 9.993012e+000 6.816344e+000 6.511109e-003
<GCONST> 4.535952e+001
<MIXTURE> 2 7.035270e-001
<MEAN> 13
 -1.083729e+001 8.766321e+000 1.156762e+001 -1.658530e+000 -9.090383e+000 -5.056974e+000 -7.093379e+000 -1.086447e+001 -6.552675e+000 -4.647870e+000 -4.434484e+000 -4.914661e+000 8.012945e-001
<VARIANCE> 13
 6.663336e+000 6.710700e+000 2.190005e+001 1.700866e+001 2.626707e+001 2.334451e+001 2.149359e+001 3.517178e+001 2.419643e+001 2.757735e+001 2.938039e+001 2.428456e+001 1.101492e-002
<GCONST> 5.522448e+001
<MIXTURE> 3 2.176517e-001
<MEAN> 13
 -7.342044e+000 1.175640e+001 1.145502e+001 4.478804e+000 -4.025539e+000 -2.623377e+000 -6.120663e+000 -4.735473e+000 -4.638592e+000 -1.245265e+000 -1.285009e-001 1.832789e-001 7.471575e-001
<VARIANCE> 13
 6.764450e+000 1.039408e+001 9.224330e+000 1.687414e+001 2.476559e+001 1.240903e+001 1.257613e+001 1.235143e+001 1.561171e+001 1.429096e+001 1.073711e+001 1.044450e+001 1.111745e-002
<GCONST> 4.959459e+001
<STATE> 4
<NUMMIXES> 3
<MIXTURE> 1 6.126073e-001
<MEAN> 13
 -1.093509e+001 4.446653e+000 2.062230e+000 5.137354e+000 4.263155e+000 4.987755e+000 4.497829e+000 5.092907e+000 4.466921e+000 3.849863e+000 3.712994e+000 3.028552e+000 7.741639e-001
<VARIANCE> 13
 4.150558e+000 1.151505e+001 1.797399e+001 1.440677e+001 1.417152e+001 1.080514e+001 1.336920e+001 1.283831e+001 1.194380e+001 1.177353e+001 1.226241e+001 1.152000e+001 1.382818e-002
<GCONST> 4.910821e+001
<MIXTURE> 2 1.372250e-001
<MEAN> 13
 -1.191645e+001 4.891674e+000 6.113884e+000 4.597618e+000 1.290131e-001 7.975126e-001 -2.559488e+000 -5.133907e+000 -4.396168e+000 -3.849312e+000 -4.269309e+000 -3.144170e+000 5.139214e-001
<VARIANCE> 13
 4.222847e+000 8.343755e+000 9.907522e+000 1.365821e+001 1.356877e+001 1.740542e+001 2.213494e+001 1.542797e+001 1.500533e+001 1.475516e+001 1.395833e+001 1.574723e+001 2.471465e-002
<GCONST> 5.075233e+001
<MIXTURE> 3 2.501665e-001
<MEAN> 13
 -1.042365e+001 5.049353e+000 5.634810e+000 6.766703e+000 3.525209e+000 2.777254e+000 5.639187e-001 -2.211122e-001 -1.139713e+000 -1.003430e+000 -1.434079e+000 -9.082955e-001 5.496988e-001
<VARIANCE> 13
 2.491894e+000 7.519515e+000 9.378540e+000 7.165602e+000 9.826414e+000 9.352329e+000 1.115576e+001 1.130456e+001 1.112987e+001 1.323033e+001 1.135088e+001 1.162938e+001 1.793556e-002
<GCONST> 4.624253e+001
<TRANSP> 5
 0.000000e+000 1.000000e+000 0.000000e+000 0.000000e+000 0.000000e+000
 0.000000e+000 9.740033e-001 2.599671e-002 0.000000e+000 0.000000e+000
 0.000000e+000 0.000000e+000 8.789867e-001 1.210133e-001 0.000000e+000
 0.000000e+000 0.000000e+000 0.000000e+000 9.391276e-001 6.087238e-002
 0.000000e+000 0.000000e+000 0.000000e+000 0.000000e+000 0.000000e+000
<ENDHMM>
~h "si"
<BEGINHMM>
<NUMSTATES> 5
<STATE> 2
<NUMMIXES> 3
<MIXTURE> 1 1.168481e-001
<MEAN> 13
 -2.518533e+001 7.569785e+000 -2.879637e+000 -1.623424e+000 8.672541e+000 -2.274590e+000 6.706510e+000 5.624787e+000 1.278612e+000 4.673121e+000 2.856691e+000 3.048159e+000 7.139368e-001
<VARIANCE> 13
 2.480056e+001 1.596186e+001 2.154782e+001 1.841107e+001 1.511935e+001 2.738194e+001 2.547362e+001 3.383102e+001 1.740148e+001 2.280839e+001 2.567263e+001 1.614630e+001 1.523779e-002
<GCONST> 5.646840e+001
<MIXTURE> 2 7.408319e-001
<MEAN> 13
 -5.342026e+000 2.991145e+000 9.590783e+000 -3.855889e+000 -9.860048e+000 -1.384497e+001 -1.480484e+001 -7.578151e-001 -5.332635e+000 -5.386640e+000 -3.987915e+000 1.289353e+000 9.237235e-001
<VARIANCE> 13
 1.810328e+001 3.023946e+001 2.706728e+001 3.176941e+001 3.781889e+001 2.794081e+001 3.660590e+001 3.331126e+001 4.297512e+001 3.130268e+001 2.136831e+001 2.367495e+001 4.971093e-003
<GCONST> 5.915001e+001
<MIXTURE> 3 1.423162e-001
<MEAN> 13
 -1.812334e+001 1.085708e+001 -1.890823e+000 9.728438e-001 3.460595e-002 -4.898731e+000 -3.614431e-001 -1.900401e+000 -8.294866e-001 -1.732051e+000 -1.969747e+000 -1.103897e+000 6.928146e-001
<VARIANCE> 13
 5.855597e+001 2.104519e+001 2.567040e+001 2.219035e+001 2.817435e+001 2.640545e+001 3.965330e+001 2.481079e+001 2.489813e+001 1.934391e+001 1.751536e+001 1.643473e+001 2.133343e-002
<GCONST> 5.884965e+001
<STATE> 3
<NUMMIXES> 3
<MIXTURE> 1 2.858207e-001
<MEAN> 13
 -9.728354e+000 8.219293e+000 7.534925e+000 9.608792e+000 6.776079e+000 4.733271e+000 3.600785e+000 3.300660e+000 2.070488e+000 1.202125e+000 5.165029e-001 7.583592e-001 6.715947e-001
<VARIANCE> 13
 6.656224e+000 2.267855e+001 1.666549e+001 1.338915e+001 1.127757e+001 1.354134e+001 1.425839e+001 1.896372e+001 1.887355e+001 1.685284e+001 1.614907e+001 1.473807e+001 2.374289e-002
<GCONST> 5.243970e+001
<MIXTURE> 2 5.210621e-001
<MEAN> 13
 -8.708778e+000 6.855941e+000 6.446124e+000 -1.534660e-001 -7.029092e+000 -1.153181e+001 -9.778476e+000 -3.089045e+000 -4.669449e+000 -3.835678e+000 -2.454076e+000 1.256274e+000 6.893729e-001
<VARIANCE> 13
 1.042344e+001 1.061318e+001 2.200431e+001 2.351740e+001 3.070952e+001 1.639230e+001 1.738688e+001 3.019399e+001 2.467784e+001 2.947754e+001 2.313569e+001 2.592829e+001 9.259097e-003
<GCONST> 5.563638e+001
<MIXTURE> 3 1.931176e-001
<MEAN> 13
 -7.659128e+000 8.422742e+000 6.589362e+000 3.342849e+000 -3.047696e+000 -5.926332e+000 -3.884755e+000 1.140860e+000 -1.009104e+000 -1.065887e-001 -4.811028e-001 2.176231e+000 6.185380e-001
<VARIANCE> 13
 1.030875e+001 2.212625e+001 1.373285e+001 1.379986e+001 2.097066e+001 1.314013e+001 2.645175e+001 1.838636e+001 1.248444e+001 1.415477e+001 1.228493e+001 9.447056e+000 1.427157e-002
<GCONST> 5.205146e+001
<STATE> 4
<NUMMIXES> 3
<MIXTURE> 1 2.970147e-001
<MEAN> 13
 -1.226587e+001 2.012306e+000 2.901464e+000 6.864425e+000 6.864268e+000 7.844143e+000 7.764765e+000 8.043484e+000 6.928063e+000 5.769195e+000 4.196328e+000 2.687945e+000 6.352962e-001
<VARIANCE> 13
 2.970684e+000 9.320961e+000 1.431593e+001 1.086944e+001 1.373360e+001 1.566222e+001 1.413725e+001 1.705385e+001 1.485886e+001 1.554252e+001 2.014451e+001 1.460165e+001 1.662106e-002
<GCONST> 5.014623e+001
<MIXTURE> 2 1.984908e-001
<MEAN> 13
 -1.103454e+001 3.362332e+000 2.236387e+000 3.401948e+000 1.110142e-001 -2.231091e+000 -1.026100e+000 2.520743e-001 -1.994136e+000 -3.214317e+000 -2.752671e+000 -6.366541e-001 4.535768e-001
<VARIANCE> 13
 4.341016e+000 6.456951e+000 9.581179e+000 1.574613e+001 1.641415e+001 1.978012e+001 2.682632e+001 4.009715e+001 2.497827e+001 2.009049e+001 1.774648e+001 2.214506e+001 1.595903e-002
<GCONST> 5.305989e+001
<MIXTURE> 3 5.044942e-001
<MEAN> 13
 -1.155575e+001 2.379160e+000 1.838782e+000 4.211002e+000 1.751568e+000 1.837377e+000 1.720811e+000 1.812022e+000 4.336548e-001 7.320389e-001 1.163184e-001 9.779533e-001 4.848408e-001
<VARIANCE> 13
 3.913160e+000 4.435432e+000 7.681164e+000 1.028770e+001 1.130885e+001 1.251491e+001 1.344459e+001 1.326072e+001 1.250531e+001 1.448175e+001 1.312939e+001 1.013889e+001 2.871163e-002
<GCONST> 4.779181e+001
<TRANSP> 5
 0.000000e+000 1.000000e+000 0.000000e+000 0.000000e+000 0.000000e+000
 0.000000e+000 9.721076e-001 2.789241e-002 0.000000e+000 0.000000e+000
 0.000000e+000 0.000000e+000 9.259852e-001 7.401475e-002 0.000000e+000
 0.000000e+000 0.000000e+000 0.000000e+000 9.013806e-001 9.861936e-002
 0.000000e+000 0.000000e+000 0.000000e+000 0.000000e+000 0.000000e+000
<ENDHMM>
~h "wu"
<BEGINHMM>
<NUMSTATES> 5
<STATE> 2
<NUMMIXES> 3
<MIXTURE> 1 1.230524e-002
<MEAN> 13
 -9.935965e-002 8.999415e+000 -1.959125e+000 1.021556e+000 8.921800e-001 2.157498e+000 -1.815453e+000 -4.281214e-001 1.780438e-001 1.569015e+000 -6.206043e-001 -1.015409e+000 8.358483e-001
<VARIANCE> 13
 2.055797e+001 1.894850e+001 2.033548e+001 1.044983e+001 1.022065e+001 8.747489e+000 1.742182e+001 1.479339e+001 5.791833e+000 9.621454e+000 1.432436e+001 1.597360e+001 1.953025e-002
<GCONST> 5.077896e+001
<MIXTURE> 2 7.581982e-001
<MEAN> 13
 1.167003e+000 1.212475e+001 3.863744e-001 -1.523408e+001 -1.496618e+001 -3.217951e+000 -5.068432e+000 -2.074208e+000 -3.334358e+000 -6.255578e+000 -5.131338e+000 -1.321071e+000 9.344911e-001
<VARIANCE> 13
 1.254636e+001 1.767935e+001 2.150864e+001 5.732534e+001 2.652975e+001 4.282974e+001 3.399173e+001 2.064975e+001 3.713410e+001 1.678188e+001 2.302992e+001 1.981406e+001 3.111128e-003
<GCONST> 5.678600e+001
<MIXTURE> 3 2.294949e-001
<MEAN> 13
 2.158576e+000 1.013503e+001 -1.543948e+000 -7.198184e+000 -8.356665e+000 -2.326743e+000 -1.833722e+000 -6.606086e-001 -3.965443e+000 -2.752465e+000 -7.429784e-001 4.058637e-001 9.010824e-001
<VARIANCE> 13
 1.602888e+001 1.943028e+001 7.882057e+000 3.043387e+001 2.203852e+001 1.673359e+001 1.507081e+001 1.944503e+001 2.417863e+001 1.583197e+001 1.572626e+001 1.169004e+001 7.681756e-003
<GCONST> 5.299699e+001
<STATE> 3
<NUMMIXES> 3
<MIXTURE> 1 1.176727e-001
<MEAN> 13
 -5.503111e+000 1.278092e+001 7.722105e+000 7.599338e+000 5.289175e+000 5.452524e+000 3.364841e+000 3.190943e+000 4.017831e+000 2.389205e+000 2.453291e-001 -4.761535e-001 8.455706e-001
<VARIANCE> 13
 8.223633e+000 1.193509e+001 2.125184e+001 1.551099e+001 1.300588e+001 1.026682e+001 1.276320e+001 1.089388e+001 2.430242e+001 1.935784e+001 1.676683e+001 1.639121e+001 1.418483e-002
<GCONST> 5.162021e+001
<MIXTURE> 2 5.514268e-001
<MEAN> 13
 -4.973679e+000 1.040006e+001 1.749180e+000 -3.971395e+000 -8.003046e+000 -5.423426e+000 -3.280710e+000 -1.730780e+000 -3.424971e+000 -5.213875e+000 -5.960991e+000 -4.162457e+000 7.282247e-001
<VARIANCE> 13
 8.565224e+000 2.026638e+001 9.382048e+000 1.724371e+001 2.730560e+001 2.500005e+001 2.821667e+001 2.664228e+001 2.707827e+001 3.320626e+001 2.731547e+001 1.880771e+001 1.640338e-002
<GCONST> 5.621663e+001
<MIXTURE> 3 3.308989e-001
<MEAN> 13
 -4.662930e+000 1.013091e+001 2.965400e+000 -9.538348e-001 -3.809533e+000 -2.212881e+000 -9.573098e-001 7.896079e-001 -1.096763e-001 -4.029637e-001 -1.245786e+000 -1.266239e+000 7.470027e-001
<VARIANCE> 13
 9.895067e+000 2.625231e+001 1.640619e+001 1.774432e+001 2.411894e+001 1.998851e+001 1.950673e+001 1.567566e+001 1.578641e+001 1.697562e+001 1.674279e+001 1.487805e+001 1.541119e-002
<GCONST> 5.396306e+001
<STATE> 4
<NUMMIXES> 3
<MIXTURE> 1 5.607116e-001
<MEAN> 13
 -1.002943e+001 5.852261e+000 5.795262e+000 7.367832e+000 4.461773e+000 3.808604e+000 1.516251e+000 1.149907e+000 -1.330139e-001 -4.214997e-001 -9.421235e-001 -7.927569e-001 4.832610e-001
<VARIANCE> 13
 1.638152e+000 1.211692e+001 9.924911e+000 8.317158e+000 9.937680e+000 1.229297e+001 1.729465e+001 1.713099e+001 1.746233e+001 1.556535e+001 1.317310e+001 1.296025e+001 1.315012e-002
<GCONST> 4.820442e+001
<MIXTURE> 2 1.955602e-001
<MEAN> 13
 -1.007751e+001 1.995766e+000 -8.774336e-002 1.445382e+000 -1.350335e+000 -1.195828e+000 -2.298877e+000 -2.020905e+000 -2.740206e+000 -2.134122e+000 -1.801372e+000 -1.327180e+000 2.968073e-001
<VARIANCE> 13
 7.742119e+000 1.542401e+001 2.198840e+001 1.289566e+001 1.359696e+001 1.307473e+001 1.775659e+001 1.484675e+001 1.386174e+001 1.354790e+001 1.783476e+001 1.372980e+001 5.023280e-002
<GCONST> 5.282247e+001
<MIXTURE> 3 2.437269e-001
<MEAN> 13
 -7.630939e-001 9.705119e-002 -8.638407e-002 7.524530e-002 -4.087718e-002 6.459057e-002 -1.762373e-002 3.734332e-002 -4.242958e-002 -3.341195e-003 -3.576304e-003 4.239843e-003 -1.282710e-001
<VARIANCE> 13
 6.511033e+000 3.058440e-001 5.531939e-001 2.207753e-001 2.184803e-001 2.099590e-001 2.291144e-001 2.522820e-001 2.330818e-001 1.961682e-001 1.125951e-001 1.627939e-001 8.662634e-003
<GCONST> 4.712808e+000
<TRANSP> 5
 0.000000e+000 1.000000e+000 0.000000e+000 0.000000e+000 0.000000e+000
 0.000000e+000 9.761288e-001 2.387123e-002 0.000000e+000 0.000000e+000
 0.000000e+000 0.000000e+000 8.526523e-001 1.473478e-001 0.000000e+000
 0.000000e+000 0.000000e+000 0.000000e+000 9.365965e-001 6.340351e-002
 0.000000e+000 0.000000e+000 0.000000e+000 0.000000e+000 0.000000e+000
<ENDHMM>
~h "san"
<BEGINHMM>
<NUMSTATES> 5
<STATE> 2
<NUMMIXES> 3
<MIXTURE> 1 7.508488e-002
<MEAN> 13
 -2.195321e+001 8.463795e+000 -3.522096e+000 2.822764e+000 5.317295e+000 -1.193775e+000 7.507573e+000 1.607056e+000 4.972218e+000 4.215169e+000 1.063093e+000 3.529370e+000 7.296534e-001
<VARIANCE> 13
 3.749306e+001 1.847917e+001 2.997200e+001 2.579932e+001 1.526460e+001 3.019179e+001 1.755352e+001 1.826428e+001 2.383762e+001 2.198267e+001 1.682671e+001 1.793703e+001 1.525990e-002
<GCONST> 5.677595e+001
<MIXTURE> 2 8.220479e-001
<MEAN> 13
 -3.312621e+000 -8.378925e+000 -4.775800e+000 -8.710614e+000 -1.928944e+000 -2.237118e+000 -5.549096e+000 3.380197e+000 -1.585713e+000 -5.604423e+000 -9.264464e+000 -5.944857e+000 9.385406e-001
<VARIANCE> 13
 1.439016e+001 3.445929e+001 2.668251e+001 2.223561e+001 4.439851e+001 6.103550e+001 3.574020e+001 3.485450e+001 7.954479e+001 5.797184e+001 3.507725e+001 2.492779e+001 2.414067e-003
<GCONST> 6.069992e+001
<MIXTURE> 3 1.028624e-001
<MEAN> 13
 -4.354905e+000 5.453409e+000 -1.675839e+000 -2.772454e-001 -1.143783e+000 -4.527041e+000 -3.569139e+000 2.880160e+000 -1.199265e+000 -2.640381e+000 -4.477614e+000 -2.211881e+000 8.477947e-001
<VARIANCE> 13
 2.981571e+001 3.182070e+001 2.204941e+001 1.940979e+001 1.501547e+001 2.924032e+001 1.974770e+001 2.523458e+001 1.435313e+001 1.829407e+001 1.437457e+001 1.591317e+001 9.619078e-003
<GCONST> 5.546164e+001
<STATE> 3
<NUMMIXES> 3
<MIXTURE> 1 3.348477e-001
<MEAN> 13
 -8.440116e+000 1.156078e+001 1.007624e+001 1.108043e+001 6.719552e+000 5.086037e+000 2.757255e+000 2.461868e+000 9.426858e-001 9.089496e-001 5.072421e-001 2.706371e-001 7.562431e-001
<VARIANCE> 13
 9.564502e+000 1.472832e+001 8.252991e+000 1.173073e+001 1.947569e+001 2.347713e+001 2.604392e+001 2.311504e+001 2.011369e+001 1.438826e+001 1.288760e+001 1.118663e+001 1.008948e-002
<GCONST> 5.198102e+001
<MIXTURE> 2 4.296037e-001
<MEAN> 13
 -5.998263e+000 6.704943e+000 5.400241e+000 3.053022e+000 -5.711042e+000 -6.774558e+000 -7.141151e+000 -5.741589e+000 -5.998626e+000 -6.975243e+000 -7.826549e+000 -3.323447e+000 7.337976e-001
<VARIANCE> 13
 1.135312e+001 1.592997e+001 1.259740e+001 1.255562e+001 2.246613e+001 2.703270e+001 2.611259e+001 5.281216e+001 7.182407e+001 5.605473e+001 3.542474e+001 2.469232e+001 1.307363e-002
<GCONST> 5.852926e+001
<MIXTURE> 3 2.355477e-001
<MEAN> 13
 -6.356566e+000 1.028846e+001 7.513400e+000 5.656384e+000 -5.038636e-001 -1.108661e+000 -3.131540e+000 -3.853825e+000 -3.199761e+000 -2.022533e+000 -3.288330e+000 -1.952484e+000 7.033485e-001
<VARIANCE> 13
 1.055029e+001 1.020173e+001 7.532394e+000 6.297239e+000 1.275857e+001 1.337262e+001 1.156184e+001 1.781008e+001 1.788569e+001 1.749908e+001 1.359033e+001 1.377261e+001 1.511263e-002
<GCONST> 4.968329e+001
<STATE> 4
<NUMMIXES> 3
<MIXTURE> 1 5.302257e-001
<MEAN> 13
 -1.087169e+001 3.939481e+000 2.071624e+000 5.295672e+000 4.474758e+000 5.232112e+000 4.688791e+000 5.245067e+000 4.520618e+000 3.949909e+000 3.445814e+000 3.139460e+000 7.037832e-001
<VARIANCE> 13
 3.992829e+000 9.809716e+000 1.900726e+001 1.425312e+001 1.360994e+001 1.370983e+001 1.282757e+001 1.150064e+001 1.151841e+001 1.251186e+001 1.224299e+001 9.918233e+000 1.343549e-002
<GCONST> 4.884508e+001
<MIXTURE> 2 1.616785e-001
<MEAN> 13
 -1.072879e+001 3.190240e+000 3.280016e+000 3.988260e+000 -2.538933e-001 -1.838540e+000 -3.711559e+000 -3.662331e+000 -4.822506e+000 -5.204454e+000 -5.379505e+000 -3.304126e+000 5.838854e-001
<VARIANCE> 13
 1.326360e+000 6.303055e+000 1.036131e+001 1.082592e+001 1.685338e+001 1.632354e+001 1.477028e+001 1.742999e+001 1.702584e+001 1.540263e+001 1.519332e+001 1.348411e+001 2.238458e-002
<GCONST> 4.899612e+001
<MIXTURE> 3 3.080947e-001
<MEAN> 13
 -1.054896e+001 3.602180e+000 4.063054e+000 6.048818e+000 3.094392e+000 2.395466e+000 2.327427e-001 -3.641628e-001 -1.063284e+000 -1.008534e+000 -1.528921e+000 -1.014532e+000 5.024441e-001
<VARIANCE> 13
 1.660725e+000 4.907749e+000 9.266541e+000 7.541617e+000 8.730224e+000 9.731402e+000 1.028783e+001 1.010896e+001 1.085536e+001 1.100463e+001 1.240882e+001 1.590198e+001 1.565516e-002
<GCONST> 4.523472e+001
<TRANSP> 5
 0.000000e+000 1.000000e+000 0.000000e+000 0.000000e+000 0.000000e+000
 0.000000e+000 9.698031e-001 3.019693e-002 0.000000e+000 0.000000e+000
 0.000000e+000 0.000000e+000 9.322995e-001 6.770050e-002 0.000000e+000
 0.000000e+000 0.000000e+000 0.000000e+000 9.484540e-001 5.154596e-002
 0.000000e+000 0.000000e+000 0.000000e+000 0.000000e+000 0.000000e+000
<ENDHMM>
