~o
<STREAMINFO> 1 13
<VECSIZE> 13<NULLD><MFCC_E><DIAGC>
~h "i"
<BEGINHMM>
<NUMSTATES> 5
<STATE> 2
<NUMMIXES> 3
<MIXTURE> 1 1.043614e-002
<MEAN> 13
 -9.868005e+000 9.902898e+000 9.644350e+000 7.599150e+000 4.508025e+000 4.561666e+000 -9.725416e-002 1.714768e+000 7.138817e-001 1.130032e+000 3.225731e+000 1.939976e+000 7.357159e-001
<VARIANCE> 13
 1.598679e+001 3.227141e+001 1.635708e+001 2.022831e+001 2.854681e+001 2.533600e+001 4.697312e+001 4.610861e+001 4.065483e+001 4.595993e+001 3.361110e+001 2.601939e+001 2.338919e-002
<GCONST> 6.075554e+001
<MIXTURE> 2 8.987418e-001
<MEAN> 13
 -1.038146e+001 8.436405e+000 1.834474e+001 -8.688069e+000 -9.596616e+000 -3.918175e+000 -1.457901e+001 -6.254261e+000 -1.037667e+001 -6.686159e+000 -1.734292e+000 -5.787559e+000 9.211230e-001
<VARIANCE> 13
 1.720927e+001 2.570228e+001 3.705256e+001 7.071831e+001 5.080080e+001 3.379365e+001 3.177862e+001 3.151701e+001 4.223419e+001 4.673645e+001 1.029552e+002 3.149313e+001 9.406826e-003
<GCONST> 6.321848e+001
<MIXTURE> 3 9.081837e-002
<MEAN> 13
 -6.687242e+000 1.160234e+001 1.752197e+001 -4.961929e-001 -6.684134e+000 -6.457262e-001 -1.180132e+001 -3.659351e+000 -6.910480e+000 -7.864500e+000 3.048702e+000 -1.189375e+000 8.877628e-001
<VARIANCE> 13
 1.234046e+001 3.221740e+001 3.792251e+001 2.177648e+001 3.734837e+001 1.768037e+001 2.373849e+001 1.542190e+001 1.955881e+001 2.846852e+001 1.868024e+001 1.610103e+001 1.712020e-002
<GCONST> 5.695087e+001
<STATE> 3
<NUMMIXES> 3
<MIXTURE> 1 4.051202e-001
<MEAN> 13
 -1.014771e+001 8.686197e+000 8.334897e+000 9.657608e+000 6.920935e+000 7.426654e+000 4.199915e+000 3.676881e+000 2.009045e+000 1.840255e+000 1.828028e+000 1.037766e+000 7.326140e-001
<VARIANCE> 13
 8.350225e+000 2.179347e+001 1.516959e+001 1.994575e+001 1.861855e+001 2.406483e+001 2.542621e+001 2.265935e+001 2.054354e+001 1.945456e+001 1.928522e+001 1.736099e+001 2.719749e-002
<GCONST> 5.546944e+001
<MIXTURE> 2 4.015236e-001
<MEAN> 13
 -9.918282e+000 8.056038e+000 9.582682e+000 1.107599e+000 -2.375027e+000 -2.507931e+000 -6.797024e+000 -7.633640e+000 -7.379091e+000 -5.005743e+000 -4.780020e+000 -3.619953e+000 7.378345e-001
<VARIANCE> 13
 1.569974e+001 1.798102e+001 1.912561e+001 3.717180e+001 3.032365e+001 2.349954e+001 2.718758e+001 2.571781e+001 3.054653e+001 2.603036e+001 3.294171e+001 2.045767e+001 2.547055e-002
<GCONST> 5.874217e+001
<MIXTURE> 3 1.933556e-001
<MEAN> 13
 -9.312436e+000 8.887336e+000 8.488800e+000 3.555613e+000 -5.222399e-001 2.287900e-001 -3.529377e+000 -2.735829e+000 -3.327853e+000 -1.757788e+000 -1.325863e+000 -1.245208e+000 6.504046e-001
<VARIANCE> 13
 1.026860e+001 2.057841e+001 1.829784e+001 2.759130e+001 2.043164e+001 1.600932e+001 2.146755e+001 1.773017e+001 1.739190e+001 1.545774e+001 1.373707e+001 1.252468e+001 3.698622e-002
<GCONST> 5.464679e+001
<STATE> 4
<NUMMIXES> 3
<MIXTURE> 1 5.019953e-001
<MEAN> 13
 -1.083545e+001 5.403342e+000 5.393916e+000 7.205835e+000 6.060813e+000 6.553708e+000 5.048525e+000 4.639221e+000 3.640092e+000 3.491713e+000 2.512534e+000 1.772910e+000 7.014031e-001
<VARIANCE> 13
 4.336882e+000 1.352139e+001 1.265994e+001 1.369248e+001 1.915195e+001 1.728117e+001 2.236222e+001 2.224639e+001 2.010641e+001 1.803346e+001 1.544983e+001 1.493462e+001 1.435375e-002
<GCONST> 5.222150e+001
<MIXTURE> 2 2.617840e-001
<MEAN> 13
 -1.099931e+001 5.685649e+000 5.472911e+000 2.778187e+000 -1.572986e+000 -1.162040e+000 -3.959398e+000 -4.069158e+000 -3.715809e+000 -2.885790e+000 -4.121557e+000 -2.877250e+000 5.754709e-001
<VARIANCE> 13
 6.852156e+000 1.496542e+001 1.248502e+001 1.881284e+001 2.048298e+001 1.829994e+001 2.188343e+001 1.997338e+001 1.647421e+001 1.527036e+001 1.984243e+001 1.815306e+001 2.155500e-002
<GCONST> 5.356562e+001
<MIXTURE> 3 2.362185e-001
<MEAN> 13
 -1.034636e+001 5.929977e+000 5.245979e+000 3.860791e+000 1.096157e-001 7.290894e-001 -1.489022e+000 -1.472357e+000 -1.818867e+000 -8.891526e-001 -1.223525e+000 -7.348267e-001 5.802365e-001
<VARIANCE> 13
 6.297383e+000 1.285441e+001 1.127418e+001 1.437025e+001 1.590197e+001 1.409953e+001 1.715571e+001 1.539824e+001 1.340818e+001 1.376504e+001 1.172682e+001 1.220765e+001 2.455782e-002
<GCONST> 5.083828e+001
<TRANSP> 5
 0.000000e+000 1.000000e+000 0.000000e+000 0.000000e+000 0.000000e+000
 0.000000e+000 9.752833e-001 2.471671e-002 0.000000e+000 0.000000e+000
 0.000000e+000 0.000000e+000 8.058255e-001 1.941745e-001 0.000000e+000
 0.000000e+000 0.000000e+000 0.000000e+000 8.455430e-001 1.544570e-001
 0.000000e+000 0.000000e+000 0.000000e+000 0.000000e+000 0.000000e+000
<ENDHMM>
~h "sil"
<BEGINHMM>
<NUMSTATES> 5
<STATE> 2
<NUMMIXES> 3
<MIXTURE> 1 2.410147e-001
<MEAN> 13
 -1.252200e+001 1.387426e+000 5.402987e-001 3.481662e+000 2.946333e+000 4.633291e+000 4.606525e+000 5.255844e+000 5.180391e+000 5.394910e+000 4.567491e+000 3.936621e+000 4.966986e-001
<VARIANCE> 13
 2.578924e+001 1.106370e+001 1.267716e+001 1.300396e+001 1.480224e+001 1.570673e+001 1.656583e+001 1.756432e+001 1.823913e+001 1.759813e+001 1.622464e+001 1.549899e+001 3.900915e-002
<GCONST> 5.382787e+001
<MIXTURE> 2 3.588962e-001
<MEAN> 13
 -1.314573e+001 -2.677347e-001 -1.413239e+000 1.361247e-001 -1.598301e+000 -6.757931e-001 -1.023682e+000 -2.565850e-003 -4.507926e-002 4.086595e-001 -1.762768e-001 -2.335446e-001 2.699510e-001
<VARIANCE> 13
 1.408864e+001 7.782436e+000 1.186576e+001 1.613364e+001 1.607196e+001 1.662006e+001 1.686539e+001 1.755102e+001 1.813819e+001 1.750698e+001 1.566560e+001 1.341158e+001 3.744746e-002
<GCONST> 5.294566e+001
<MIXTURE> 3 4.000330e-001
<MEAN> 13
 -1.300893e+001 6.314733e-002 -1.038583e+000 1.016765e+000 -3.217095e-001 8.353723e-001 6.007489e-001 1.530957e+000 1.376771e+000 1.798842e+000 1.038910e+000 7.135785e-001 2.937486e-001
<VARIANCE> 13
 1.152565e+001 6.381353e+000 9.045011e+000 1.207380e+001 1.241411e+001 1.294075e+001 1.340391e+001 1.390120e+001 1.480290e+001 1.387518e+001 1.148049e+001 1.078024e+001 3.355211e-002
<GCONST> 4.993898e+001
<STATE> 3
<NUMMIXES> 3
<MIXTURE> 1 3.775634e-001
<MEAN> 13
 -1.025656e+001 3.245302e+000 2.062439e+000 4.143822e+000 4.199882e+000 5.391014e+000 6.118583e+000 6.321640e+000 6.255962e+000 6.785342e+000 6.056590e+000 5.706676e+000 5.307085e-001
<VARIANCE> 13
 9.035017e+001 1.443830e+001 1.773875e+001 1.727448e+001 1.852834e+001 1.967535e+001 1.922882e+001 2.092080e+001 2.077036e+001 1.977225e+001 1.991124e+001 1.891866e+001 2.903765e-002
<GCONST> 5.709686e+001
<MIXTURE> 2 3.061252e-001
<MEAN> 13
 -1.448038e+001 1.272518e+000 -9.788601e-001 -4.560061e-001 -1.897307e+000 -1.554065e+000 -1.126156e+000 -6.251461e-001 -3.691101e-001 -1.366078e-001 -3.945432e-001 -6.192991e-001 3.544527e-001
<VARIANCE> 13
 3.637346e+001 1.581517e+001 2.185871e+001 2.891573e+001 2.244352e+001 2.126908e+001 2.397836e+001 2.140423e+001 2.219456e+001 2.013984e+001 1.745619e+001 1.629114e+001 6.114782e-002
<GCONST> 5.806359e+001
<MIXTURE> 3 3.163226e-001
<MEAN> 13
 -1.333195e+001 8.485445e-001 -9.433232e-001 5.573429e-001 -5.785218e-001 2.071988e-001 5.378536e-001 9.904000e-001 1.019550e+000 1.458668e+000 8.282674e-001 4.876237e-001 3.171004e-001
<VARIANCE> 13
 3.190949e+001 9.973242e+000 1.437633e+001 1.743285e+001 1.613896e+001 1.466134e+001 1.653536e+001 1.503848e+001 1.600078e+001 1.557495e+001 1.204894e+001 1.198607e+001 5.611784e-002
<GCONST> 5.377243e+001
<STATE> 4
<NUMMIXES> 3
<MIXTURE> 1 5.377545e-001
<MEAN> 13
 -3.657560e+000 5.161469e+000 3.973523e+000 5.498706e+000 5.781787e+000 6.986720e+000 7.619446e+000 7.975334e+000 7.854599e+000 8.528618e+000 7.782251e+000 7.718963e+000 5.393436e-001
<VARIANCE> 13
 1.244301e+002 1.171641e+001 1.323518e+001 1.685074e+001 1.454530e+001 1.618028e+001 1.417957e+001 1.672034e+001 1.748564e+001 1.475803e+001 1.711489e+001 1.559608e+001 2.161372e-002
<GCONST> 5.481961e+001
<MIXTURE> 2 2.511814e-001
<MEAN> 13
 -1.414373e+001 2.767527e+000 1.587841e+000 -1.110714e+000 -2.765544e+000 -2.328891e+000 -2.065854e+000 -1.134658e+000 -1.281906e+000 -7.979503e-001 -1.055827e+000 -1.222587e+000 5.138146e-001
<VARIANCE> 13
 4.953328e+001 2.996041e+001 5.347586e+001 4.335151e+001 3.344011e+001 2.746379e+001 4.354741e+001 2.732309e+001 2.969647e+001 2.441753e+001 2.255907e+001 1.982357e+001 6.182721e-002
<GCONST> 6.275363e+001
<MIXTURE> 3 2.110678e-001
<MEAN> 13
 -1.418544e+001 1.716095e+000 -2.682210e-001 -1.032012e-001 -6.715506e-001 8.532861e-002 7.820258e-001 6.498742e-001 5.926011e-001 1.431717e+000 5.309176e-001 3.581212e-001 3.995023e-001
<VARIANCE> 13
 3.743792e+001 1.484750e+001 2.206902e+001 2.545703e+001 1.936073e+001 1.746019e+001 2.170639e+001 1.685113e+001 1.707028e+001 1.713576e+001 1.341883e+001 1.355887e+001 5.905348e-002
<GCONST> 5.632217e+001
<TRANSP> 5
 0.000000e+000 1.000000e+000 0.000000e+000 0.000000e+000 0.000000e+000
 0.000000e+000 9.838919e-001 1.610805e-002 0.000000e+000 0.000000e+000
 0.000000e+000 0.000000e+000 7.264479e-001 2.735520e-001 0.000000e+000
 0.000000e+000 0.000000e+000 0.000000e+000 7.695645e-001 2.304355e-001
 0.000000e+000 0.000000e+000 0.000000e+000 0.000000e+000 0.000000e+000
<ENDHMM>
~h "ling"
<BEGINHMM>
<NUMSTATES> 5
<STATE> 2
<NUMMIXES> 3
<MIXTURE> 1 6.543126e-002
<MEAN> 13
 -4.125155e+000 1.345005e+001 1.053871e+001 7.891146e+000 8.233106e-001 4.101681e-001 -3.023068e+000 -2.384339e+000 -1.846213e+000 1.008061e-001 1.050572e+000 1.545145e+000 8.508949e-001
<VARIANCE> 13
 1.724230e+001 1.836573e+001 1.321617e+001 2.255660e+001 3.430276e+001 2.279860e+001 2.014092e+001 2.276551e+001 1.602934e+001 1.152424e+001 1.282228e+001 1.432695e+001 1.279944e-002
<GCONST> 5.421149e+001
<MIXTURE> 2 8.201692e-001
<MEAN> 13
 -7.646709e+000 5.308022e+000 1.524175e+001 -6.287864e+000 -1.340161e+001 -5.283832e+000 -1.056918e+001 -5.885874e+000 -6.855395e+000 -3.239164e+000 -7.163869e-001 -2.687703e+000 8.818965e-001
<VARIANCE> 13
 1.295087e+001 3.325423e+001 5.066888e+001 9.186617e+001 6.592354e+001 3.566748e+001 3.825881e+001 4.080124e+001 3.351262e+001 3.997564e+001 6.415415e+001 3.159875e+001 1.517654e-002
<GCONST> 6.414581e+001
<MIXTURE> 3 1.143936e-001
<MEAN> 13
 -5.809060e+000 7.332411e+000 1.192490e+001 1.286714e+000 -8.219158e+000 -3.365227e+000 -6.557370e+000 -3.448443e+000 -4.733812e+000 -1.951022e+000 1.160947e+000 -1.830043e-001 8.240128e-001
<VARIANCE> 13
 1.364552e+001 3.317524e+001 3.632072e+001 3.984997e+001 6.547857e+001 2.163232e+001 2.303807e+001 2.036576e+001 2.071824e+001 1.608711e+001 2.346540e+001 2.335245e+001 2.481371e-002
<GCONST> 5.911094e+001
<STATE> 3
<NUMMIXES> 3
<MIXTURE> 1 3.919773e-001
<MEAN> 13
 -8.789137e+000 9.667977e+000 7.847973e+000 9.080304e+000 5.604056e+000 4.425914e+000 1.734041e+000 1.468176e+000 6.091786e-001 8.580683e-001 1.253970e-001 -2.705933e-001 7.163022e-001
<VARIANCE> 13
 6.239710e+000 1.790648e+001 1.191890e+001 1.870823e+001 2.150846e+001 2.006508e+001 1.704152e+001 1.732964e+001 1.490881e+001 1.151596e+001 1.201558e+001 1.199906e+001 1.510232e-002
<GCONST> 5.169490e+001
<MIXTURE> 2 3.733287e-001
<MEAN> 13
 -9.392162e+000 7.908424e+000 6.805900e+000 5.081651e+000 -6.334651e-001 -2.027102e+000 -4.211418e+000 -4.966271e+000 -4.948355e+000 -3.890233e+000 -4.873032e+000 -3.764367e+000 6.448575e-001
<VARIANCE> 13
 6.252896e+000 1.182860e+001 1.089834e+001 2.115588e+001 2.518726e+001 2.198382e+001 1.886459e+001 2.122299e+001 2.271588e+001 2.586090e+001 2.438121e+001 2.128095e+001 1.995981e-002
<GCONST> 5.465890e+001
<MIXTURE> 3 2.346930e-001
<MEAN> 13
 -9.025957e+000 8.054511e+000 6.654637e+000 6.087469e+000 1.204567e+000 1.331640e-002 -2.138357e+000 -2.155164e+000 -2.451298e+000 -1.603748e+000 -2.038327e+000 -1.749808e+000 6.278834e-001
<VARIANCE> 13
 4.072760e+000 1.203991e+001 8.664490e+000 1.433137e+001 1.868164e+001 1.707595e+001 1.355776e+001 1.462373e+001 1.345527e+001 1.513584e+001 1.394179e+001 1.447366e+001 2.026832e-002
<GCONST> 5.038641e+001
<STATE> 4
<NUMMIXES> 3
<MIXTURE> 1 4.311337e-001
<MEAN> 13
 -1.071532e+001 4.390173e+000 2.563400e+000 5.451313e+000 4.754188e+000 5.067021e+000 4.056575e+000 4.228787e+000 3.587879e+000 3.005702e+000 2.220035e+000 1.969900e+000 6.874259e-001
<VARIANCE> 13
 3.791652e+000 1.084842e+001 2.382788e+001 2.497543e+001 1.839350e+001 1.699886e+001 1.925768e+001 2.346945e+001 1.905684e+001 1.419665e+001 1.537770e+001 1.324609e+001 1.577109e-002
<GCONST> 5.262420e+001
<MIXTURE> 2 2.948597e-001
<MEAN> 13
 -1.081406e+001 3.509164e+000 3.666826e+000 4.007041e+000 4.280550e-001 -2.453749e-001 -2.782490e+000 -2.933432e+000 -3.328836e+000 -3.199346e+000 -3.384843e+000 -2.224270e+000 5.134879e-001
<VARIANCE> 13
 4.716514e+000 8.513391e+000 1.197206e+001 1.818689e+001 1.785326e+001 1.518130e+001 1.837681e+001 1.585933e+001 1.692785e+001 1.953172e+001 2.067936e+001 2.055228e+001 1.793040e-002
<GCONST> 5.207734e+001
<MIXTURE> 3 2.740068e-001
<MEAN> 13
 -1.048269e+001 3.620517e+000 3.317931e+000 4.461135e+000 1.448115e+000 9.312046e-001 -9.373447e-001 -8.347549e-001 -1.069608e+000 -6.401265e-001 -1.126428e+000 -6.942093e-001 5.274695e-001
<VARIANCE> 13
 3.850396e+000 7.135305e+000 1.161790e+001 1.450296e+001 1.475236e+001 1.210070e+001 1.470578e+001 1.384660e+001 1.361848e+001 1.459370e+001 1.354609e+001 1.338416e+001 2.072766e-002
<GCONST> 4.944938e+001
<TRANSP> 5
 0.000000e+000 1.000000e+000 0.000000e+000 0.000000e+000 0.000000e+000
 0.000000e+000 9.759666e-001 2.403336e-002 0.000000e+000 0.000000e+000
 0.000000e+000 0.000000e+000 8.600695e-001 1.399306e-001 0.000000e+000
 0.000000e+000 0.000000e+000 0.000000e+000 8.378022e-001 1.621978e-001
 0.000000e+000 0.000000e+000 0.000000e+000 0.000000e+000 0.000000e+000
<ENDHMM>
~h "liou"
<BEGINHMM>
<NUMSTATES> 5
<STATE> 2
<NUMMIXES> 3
<MIXTURE> 1 1.714683e-002
<MEAN> 13
 -2.594271e+000 8.562147e+000 -2.438490e+000 -7.454731e+000 -3.641138e+000 6.958581e+000 6.560595e+000 2.924343e+000 6.832054e-002 -1.180877e+000 -6.970510e-001 2.161772e+000 6.484229e-001
<VARIANCE> 13
 2.725329e+001 2.110348e+001 2.002389e+001 4.645150e+001 2.165272e+001 1.761955e+001 2.579786e+001 2.751460e+001 2.187616e+001 2.803262e+001 1.973607e+001 1.620058e+001 1.776372e-002
<GCONST> 5.774716e+001
<MIXTURE> 2 8.823335e-001
<MEAN> 13
 -3.347861e+000 -2.056782e+000 1.878367e+000 -1.238162e+001 -1.141175e+001 -4.500200e+000 -6.849340e+000 -1.157559e-002 -1.899701e+000 -1.230215e+000 -1.941035e+000 -6.182895e+000 8.726717e-001
<VARIANCE> 13
 1.766041e+001 4.264438e+001 8.999254e+001 6.974770e+001 7.447546e+001 9.706031e+001 4.721123e+001 4.878795e+001 6.176091e+001 4.391599e+001 7.086882e+001 3.725455e+001 1.393123e-002
<GCONST> 6.739968e+001
<MIXTURE> 3 1.005168e-001
<MEAN> 13
 -1.825372e-001 3.791874e+000 -3.273295e+000 -1.254021e+001 -7.734832e+000 2.981669e+000 -1.264839e+000 1.899915e-003 -2.645504e-001 7.902420e-001 7.815832e-001 -1.203024e+000 7.787790e-001
<VARIANCE> 13
 1.928384e+001 4.258294e+001 4.864737e+001 6.386131e+001 3.029489e+001 7.378217e+001 5.248888e+001 3.001900e+001 2.514700e+001 3.535086e+001 2.245001e+001 2.770686e+001 2.397748e-002
<GCONST> 6.321135e+001
<STATE> 3
<NUMMIXES> 3
<MIXTURE> 1 3.215260e-001
<MEAN> 13
 -7.951137e+000 9.103742e+000 4.660592e+000 4.392334e+000 3.706954e+000 6.502985e+000 5.028965e+000 3.459459e+000 -1.431829e-002 -2.591562e-001 5.133443e-001 1.458910e+000 6.151397e-001
<VARIANCE> 13
 9.713044e+000 3.001817e+001 3.890680e+001 5.011691e+001 2.643035e+001 1.820642e+001 2.043478e+001 2.401292e+001 2.179704e+001 2.247869e+001 1.789931e+001 1.260576e+001 2.592396e-002
<GCONST> 5.747599e+001
<MIXTURE> 2 4.402467e-001
<MEAN> 13
 -5.208620e+000 4.107526e+000 -5.657193e+000 -1.104834e+001 -3.903961e+000 4.946908e+000 -1.055981e-001 -1.361778e+000 -2.644433e+000 -2.262807e+000 -1.678645e+000 -2.828751e+000 6.103178e-001
<VARIANCE> 13
 1.199600e+001 2.655904e+001 3.187463e+001 7.192223e+001 3.004816e+001 2.440045e+001 3.334401e+001 2.194994e+001 2.240452e+001 4.198250e+001 3.088941e+001 3.243699e+001 2.587900e-002
<GCONST> 6.068869e+001
<MIXTURE> 3 2.382266e-001
<MEAN> 13
 -6.104191e+000 5.965886e+000 -2.674181e+000 -6.450308e+000 -2.872948e+000 5.228175e+000 2.956476e+000 1.158335e+000 -1.909338e+000 -2.141253e+000 -6.703155e-001 2.702484e-001 5.521140e-001
<VARIANCE> 13
 1.308966e+001 2.148829e+001 3.323692e+001 6.737538e+001 2.729382e+001 2.205605e+001 2.444674e+001 1.871222e+001 1.669814e+001 2.410634e+001 1.816620e+001 1.757665e+001 2.554429e-002
<GCONST> 5.786816e+001
<STATE> 4
<NUMMIXES> 3
<MIXTURE> 1 2.736137e-001
<MEAN> 13
 -9.896829e+000 4.907893e+000 3.660809e+000 5.237266e+000 4.350439e+000 5.991948e+000 5.333140e+000 4.276748e+000 1.965409e+000 9.812866e-001 7.357190e-001 1.244070e+000 5.489381e-001
<VARIANCE> 13
 7.890661e+000 2.107014e+001 2.436302e+001 2.479836e+001 1.412217e+001 1.271483e+001 1.416448e+001 1.704100e+001 1.951650e+001 1.889957e+001 1.298634e+001 1.265153e+001 3.111463e-002
<GCONST> 5.362866e+001
<MIXTURE> 2 3.532410e-001
<MEAN> 13
 -7.047353e+000 1.472696e+000 -1.661067e+000 -1.859455e+000 -1.284901e+000 1.020554e+000 -9.828284e-002 -3.997068e-001 -1.491879e+000 -1.585161e+000 -1.119545e+000 -1.085429e+000 2.192035e-001
<VARIANCE> 13
 2.823075e+001 9.165404e+000 1.593244e+001 2.522519e+001 1.592835e+001 1.603862e+001 1.666076e+001 1.436403e+001 1.383579e+001 1.656846e+001 1.577145e+001 1.578617e+001 9.172060e-002
<GCONST> 5.502842e+001
<MIXTURE> 3 3.731450e-001
<MEAN> 13
 -6.448822e+000 1.403880e+000 -4.971667e-001 -5.387594e-002 4.702732e-002 1.929988e+000 1.388459e+000 9.504671e-001 -1.789277e-001 -2.945063e-001 -2.150448e-001 -1.169301e-001 1.837833e-001
<VARIANCE> 13
 2.819376e+001 7.778924e+000 1.035539e+001 1.413642e+001 1.009381e+001 1.208344e+001 1.194287e+001 9.945790e+000 1.043493e+001 1.035453e+001 8.978914e+000 9.171690e+000 9.154227e-002
<GCONST> 5.055285e+001
<TRANSP> 5
 0.000000e+000 1.000000e+000 0.000000e+000 0.000000e+000 0.000000e+000
 0.000000e+000 9.723879e-001 2.761213e-002 0.000000e+000 0.000000e+000
 0.000000e+000 0.000000e+000 8.682490e-001 1.317510e-001 0.000000e+000
 0.000000e+000 0.000000e+000 0.000000e+000 9.079337e-001 9.206632e-002
 0.000000e+000 0.000000e+000 0.000000e+000 0.000000e+000 0.000000e+000
<ENDHMM>
~h "ba"
<BEGINHMM>
<NUMSTATES> 5
<STATE> 2
<NUMMIXES> 3
<MIXTURE> 1 1.922276e-002
<MEAN> 13
 -7.647613e+000 3.552120e+000 -1.298694e+000 2.239394e+000 1.002494e+001 8.260959e+000 8.604790e-001 1.913410e+000 3.233933e+000 2.774240e+000 -3.322212e-001 -6.434649e-001 7.089860e-001
<VARIANCE> 13
 2.328127e+001 1.818571e+001 1.575466e+001 1.985156e+001 4.893993e+001 2.408706e+001 2.094606e+001 2.423024e+001 2.096482e+001 1.853041e+001 2.586994e+001 1.752201e+001 2.658516e-002
<GCONST> 5.743932e+001
<MIXTURE> 2 8.926854e-001
<MEAN> 13
 -2.827354e+000 -9.083421e+000 -8.307529e+000 -1.009613e+001 3.330860e+000 5.519480e+000 -6.711083e+000 -3.880236e+000 -2.330078e+000 -3.238948e+000 -7.190867e+000 -7.576199e+000 8.998306e-001
<VARIANCE> 13
 1.671136e+001 3.855981e+001 1.632505e+001 3.872633e+001 2.658296e+001 5.918463e+001 4.760279e+001 3.393455e+001 5.241539e+001 6.373027e+001 4.883799e+001 2.974824e+001 1.110424e-002
<GCONST> 6.245289e+001
<MIXTURE> 3 8.808904e-002
<MEAN> 13
 -2.404531e+000 -1.738547e+000 -7.566864e+000 -6.197787e+000 5.527689e+000 8.063835e+000 -1.897651e+000 -1.705847e+000 -2.131692e-001 1.402993e+000 -3.632492e+000 -5.000582e+000 7.943993e-001
<VARIANCE> 13
 2.227365e+001 3.091418e+001 2.420772e+001 3.955330e+001 3.704243e+001 2.951896e+001 1.840238e+001 1.700291e+001 1.860652e+001 1.716243e+001 1.245889e+001 2.007568e+001 2.876774e-002
<GCONST> 5.777398e+001
<STATE> 3
<NUMMIXES> 3
<MIXTURE> 1 3.674656e-001
<MEAN> 13
 -9.927089e+000 6.618911e+000 4.880625e+000 9.243779e+000 1.046188e+001 8.756664e+000 3.603283e+000 2.835683e+000 3.300546e+000 2.988464e+000 3.841153e-001 -2.152727e-001 6.485463e-001
<VARIANCE> 13
 6.136706e+000 2.946155e+001 2.989336e+001 2.468902e+001 1.753934e+001 1.737084e+001 2.133366e+001 2.071018e+001 1.706246e+001 1.731195e+001 1.815220e+001 1.393323e+001 1.840246e-002
<GCONST> 5.473000e+001
<MIXTURE> 2 4.344331e-001
<MEAN> 13
 -6.637369e+000 -1.916492e-001 -3.415268e+000 1.214095e+000 3.580524e+000 -4.668046e-001 -9.094518e+000 -4.042181e+000 -3.503039e+000 -8.531539e+000 -8.562381e+000 -5.920650e+000 7.202986e-001
<VARIANCE> 13
 1.398023e+001 3.214131e+001 1.954457e+001 2.639072e+001 2.347770e+001 4.398679e+001 6.252514e+001 2.574870e+001 4.623787e+001 6.872083e+001 3.320857e+001 1.968581e+001 3.449523e-002
<GCONST> 6.174942e+001
<MIXTURE> 3 1.981032e-001
<MEAN> 13
 -9.795109e+000 1.020618e+000 -2.565053e+000 2.861105e+000 6.323373e+000 5.522702e+000 -4.330091e-001 -7.217795e-001 2.147106e-001 -2.110584e-001 -3.067052e+000 -2.891875e+000 4.941828e-001
<VARIANCE> 13
 1.741831e+001 2.415471e+001 2.683391e+001 2.347451e+001 2.345801e+001 1.991203e+001 2.113034e+001 1.488267e+001 1.659595e+001 1.880387e+001 1.843253e+001 1.644503e+001 5.423217e-002
<GCONST> 5.682031e+001
<STATE> 4
<NUMMIXES> 3
<MIXTURE> 1 6.829719e-001
<MEAN> 13
 -1.044595e+001 3.401238e+000 3.316042e+000 6.006476e+000 6.025454e+000 7.104030e+000 6.312224e+000 6.231485e+000 5.934601e+000 6.459186e+000 5.545301e+000 4.644633e+000 6.035911e-001
<VARIANCE> 13
 4.172684e+001 1.421065e+001 1.505283e+001 1.726206e+001 1.740113e+001 1.675672e+001 1.479690e+001 1.954075e+001 1.887438e+001 1.976043e+001 2.098046e+001 1.936691e+001 1.455402e-002
<GCONST> 5.487863e+001
<MIXTURE> 2 1.715917e-001
<MEAN> 13
 -1.045882e+001 9.650589e-001 -1.121446e+000 2.537925e+000 1.752252e+000 -4.582308e-001 -4.398154e+000 -2.253955e+000 -2.522706e+000 -5.102962e+000 -6.542274e+000 -3.993201e+000 6.119883e-001
<VARIANCE> 13
 8.836905e+000 1.273206e+001 1.510213e+001 1.291731e+001 1.606624e+001 2.374855e+001 3.219987e+001 1.694519e+001 2.058715e+001 3.120343e+001 2.441947e+001 1.737785e+001 5.203167e-002
<GCONST> 5.569492e+001
<MIXTURE> 3 1.454349e-001
<MEAN> 13
 -1.170104e+001 6.470501e-001 -4.249037e-001 3.036947e+000 3.345262e+000 3.466798e+000 8.647811e-001 7.318299e-002 2.351263e-001 2.685143e-001 -1.270500e+000 -1.218559e+000 4.737861e-001
<VARIANCE> 13
 8.147668e+000 1.129264e+001 1.623768e+001 1.420696e+001 1.528204e+001 1.579865e+001 1.831434e+001 1.560357e+001 1.570480e+001 1.948673e+001 2.059664e+001 1.678495e+001 3.077828e-002
<GCONST> 5.308550e+001
<TRANSP> 5
 0.000000e+000 1.000000e+000 0.000000e+000 0.000000e+000 0.000000e+000
 0.000000e+000 9.740683e-001 2.593174e-002 0.000000e+000 0.000000e+000
 0.000000e+000 0.000000e+000 8.603340e-001 1.396660e-001 0.000000e+000
 0.000000e+000 0.000000e+000 0.000000e+000 9.366642e-001 6.333576e-002
 0.000000e+000 0.000000e+000 0.000000e+000 0.000000e+000 0.000000e+000
<ENDHMM>
~h "er"
<BEGINHMM>
<NUMSTATES> 5
<STATE> 2
<NUMMIXES> 3
<MIXTURE> 1 1.158024e-002
<MEAN> 13
 -9.283090e+000 3.376540e+000 -1.202300e+000 -2.362415e-001 1.439925e+000 3.388385e+000 1.256139e+000 3.391864e+000 6.094426e+000 6.206035e+000 1.480027e+000 -1.498246e+000 6.078936e-001
<VARIANCE> 13
 4.241844e+001 2.348960e+001 1.226436e+001 1.709214e+001 1.645462e+001 1.670091e+001 1.758352e+001 2.075300e+001 2.362074e+001 2.236555e+001 1.671934e+001 2.602938e+001 1.641911e-002
<GCONST> 5.589371e+001
<MIXTURE> 2 9.209542e-001
<MEAN> 13
 -2.613616e+000 -4.943026e+000 -5.731719e+000 -1.130478e+001 -5.033681e+000 -2.438730e+000 -9.043152e+000 1.889956e+000 3.141141e+000 8.008425e-001 -6.229416e+000 -9.680215e+000 8.712943e-001
<VARIANCE> 13
 1.856289e+001 3.266344e+001 2.140635e+001 6.107561e+001 3.839766e+001 7.795623e+001 3.612423e+001 3.572787e+001 5.245662e+001 7.252981e+001 5.656497e+001 3.234638e+001 1.895346e-002
<GCONST> 6.443277e+001
<MIXTURE> 3 6.746040e-002
<MEAN> 13
 -2.565177e+000 4.592827e-001 -3.645445e+000 -6.906632e+000 -3.431319e+000 1.378658e-001 -6.690292e+000 1.100312e+000 5.545683e+000 5.067977e+000 -1.876541e+000 -7.049161e+000 7.411749e-001
<VARIANCE> 13
 3.571690e+001 2.458547e+001 1.350570e+001 5.091288e+001 2.249471e+001 6.011826e+001 3.824088e+001 3.190076e+001 2.301038e+001 3.021777e+001 2.048097e+001 2.196247e+001 3.536478e-002
<GCONST> 6.083071e+001
<STATE> 3
<NUMMIXES> 3
<MIXTURE> 1 1.976549e-001
<MEAN> 13
 -8.230739e+000 4.748991e+000 7.938655e-001 3.551755e+000 2.936497e+000 3.726462e+000 1.307039e+000 3.261344e+000 3.923742e+000 3.149598e+000 1.513835e-001 -1.122021e+000 5.660012e-001
<VARIANCE> 13
 1.791340e+001 2.120125e+001 1.716335e+001 2.888772e+001 1.783772e+001 2.082074e+001 1.842603e+001 2.304599e+001 1.646225e+001 2.853424e+001 1.663614e+001 1.470090e+001 1.384878e-002
<GCONST> 5.537883e+001
<MIXTURE> 2 5.377992e-001
<MEAN> 13
 -7.433850e+000 1.099607e+000 -3.371714e+000 -4.912581e-001 -3.535355e+000 -4.343357e+000 -3.048067e+000 3.529441e+000 1.827252e+000 -2.344118e+000 -4.504202e+000 -3.777353e+000 5.730276e-001
<VARIANCE> 13
 1.916744e+001 2.003290e+001 1.396773e+001 3.438143e+001 2.557803e+001 5.111832e+001 2.782645e+001 3.764194e+001 4.079739e+001 6.005191e+001 2.927290e+001 2.658133e+001 1.758504e-002
<GCONST> 6.056723e+001
<MIXTURE> 3 2.645452e-001
<MEAN> 13
 -7.719155e+000 2.909724e+000 -2.188358e+000 3.138616e-001 -6.396053e-001 -2.706377e-001 -1.694154e+000 2.782998e+000 3.584230e+000 1.317501e+000 -1.853050e+000 -2.678202e+000 5.480723e-001
<VARIANCE> 13
 2.006118e+001 1.694399e+001 1.203236e+001 3.054936e+001 2.224433e+001 3.854248e+001 2.185708e+001 3.235029e+001 1.862601e+001 3.095157e+001 1.733030e+001 1.969049e+001 1.601151e-002
<GCONST> 5.699817e+001
<STATE> 4
<NUMMIXES> 3
<MIXTURE> 1 2.849697e-001
<MEAN> 13
 -9.800618e+000 7.131045e+000 5.853791e+000 7.837635e+000 6.021246e+000 6.035237e+000 3.802717e+000 3.320713e+000 1.965726e+000 1.831027e+000 1.112976e+000 1.183171e+000 6.470607e-001
<VARIANCE> 13
 6.634917e+000 3.145233e+001 2.538980e+001 2.141495e+001 1.887485e+001 2.074757e+001 2.080296e+001 2.252228e+001 2.315192e+001 2.162988e+001 1.728003e+001 1.502635e+001 3.205445e-002
<GCONST> 5.598671e+001
<MIXTURE> 2 3.920600e-001
<MEAN> 13
 -1.073168e+001 -7.463802e-001 -2.884348e+000 -6.069202e-001 -1.495029e+000 -1.256872e+000 -1.809979e+000 3.520659e-001 7.756419e-001 -5.288330e-002 -1.417529e+000 -1.273646e+000 2.369899e-001
<VARIANCE> 13
 2.296828e+001 7.394899e+000 9.780334e+000 1.722103e+001 1.281078e+001 1.583261e+001 1.647334e+001 1.927234e+001 2.065435e+001 2.715079e+001 2.046052e+001 1.628858e+001 5.551525e-002
<GCONST> 5.447378e+001
<MIXTURE> 3 3.229686e-001
<MEAN> 13
 -9.898540e+000 -7.146783e-002 -1.848723e+000 9.597845e-002 -2.949161e-001 2.829983e-001 -4.561352e-001 1.142146e+000 1.964653e+000 1.524375e+000 1.203485e-001 -4.273126e-001 2.107635e-001
<VARIANCE> 13
 2.716503e+001 6.330026e+000 8.053734e+000 1.213282e+001 1.014220e+001 1.212095e+001 1.193816e+001 1.447231e+001 1.630633e+001 1.684379e+001 1.178275e+001 1.076673e+001 5.828566e-002
<GCONST> 5.120154e+001
<TRANSP> 5
 0.000000e+000 1.000000e+000 0.000000e+000 0.000000e+000 0.000000e+000
 0.000000e+000 9.727547e-001 2.724534e-002 0.000000e+000 0.000000e+000
 0.000000e+000 0.000000e+000 7.668868e-001 2.331131e-001 0.000000e+000
 0.000000e+000 0.000000e+000 0.000000e+000 9.667089e-001 3.329109e-002
 0.000000e+000 0.000000e+000 0.000000e+000 0.000000e+000 0.000000e+000
<ENDHMM>
~h "jiou"
<BEGINHMM>
<NUMSTATES> 5
<STATE> 2
<NUMMIXES> 3
<MIXTURE> 1 3.722426e-002
<MEAN> 13
 -8.180762e+000 6.415521e+000 1.754784e-001 -8.994804e+000 -4.862783e+000 5.211323e+000 3.164699e+000 1.871382e+000 2.681645e+000 1.315684e+000 1.551248e+000 1.984570e+000 7.674589e-001
<VARIANCE> 13
 2.298389e+002 4.559389e+001 4.599216e+001 3.957133e+001 4.669918e+001 2.954492e+001 2.865399e+001 2.460387e+001 2.715327e+001 2.786514e+001 1.429148e+001 1.631534e+001 2.596197e-002
<GCONST> 6.287349e+001
<MIXTURE> 2 7.996776e-001
<MEAN> 13
 -2.783721e+000 1.053574e-001 -1.990382e+000 -1.530328e+001 -8.377161e+000 2.732655e+000 -5.150613e+000 -3.121718e+000 -1.117779e+000 -1.320394e+000 -1.495538e+000 -4.144881e+000 8.892809e-001
<VARIANCE> 13
 4.638980e+001 4.810418e+001 9.252789e+001 9.743438e+001 5.607204e+001 1.062705e+002 4.752648e+001 3.448049e+001 4.568474e+001 4.080562e+001 3.827855e+001 3.692872e+001 1.089442e-002
<GCONST> 6.706880e+001
<MIXTURE> 3 1.630940e-001
<MEAN> 13
 -3.066538e+000 3.796541e+000 -2.828698e+000 -1.435913e+001 -8.161687e+000 4.495569e+000 -6.586093e-002 -1.277934e+000 2.257952e-001 2.553540e-001 6.589937e-001 -3.366880e-001 8.371648e-001
<VARIANCE> 13
 1.157218e+002 4.515503e+001 5.887328e+001 7.618833e+001 3.873713e+001 5.514614e+001 4.692425e+001 2.528223e+001 2.968755e+001 3.351580e+001 1.550633e+001 2.176519e+001 1.894142e-002
<GCONST> 6.436561e+001
<STATE> 3
<NUMMIXES> 3
<MIXTURE> 1 1.392981e-001
<MEAN> 13
 -6.122344e+000 9.745131e+000 2.779713e+000 9.106483e-001 1.349231e+000 6.281778e+000 5.358571e+000 4.489127e+000 2.955918e-001 -1.127825e+000 1.677918e-001 1.243103e+000 6.707113e-001
<VARIANCE> 13
 1.401673e+001 2.444183e+001 3.361947e+001 5.596121e+001 3.424466e+001 2.174857e+001 1.928929e+001 1.680083e+001 2.032743e+001 1.881116e+001 1.535210e+001 1.424267e+001 2.975249e-002
<GCONST> 5.748184e+001
<MIXTURE> 2 6.523319e-001
<MEAN> 13
 -3.938800e+000 3.894821e+000 -7.612776e+000 -1.485365e+001 -3.966036e+000 6.353370e+000 -2.348212e-001 -2.762530e+000 -4.208777e+000 -3.475759e+000 -2.608501e+000 -2.180279e+000 7.689677e-001
<VARIANCE> 13
 1.151139e+001 1.798606e+001 2.308902e+001 8.228899e+001 3.435255e+001 2.392939e+001 2.415817e+001 2.680686e+001 1.950979e+001 2.743890e+001 1.889317e+001 2.104383e+001 2.171022e-002
<GCONST> 5.839831e+001
<MIXTURE> 3 2.083699e-001
<MEAN> 13
 -3.831500e+000 6.160008e+000 -4.441774e+000 -1.099215e+001 -5.115898e+000 5.620824e+000 3.065172e+000 9.462842e-001 -2.548588e+000 -2.521764e+000 -1.143161e+000 2.626702e-001 7.051733e-001
<VARIANCE> 13
 1.722231e+001 2.313514e+001 2.368124e+001 7.666560e+001 3.026999e+001 2.489986e+001 2.069064e+001 2.074328e+001 1.765052e+001 2.533884e+001 1.381694e+001 1.408170e+001 2.681134e-002
<GCONST> 5.782596e+001
<STATE> 4
<NUMMIXES> 3
<MIXTURE> 1 3.214222e-001
<MEAN> 13
 -8.912997e+000 7.497837e+000 5.128903e+000 5.429398e+000 4.193239e+000 5.691370e+000 4.017161e+000 3.600801e+000 1.225386e+000 2.240267e-001 6.500713e-002 2.097629e-001 6.085082e-001
<VARIANCE> 13
 6.353068e+000 1.937432e+001 2.186364e+001 2.522427e+001 1.661320e+001 1.258337e+001 1.564210e+001 1.754331e+001 1.691135e+001 1.739081e+001 1.595768e+001 1.443655e+001 1.801269e-002
<GCONST> 5.308208e+001
<MIXTURE> 2 3.820390e-001
<MEAN> 13
 -6.311489e+000 3.498181e+000 -7.782732e-001 -1.389810e+000 -1.284824e+000 1.999374e+000 1.058411e+000 -1.509134e-001 -2.473207e+000 -2.590499e+000 -2.665971e+000 -1.981008e+000 3.589809e-001
<VARIANCE> 13
 1.883678e+001 1.743172e+001 2.220666e+001 3.122271e+001 1.797506e+001 1.867079e+001 1.775999e+001 1.634848e+001 1.751667e+001 1.547605e+001 1.479788e+001 1.433403e+001 1.121438e-001
<GCONST> 5.648666e+001
<MIXTURE> 3 2.965393e-001
<MEAN> 13
 -6.084575e+000 3.470708e+000 4.994363e-001 3.172465e-001 -5.230671e-003 2.429696e+000 1.773655e+000 1.183188e+000 -9.232401e-001 -1.247840e+000 -1.137581e+000 -8.430525e-001 3.152401e-001
<VARIANCE> 13
 2.159572e+001 1.773309e+001 1.851902e+001 2.506289e+001 1.508650e+001 1.508187e+001 1.276278e+001 1.313508e+001 1.075208e+001 1.119896e+001 1.079309e+001 1.035630e+001 1.144912e-001
<GCONST> 5.386979e+001
<TRANSP> 5
 0.000000e+000 1.000000e+000 0.000000e+000 0.000000e+000 0.000000e+000
 0.000000e+000 9.739937e-001 2.600635e-002 0.000000e+000 0.000000e+000
 0.000000e+000 0.000000e+000 8.709505e-001 1.290495e-001 0.000000e+000
 0.000000e+000 0.000000e+000 0.000000e+000 8.851278e-001 1.148722e-001
 0.000000e+000 0.000000e+000 0.000000e+000 0.000000e+000 0.000000e+000
<ENDHMM>
~h "qi"
<BEGINHMM>
<NUMSTATES> 5
<STATE> 2
<NUMMIXES> 3
<MIXTURE> 1 3.745804e-002
<MEAN> 13
 -2.101430e+001 1.138216e+001 7.393105e+000 -1.711970e+000 3.903054e+000 2.058545e+000 2.603296e+000 1.116129e+000 3.395131e+000 1.069289e+000 2.985104e+000 2.489424e+000 8.120639e-001
<VARIANCE> 13
 5.926579e+001 3.090539e+001 3.351371e+001 3.666266e+001 2.920330e+001 1.683936e+001 3.659528e+001 3.061419e+001 3.240531e+001 1.978119e+001 2.044308e+001 1.855791e+001 1.456486e-002
<GCONST> 5.991091e+001
<MIXTURE> 2 8.374967e-001
<MEAN> 13
 -1.026370e+001 6.371062e+000 1.632365e+001 -7.664801e+000 -1.204642e+001 -5.302225e+000 -1.099331e+001 -6.368297e+000 -7.803505e+000 -6.249966e+000 -1.258377e+000 -3.762998e+000 9.092011e-001
<VARIANCE> 13
 3.210102e+001 3.014827e+001 4.875836e+001 6.583121e+001 4.469418e+001 2.169785e+001 4.178380e+001 4.864211e+001 4.336482e+001 3.417935e+001 6.882857e+001 3.935065e+001 9.106330e-003
<GCONST> 6.384206e+001
<MIXTURE> 3 1.250423e-001
<MEAN> 13
 -1.180718e+001 8.733100e+000 1.331651e+001 -2.745174e+000 -6.719865e+000 -2.629670e+000 -6.968684e+000 -2.642833e+000 -3.090252e+000 -4.332717e+000 1.728835e+000 7.098060e-001 8.473794e-001
<VARIANCE> 13
 7.886346e+001 3.232858e+001 5.987297e+001 2.970938e+001 4.881197e+001 1.850260e+001 5.538989e+001 2.093610e+001 3.109208e+001 3.038527e+001 1.773740e+001 2.202134e+001 1.667185e-002
<GCONST> 6.180608e+001
<STATE> 3
<NUMMIXES> 3
<MIXTURE> 1 1.346403e-001
<MEAN> 13
 -9.771975e+000 9.815442e+000 9.092524e+000 8.250973e+000 5.113110e+000 4.815778e+000 9.184179e-001 -3.801561e-001 -8.985300e-001 8.103385e-002 3.517844e-002 6.780546e-001 6.784064e-001
<VARIANCE> 13
 4.635065e+000 1.768473e+001 1.101059e+001 1.287784e+001 1.782188e+001 2.113335e+001 1.784404e+001 1.293842e+001 1.203474e+001 1.289838e+001 8.330237e+000 8.702973e+000 1.374510e-002
<GCONST> 4.966765e+001
<MIXTURE> 2 6.509851e-001
<MEAN> 13
 -1.068860e+001 7.406013e+000 1.128934e+001 8.271269e-001 -5.789662e+000 -2.302351e+000 -7.160967e+000 -7.343409e+000 -6.847114e+000 -3.348508e+000 -2.930188e+000 -4.028687e+000 7.230563e-001
<VARIANCE> 13
 6.443015e+000 1.191988e+001 2.343620e+001 2.747172e+001 3.358609e+001 1.877870e+001 2.543336e+001 3.192606e+001 2.082260e+001 2.348628e+001 2.926407e+001 2.473774e+001 2.358280e-002
<GCONST> 5.687727e+001
<MIXTURE> 3 2.143744e-001
<MEAN> 13
 -9.927282e+000 8.171953e+000 9.757021e+000 3.426343e+000 -2.708317e+000 -6.774958e-001 -4.248747e+000 -3.679044e+000 -3.701824e+000 -1.207735e+000 -9.087351e-001 -1.292440e+000 6.969090e-001
<VARIANCE> 13
 6.580043e+000 1.356746e+001 1.460533e+001 2.093078e+001 3.297734e+001 1.661182e+001 2.073826e+001 1.473491e+001 1.620250e+001 1.712398e+001 1.378712e+001 1.332207e+001 2.785649e-002
<GCONST> 5.339297e+001
<STATE> 4
<NUMMIXES> 3
<MIXTURE> 1 5.930923e-001
<MEAN> 13
 -1.072499e+001 5.444876e+000 3.984974e+000 6.498399e+000 4.620017e+000 4.926405e+000 4.058414e+000 4.249509e+000 3.289299e+000 2.835658e+000 2.562614e+000 2.146953e+000 7.360113e-001
<VARIANCE> 13
 3.917050e+000 1.240273e+001 2.113804e+001 1.346011e+001 1.344349e+001 1.169128e+001 1.679442e+001 1.724424e+001 1.621196e+001 1.564972e+001 1.467564e+001 1.310511e+001 2.093669e-002
<GCONST> 5.108147e+001
<MIXTURE> 2 2.029154e-001
<MEAN> 13
 -1.137763e+001 5.382463e+000 6.512617e+000 4.440457e+000 -2.277482e-001 3.627524e-001 -2.594336e+000 -4.434690e+000 -3.843170e+000 -2.695740e+000 -3.849789e+000 -3.035845e+000 5.632883e-001
<VARIANCE> 13
 5.691702e+000 1.037813e+001 1.512631e+001 1.928446e+001 2.319678e+001 1.803355e+001 2.320306e+001 2.147717e+001 1.823016e+001 1.638778e+001 1.681660e+001 1.596219e+001 2.962198e-002
<GCONST> 5.366733e+001
<MIXTURE> 3 2.039915e-001
<MEAN> 13
 -1.108197e+001 4.959292e+000 5.555136e+000 5.245477e+000 1.626831e+000 1.874883e+000 -4.424223e-001 -1.320287e+000 -1.400843e+000 -7.554365e-001 -1.317406e+000 -8.479589e-001 5.641496e-001
<VARIANCE> 13
 5.190848e+000 8.850660e+000 1.260305e+001 1.272093e+001 1.632607e+001 1.137603e+001 1.667465e+001 1.563387e+001 1.597435e+001 1.495032e+001 1.357678e+001 1.219058e+001 2.945409e-002
<GCONST> 5.064440e+001
<TRANSP> 5
 0.000000e+000 1.000000e+000 0.000000e+000 0.000000e+000 0.000000e+000
 0.000000e+000 9.778084e-001 2.219160e-002 0.000000e+000 0.000000e+000
 0.000000e+000 0.000000e+000 6.995133e-001 3.004867e-001 0.000000e+000
 0.000000e+000 0.000000e+000 0.000000e+000 9.049928e-001 9.500720e-002
 0.000000e+000 0.000000e+000 0.000000e+000 0.000000e+000 0.000000e+000
<ENDHMM>
~h "si"
<BEGINHMM>
<NUMSTATES> 5
<STATE> 2
<NUMMIXES> 3
<MIXTURE> 1 8.312517e-002
<MEAN> 13
 -2.220698e+001 9.220445e+000 -1.531085e+000 1.703079e+000 6.916220e+000 -1.076887e+000 5.314559e+000 4.945019e+000 1.710259e+000 3.871956e+000 2.868235e+000 3.133811e+000 6.875964e-001
<VARIANCE> 13
 5.370067e+001 2.010509e+001 3.382921e+001 2.284751e+001 2.437830e+001 2.089859e+001 2.867837e+001 3.244410e+001 1.789481e+001 2.200361e+001 2.631554e+001 1.561654e+001 1.851119e-002
<GCONST> 5.860083e+001
<MIXTURE> 2 7.869318e-001
<MEAN> 13
 -7.482865e+000 4.244313e+000 7.890461e+000 -2.845812e+000 -8.466405e+000 -1.264376e+001 -1.239677e+001 -1.461116e+000 -5.015297e+000 -5.046475e+000 -3.632043e+000 9.634968e-001 8.604341e-001
<VARIANCE> 13
 4.064227e+001 3.170951e+001 3.949637e+001 3.445104e+001 4.657870e+001 3.340864e+001 5.980167e+001 3.431364e+001 4.003043e+001 3.030005e+001 2.225594e+001 2.384968e+001 1.979412e-002
<GCONST> 6.269891e+001
<MIXTURE> 3 1.299403e-001
<MEAN> 13
 -1.531134e+001 8.116022e+000 1.412965e+000 4.250235e-001 -1.278051e+000 -6.881214e+000 -2.603846e+000 -7.179239e-001 -1.164170e+000 -9.049251e-001 -9.831696e-001 7.944524e-001 6.973040e-001
<VARIANCE> 13
 9.420358e+001 2.719208e+001 4.701391e+001 2.808522e+001 4.299326e+001 2.911658e+001 7.783192e+001 2.393975e+001 2.437513e+001 1.817894e+001 1.671097e+001 1.600815e+001 2.764664e-002
<GCONST> 6.168365e+001
<STATE> 3
<NUMMIXES> 3
<MIXTURE> 1 2.396753e-001
<MEAN> 13
 -8.976814e+000 9.618990e+000 7.492537e+000 9.357234e+000 5.904439e+000 3.780184e+000 2.563785e+000 2.994127e+000 1.496542e+000 1.618505e+000 1.247446e+000 1.764126e+000 6.973662e-001
<VARIANCE> 13
 1.053778e+001 2.048825e+001 1.177188e+001 1.508127e+001 1.989307e+001 2.280159e+001 1.574442e+001 1.616372e+001 1.507568e+001 1.574229e+001 1.412963e+001 1.494207e+001 2.102133e-002
<GCONST> 5.306252e+001
<MIXTURE> 2 5.500925e-001
<MEAN> 13
 -8.703854e+000 5.368630e+000 6.577379e+000 5.103461e-001 -6.196932e+000 -9.851164e+000 -7.716306e+000 -8.408169e-001 -3.146064e+000 -3.014788e+000 -2.877395e+000 1.692354e+000 6.571083e-001
<VARIANCE> 13
 1.125438e+001 1.678918e+001 1.909774e+001 2.810917e+001 3.737991e+001 2.819149e+001 3.731462e+001 3.262620e+001 2.550235e+001 3.007372e+001 1.817026e+001 2.464180e+001 1.803688e-002
<GCONST> 5.821553e+001
<MIXTURE> 3 2.102322e-001
<MEAN> 13
 -8.953259e+000 6.514204e+000 5.632272e+000 2.873871e+000 -2.558626e+000 -5.629516e+000 -3.813601e+000 1.186521e+000 -8.209104e-001 -6.191065e-001 -1.028830e+000 1.944188e+000 6.158089e-001
<VARIANCE> 13
 1.015554e+001 1.769299e+001 1.550332e+001 2.255338e+001 2.678464e+001 2.694693e+001 3.337788e+001 2.248979e+001 1.490344e+001 1.804122e+001 1.363751e+001 1.502821e+001 1.753928e-002
<GCONST> 5.501688e+001
<STATE> 4
<NUMMIXES> 3
<MIXTURE> 1 6.348945e-001
<MEAN> 13
 -5.222047e+000 5.143665e+000 4.834751e+000 7.412508e+000 6.165569e+000 6.592360e+000 7.008327e+000 7.446229e+000 6.856454e+000 6.692014e+000 5.756708e+000 5.533132e+000 5.749364e-001
<VARIANCE> 13
 8.764061e+001 1.587159e+001 1.703787e+001 1.254791e+001 1.435770e+001 1.502673e+001 1.384170e+001 1.819132e+001 2.130794e+001 2.488247e+001 2.543943e+001 2.474348e+001 1.117610e-002
<GCONST> 5.562204e+001
<MIXTURE> 2 1.644952e-001
<MEAN> 13
 -1.170590e+001 3.455233e+000 2.454334e+000 1.801994e+000 -1.627704e+000 -3.591734e+000 -1.975466e+000 1.947065e-001 -7.791750e-001 -5.314199e-001 -1.508069e+000 4.876698e-001 5.076952e-001
<VARIANCE> 13
 7.937287e+000 1.328756e+001 1.932335e+001 2.395335e+001 3.015755e+001 2.920248e+001 3.229383e+001 2.243042e+001 1.716071e+001 2.285375e+001 1.517633e+001 1.934332e+001 2.333158e-002
<GCONST> 5.595008e+001
<MIXTURE> 3 2.006101e-001
<MEAN> 13
 -1.202291e+001 3.012127e+000 2.257237e+000 2.854315e+000 9.741261e-002 -1.076810e+000 4.294717e-001 1.448537e+000 4.132714e-001 8.816011e-001 -5.819996e-002 9.908389e-001 4.961160e-001
<VARIANCE> 13
 9.223248e+000 1.186936e+001 1.559563e+001 1.829412e+001 2.202026e+001 2.197470e+001 2.534852e+001 1.641843e+001 1.330990e+001 1.679036e+001 1.190732e+001 1.270036e+001 2.043621e-002
<GCONST> 5.299229e+001
<TRANSP> 5
 0.000000e+000 1.000000e+000 0.000000e+000 0.000000e+000 0.000000e+000
 0.000000e+000 9.769165e-001 2.308349e-002 0.000000e+000 0.000000e+000
 0.000000e+000 0.000000e+000 8.083019e-001 1.916980e-001 0.000000e+000
 0.000000e+000 0.000000e+000 0.000000e+000 9.170845e-001 8.291551e-002
 0.000000e+000 0.000000e+000 0.000000e+000 0.000000e+000 0.000000e+000
<ENDHMM>
~h "wu"
<BEGINHMM>
<NUMSTATES> 5
<STATE> 2
<NUMMIXES> 3
<MIXTURE> 1 1.314609e-002
<MEAN> 13
 -2.676153e+000 1.079820e+001 3.752668e+000 2.965163e+000 6.685010e-001 2.918680e+000 1.541326e+000 2.203871e+000 1.686029e+000 1.641745e+000 1.197361e+000 3.910218e-001 8.080934e-001
<VARIANCE> 13
 2.522835e+001 2.324037e+001 3.537386e+001 3.781588e+001 2.331378e+001 1.702120e+001 1.437659e+001 1.575766e+001 1.849442e+001 1.586124e+001 1.687052e+001 1.280227e+001 2.536886e-002
<GCONST> 5.625370e+001
<MIXTURE> 2 8.446946e-001
<MEAN> 13
 8.974467e-001 1.175081e+001 1.755735e-001 -1.330056e+001 -1.349374e+001 -3.384732e+000 -4.704892e+000 -1.965332e+000 -3.598622e+000 -5.689152e+000 -4.550366e+000 -1.312050e+000 9.128456e-001
<VARIANCE> 13
 1.519338e+001 1.865908e+001 1.993534e+001 6.744923e+001 3.375965e+001 3.817004e+001 3.142674e+001 2.055968e+001 3.442640e+001 1.939478e+001 2.468180e+001 1.931894e+001 8.439144e-003
<GCONST> 5.827188e+001
<MIXTURE> 3 1.421540e-001
<MEAN> 13
 1.237572e+000 1.092764e+001 -2.801317e-001 -8.117908e+000 -9.841242e+000 -1.923997e+000 -1.869398e+000 -6.678199e-001 -2.368636e+000 -3.141654e+000 -1.927677e+000 1.171156e-001 8.900157e-001
<VARIANCE> 13
 1.819896e+001 1.912899e+001 1.314182e+001 4.390574e+001 3.695765e+001 2.370024e+001 1.874845e+001 2.046699e+001 2.634813e+001 1.917617e+001 2.035269e+001 1.396876e+001 1.270970e-002
<GCONST> 5.633771e+001
<STATE> 3
<NUMMIXES> 3
<MIXTURE> 1 1.667662e-001
<MEAN> 13
 -7.133636e+000 1.031435e+001 6.640882e+000 5.947166e+000 4.334793e+000 4.960204e+000 4.490988e+000 3.980072e+000 3.630068e+000 2.120235e+000 1.414607e-001 -2.308851e-001 7.485817e-001
<VARIANCE> 13
 7.863520e+000 1.887239e+001 1.874566e+001 2.517284e+001 2.140109e+001 1.945163e+001 1.754374e+001 1.451955e+001 2.640957e+001 2.135188e+001 1.969937e+001 1.905675e+001 2.683430e-002
<GCONST> 5.526543e+001
<MIXTURE> 2 5.908573e-001
<MEAN> 13
 -4.694667e+000 9.679451e+000 1.868496e+000 -3.047868e+000 -6.080512e+000 -3.300728e+000 -2.406721e+000 -1.240618e+000 -2.969938e+000 -3.885919e+000 -4.204423e+000 -3.070699e+000 7.252152e-001
<VARIANCE> 13
 1.326723e+001 2.580701e+001 1.557652e+001 3.080038e+001 3.470690e+001 2.741588e+001 2.997235e+001 2.705657e+001 2.757784e+001 2.555262e+001 2.576530e+001 1.968899e+001 2.898540e-002
<GCONST> 5.870378e+001
<MIXTURE> 3 2.423765e-001
<MEAN> 13
 -5.070314e+000 9.589308e+000 2.547196e+000 -1.399026e+000 -3.797896e+000 -1.444311e+000 -3.145077e-001 6.826848e-001 -1.073715e+000 -1.659041e+000 -2.062421e+000 -1.727584e+000 7.273975e-001
<VARIANCE> 13
 1.139434e+001 2.429314e+001 1.684038e+001 2.948825e+001 3.317871e+001 2.264282e+001 2.267578e+001 1.962852e+001 1.978514e+001 2.009756e+001 1.942877e+001 1.472412e+001 2.635148e-002
<GCONST> 5.644906e+001
<STATE> 4
<NUMMIXES> 3
<MIXTURE> 1 2.333101e-001
<MEAN> 13
 -9.502937e+000 6.128347e+000 5.321487e+000 6.487875e+000 4.342460e+000 4.994937e+000 4.171648e+000 3.673130e+000 2.047519e+000 1.275580e+000 -1.654337e-001 -5.021393e-001 5.663437e-001
<VARIANCE> 13
 2.892361e+000 1.318315e+001 1.361681e+001 1.507306e+001 1.374937e+001 1.348678e+001 1.499052e+001 1.463193e+001 1.868608e+001 1.662442e+001 1.614588e+001 1.506369e+001 1.438691e-002
<GCONST> 5.046212e+001
<MIXTURE> 2 4.070015e-001
<MEAN> 13
 -4.911204e+000 2.739526e+000 8.411683e-001 6.791322e-001 -8.338471e-001 -5.542046e-001 -8.717993e-001 -8.906539e-001 -1.325705e+000 -1.558932e+000 -1.634057e+000 -1.342533e+000 1.938314e-001
<VARIANCE> 13
 2.258684e+001 1.799862e+001 1.229518e+001 1.225686e+001 1.296259e+001 1.013225e+001 1.122146e+001 1.066794e+001 1.097845e+001 1.118420e+001 1.285834e+001 9.575363e+000 1.358884e-001
<GCONST> 5.220592e+001
<MIXTURE> 3 3.596860e-001
<MEAN> 13
 -3.953760e+000 2.502344e+000 1.192996e+000 1.169084e+000 1.245781e-001 3.798189e-001 1.356345e-001 5.149715e-002 -4.321969e-001 -5.404024e-001 -7.047939e-001 -6.071585e-001 1.425416e-001
<VARIANCE> 13
 2.135663e+001 1.653067e+001 1.150652e+001 1.155602e+001 8.745660e+000 6.955287e+000 7.087317e+000 7.013829e+000 6.617849e+000 7.476995e+000 7.514326e+000 6.269367e+000 1.311656e-001
<GCONST> 4.838615e+001
<TRANSP> 5
 0.000000e+000 1.000000e+000 0.000000e+000 0.000000e+000 0.000000e+000
 0.000000e+000 9.779607e-001 2.203935e-002 0.000000e+000 0.000000e+000
 0.000000e+000 0.000000e+000 6.984062e-001 3.015938e-001 0.000000e+000
 0.000000e+000 0.000000e+000 0.000000e+000 8.851029e-001 1.148971e-001
 0.000000e+000 0.000000e+000 0.000000e+000 0.000000e+000 0.000000e+000
<ENDHMM>
~h "san"
<BEGINHMM>
<NUMSTATES> 5
<STATE> 2
<NUMMIXES> 3
<MIXTURE> 1 5.842178e-002
<MEAN> 13
 -1.547517e+001 1.008397e+001 5.062482e-001 4.647519e+000 4.268001e+000 -1.360921e-001 5.258239e+000 1.759630e+000 2.699079e+000 3.858863e+000 7.721011e-001 2.543492e+000 7.510796e-001
<VARIANCE> 13
 6.517551e+001 2.034402e+001 4.935890e+001 2.025337e+001 1.787067e+001 1.738782e+001 2.428037e+001 1.841445e+001 2.863888e+001 2.251914e+001 1.503322e+001 1.975663e+001 1.929899e-002
<GCONST> 5.804663e+001
<MIXTURE> 2 8.523157e-001
<MEAN> 13
 -3.781938e+000 -6.125550e+000 -3.518761e+000 -7.139884e+000 -2.289655e+000 -2.953811e+000 -5.758010e+000 2.200805e+000 -2.295986e+000 -5.920802e+000 -9.044357e+000 -5.695079e+000 9.134342e-001
<VARIANCE> 13
 1.904353e+001 6.474486e+001 3.587297e+001 3.726524e+001 4.276029e+001 5.991067e+001 3.592542e+001 4.837641e+001 8.375329e+001 5.964517e+001 3.718859e+001 2.551280e+001 7.881229e-003
<GCONST> 6.404475e+001
<MIXTURE> 3 8.925757e-002
<MEAN> 13
 -6.429690e+000 3.739587e+000 -1.320819e+000 -8.054039e-001 -9.674381e-003 -2.069017e+000 -2.167062e+000 1.436128e+000 -5.371345e-001 -1.551677e+000 -4.507452e+000 -2.373079e+000 8.139471e-001
<VARIANCE> 13
 7.105975e+001 6.192760e+001 3.954051e+001 3.435819e+001 2.229278e+001 3.047190e+001 2.956538e+001 2.773807e+001 2.003594e+001 2.174349e+001 2.310801e+001 2.202548e+001 2.298385e-002
<GCONST> 6.126279e+001
<STATE> 3
<NUMMIXES> 3
<MIXTURE> 1 3.538485e-001
<MEAN> 13
 -8.233375e+000 1.118999e+001 9.578303e+000 1.014727e+001 5.661900e+000 4.267303e+000 1.803648e+000 1.584586e+000 7.164653e-002 3.257080e-001 8.215907e-002 5.372040e-002 7.452691e-001
<VARIANCE> 13
 1.039447e+001 1.725390e+001 1.056486e+001 1.441046e+001 2.050537e+001 2.174344e+001 2.216877e+001 2.135894e+001 1.629733e+001 1.218736e+001 1.296987e+001 1.234892e+001 1.181536e-002
<GCONST> 5.229660e+001
<MIXTURE> 2 4.530660e-001
<MEAN> 13
 -6.840820e+000 5.953381e+000 4.220969e+000 2.695558e+000 -3.120243e+000 -4.923994e+000 -5.118123e+000 -3.025293e+000 -4.501783e+000 -4.760055e+000 -6.197803e+000 -2.851534e+000 7.164391e-001
<VARIANCE> 13
 1.185546e+001 2.646300e+001 2.372601e+001 2.429100e+001 2.663095e+001 2.496217e+001 1.792556e+001 4.471427e+001 3.306077e+001 3.075175e+001 2.106178e+001 1.733373e+001 1.876672e-002
<GCONST> 5.803231e+001
<MIXTURE> 3 1.930859e-001
<MEAN> 13
 -7.433215e+000 8.082081e+000 6.158404e+000 4.844891e+000 -3.861645e-001 -1.222574e+000 -2.929306e+000 -2.129641e+000 -2.312717e+000 -2.562097e+000 -4.065350e+000 -2.128149e+000 6.949545e-001
<VARIANCE> 13
 9.464438e+000 1.725599e+001 1.589205e+001 1.530743e+001 1.924577e+001 1.963679e+001 1.448955e+001 2.150914e+001 1.657381e+001 1.683241e+001 1.538427e+001 1.482998e+001 1.745783e-002
<GCONST> 5.317202e+001
<STATE> 4
<NUMMIXES> 3
<MIXTURE> 1 5.147238e-001
<MEAN> 13
 -1.050437e+001 5.768392e+000 4.913879e+000 7.451575e+000 5.782381e+000 5.712253e+000 4.407530e+000 4.292770e+000 3.391771e+000 2.763974e+000 2.030877e+000 1.832909e+000 6.784176e-001
<VARIANCE> 13
 3.989616e+000 1.568807e+001 2.270694e+001 1.775012e+001 1.565614e+001 1.439981e+001 1.726167e+001 1.840629e+001 1.633647e+001 1.508210e+001 1.490227e+001 1.242255e+001 1.881831e-002
<GCONST> 5.196233e+001
<MIXTURE> 2 2.293911e-001
<MEAN> 13
 -1.022316e+001 3.441472e+000 2.772216e+000 3.427157e+000 -7.264892e-001 -1.832719e+000 -3.180305e+000 -2.726803e+000 -3.903374e+000 -4.130723e+000 -4.352376e+000 -2.530259e+000 5.856521e-001
<VARIANCE> 13
 3.621705e+000 9.836915e+000 1.272840e+001 1.348115e+001 1.835899e+001 1.916175e+001 1.559794e+001 1.912908e+001 1.795779e+001 1.742738e+001 1.465998e+001 1.451482e+001 2.979599e-002
<GCONST> 5.176498e+001
<MIXTURE> 3 2.558838e-001
<MEAN> 13
 -1.038456e+001 3.427413e+000 3.118615e+000 4.730443e+000 1.615692e+000 1.074951e+000 -5.862268e-001 -6.172943e-001 -1.121324e+000 -1.195122e+000 -1.834229e+000 -1.052137e+000 5.246196e-001
<VARIANCE> 13
 2.911319e+000 7.830590e+000 1.191800e+001 1.064326e+001 1.140007e+001 1.273503e+001 1.333755e+001 1.396466e+001 1.303635e+001 1.332939e+001 1.270121e+001 1.383699e+001 2.352295e-002
<GCONST> 4.864409e+001
<TRANSP> 5
 0.000000e+000 1.000000e+000 0.000000e+000 0.000000e+000 0.000000e+000
 0.000000e+000 9.722254e-001 2.777457e-002 0.000000e+000 0.000000e+000
 0.000000e+000 0.000000e+000 9.073409e-001 9.265905e-002 0.000000e+000
 0.000000e+000 0.000000e+000 0.000000e+000 9.364697e-001 6.353032e-002
 0.000000e+000 0.000000e+000 0.000000e+000 0.000000e+000 0.000000e+000
<ENDHMM>
