~o
<STREAMINFO> 1 13
<VECSIZE> 13<NULLD><MFCC_E><DIAGC>
~h "i"
<BEGINHMM>
<NUMSTATES> 5
<STATE> 2
<NUMMIXES> 3
<MIXTURE> 1 4.022109e-003
<MEAN> 13
 -1.032940e+001 1.010513e+001 8.622709e+000 7.025801e+000 4.742821e+000 3.070920e+000 -2.502771e+000 -1.115053e+000 1.088876e+000 4.621246e-001 3.621814e+000 1.009164e+000 7.234136e-001
<VARIANCE> 13
 1.546865e+001 3.189814e+001 1.721202e+001 1.451276e+001 1.517750e+001 2.308275e+001 3.178486e+001 3.103498e+001 3.464803e+001 3.119731e+001 1.957016e+001 2.286028e+001 1.196570e-002
<GCONST> 5.703067e+001
<MIXTURE> 2 7.923483e-001
<MEAN> 13
 -1.107622e+001 7.534177e+000 1.882421e+001 -1.075354e+001 -1.056102e+001 -4.202809e+000 -1.553489e+001 -6.223791e+000 -1.101302e+001 -6.085188e+000 -2.364134e+000 -6.796836e+000 9.338017e-001
<VARIANCE> 13
 1.421134e+001 2.235124e+001 3.390192e+001 6.153338e+001 4.821224e+001 3.351728e+001 2.715859e+001 3.178769e+001 4.603119e+001 5.032209e+001 1.157335e+002 2.997430e+001 5.751972e-003
<GCONST> 6.218600e+001
<MIXTURE> 3 2.036283e-001
<MEAN> 13
 -5.437977e+000 1.316307e+001 1.963010e+001 -9.154979e-002 -7.693628e+000 -5.256768e-001 -1.274699e+001 -3.708429e+000 -7.447854e+000 -1.016985e+001 4.359743e+000 -1.036210e+000 9.260848e-001
<VARIANCE> 13
 6.326244e+000 2.214389e+001 2.281275e+001 1.023764e+001 3.067511e+001 1.466033e+001 1.640156e+001 1.180824e+001 1.309484e+001 1.930684e+001 1.218487e+001 1.299503e+001 6.853006e-003
<GCONST> 5.127720e+001
<STATE> 3
<NUMMIXES> 3
<MIXTURE> 1 2.995152e-001
<MEAN> 13
 -1.020847e+001 9.151894e+000 8.925281e+000 1.047141e+001 7.540129e+000 7.878113e+000 4.568259e+000 3.765276e+000 1.905847e+000 1.634200e+000 1.540922e+000 6.761696e-001 7.417134e-001
<VARIANCE> 13
 8.306410e+000 2.012619e+001 1.500238e+001 1.955081e+001 1.434174e+001 2.117245e+001 2.134141e+001 1.818228e+001 1.869445e+001 1.692959e+001 1.898724e+001 1.616427e+001 2.672909e-002
<GCONST> 5.423151e+001
<MIXTURE> 2 5.086910e-001
<MEAN> 13
 -1.091562e+001 9.175196e+000 9.937039e+000 1.707238e-001 -1.523490e+000 -4.904456e+000 -6.474299e+000 -1.065280e+001 -8.177820e+000 -6.086190e+000 -5.827323e+000 -2.646513e+000 7.936395e-001
<VARIANCE> 13
 2.060326e+001 2.096653e+001 1.486766e+001 2.806244e+001 2.821428e+001 3.903162e+001 2.925564e+001 2.808768e+001 3.124077e+001 2.377495e+001 2.439573e+001 2.305880e+001 1.778849e-002
<GCONST> 5.862361e+001
<MIXTURE> 3 1.917930e-001
<MEAN> 13
 -8.642024e+000 1.053388e+001 9.367748e+000 4.340494e+000 -7.773560e-001 1.273331e-001 -3.934086e+000 -2.578301e+000 -2.704212e+000 -1.305064e+000 -8.111967e-001 -8.809512e-001 6.613809e-001
<VARIANCE> 13
 7.761150e+000 1.777445e+001 1.484166e+001 2.415335e+001 1.622328e+001 1.529083e+001 1.453309e+001 1.268593e+001 1.285016e+001 1.201196e+001 1.307715e+001 1.141077e+001 2.968923e-002
<GCONST> 5.195949e+001
<STATE> 4
<NUMMIXES> 3
<MIXTURE> 1 4.281068e-001
<MEAN> 13
 -1.129309e+001 4.306408e+000 4.543814e+000 6.788610e+000 5.806068e+000 6.488006e+000 5.602936e+000 4.953249e+000 4.122196e+000 3.805871e+000 2.284619e+000 1.797728e+000 7.017769e-001
<VARIANCE> 13
 3.734107e+000 1.122408e+001 1.062324e+001 1.176239e+001 1.963690e+001 1.589080e+001 1.793553e+001 1.919665e+001 1.737494e+001 1.705908e+001 1.765890e+001 1.711762e+001 1.356935e-002
<GCONST> 5.114371e+001
<MIXTURE> 2 2.440244e-001
<MEAN> 13
 -1.113565e+001 4.560716e+000 4.326702e+000 2.313595e+000 -2.078043e+000 -1.539444e+000 -4.040190e+000 -4.204124e+000 -3.693262e+000 -3.315267e+000 -4.211554e+000 -3.027332e+000 5.521620e-001
<VARIANCE> 13
 6.912217e+000 1.181355e+001 1.135894e+001 1.305097e+001 1.648914e+001 1.481994e+001 1.702842e+001 1.455981e+001 1.366194e+001 1.264910e+001 1.634358e+001 1.700869e+001 1.934159e-002
<GCONST> 5.113989e+001
<MIXTURE> 3 3.278676e-001
<MEAN> 13
 -9.757632e+000 5.663127e+000 4.511070e+000 4.270148e+000 4.996904e-001 8.061668e-001 -1.031780e+000 -1.204563e+000 -1.480822e+000 -4.475400e-001 -7.653502e-001 -4.720404e-001 5.633473e-001
<VARIANCE> 13
 4.862643e+000 1.100166e+001 1.108164e+001 1.150445e+001 1.252586e+001 1.158465e+001 1.126443e+001 1.333062e+001 1.053437e+001 1.147895e+001 9.800140e+000 1.035785e+001 2.437113e-002
<GCONST> 4.841019e+001
<TRANSP> 5
 0.000000e+000 1.000000e+000 0.000000e+000 0.000000e+000 0.000000e+000
 0.000000e+000 9.731364e-001 2.686366e-002 0.000000e+000 0.000000e+000
 0.000000e+000 0.000000e+000 8.668673e-001 1.331327e-001 0.000000e+000
 0.000000e+000 0.000000e+000 0.000000e+000 8.895232e-001 1.104768e-001
 0.000000e+000 0.000000e+000 0.000000e+000 0.000000e+000 0.000000e+000
<ENDHMM>
~h "sil"
<BEGINHMM>
<NUMSTATES> 5
<STATE> 2
<NUMMIXES> 3
<MIXTURE> 1 1.963029e-001
<MEAN> 13
 -1.331067e+001 8.123137e-001 -1.448640e-001 3.154335e+000 2.649274e+000 4.493015e+000 4.478452e+000 5.178835e+000 5.124305e+000 5.370568e+000 4.360970e+000 3.625214e+000 5.216873e-001
<VARIANCE> 13
 1.602259e+001 1.054374e+001 1.087092e+001 1.260812e+001 1.383313e+001 1.436716e+001 1.547955e+001 1.669314e+001 1.751091e+001 1.681549e+001 1.461853e+001 1.381994e+001 4.137115e-002
<GCONST> 5.259725e+001
<MIXTURE> 2 3.571875e-001
<MEAN> 13
 -1.364715e+001 -5.830536e-001 -1.703515e+000 -8.100870e-002 -2.039468e+000 -1.062393e+000 -1.503615e+000 -2.085927e-001 -1.321701e-001 3.635944e-001 -2.105421e-001 -2.379022e-001 2.767615e-001
<VARIANCE> 13
 6.862212e+000 6.860697e+000 1.140378e+001 1.630402e+001 1.638044e+001 1.690552e+001 1.705532e+001 1.823686e+001 1.885475e+001 1.836199e+001 1.664628e+001 1.434412e+001 2.906666e-002
<GCONST> 5.211765e+001
<MIXTURE> 3 4.464654e-001
<MEAN> 13
 -1.319943e+001 -1.899839e-002 -1.224236e+000 1.021420e+000 -1.946264e-001 1.073585e+000 7.942749e-001 1.800859e+000 1.623838e+000 2.015896e+000 1.156620e+000 7.575320e-001 2.990504e-001
<VARIANCE> 13
 6.088743e+000 5.346329e+000 7.440155e+000 1.031152e+001 1.080346e+001 1.133813e+001 1.176230e+001 1.273239e+001 1.399961e+001 1.286537e+001 1.073579e+001 1.035843e+001 2.497413e-002
<GCONST> 4.774753e+001
<STATE> 3
<NUMMIXES> 3
<MIXTURE> 1 2.605712e-001
<MEAN> 13
 -1.258153e+001 2.578909e+000 2.834793e+000 4.359705e+000 3.968784e+000 6.161551e+000 6.330459e+000 6.577121e+000 6.744097e+000 7.080025e+000 6.648301e+000 5.927897e+000 4.717619e-001
<VARIANCE> 13
 5.838456e+001 1.398248e+001 1.713314e+001 1.858501e+001 2.149338e+001 2.269575e+001 2.083005e+001 2.276449e+001 2.190182e+001 1.958101e+001 1.989373e+001 1.866136e+001 2.495733e-002
<GCONST> 5.699955e+001
<MIXTURE> 2 2.583980e-001
<MEAN> 13
 -1.483197e+001 7.925659e-001 -9.696550e-001 -3.790820e-001 -2.025502e+000 -1.678697e+000 -9.598716e-001 -4.490892e-001 -4.905788e-001 -2.656438e-001 -4.267506e-001 -5.404328e-001 2.451258e-001
<VARIANCE> 13
 3.492667e+001 1.639230e+001 2.187611e+001 2.928938e+001 2.340938e+001 2.274199e+001 2.458429e+001 2.367975e+001 2.207543e+001 1.885966e+001 1.750772e+001 1.561927e+001 5.907702e-002
<GCONST> 5.816289e+001
<MIXTURE> 3 4.810201e-001
<MEAN> 13
 -8.313625e+000 6.483657e-001 -3.723188e-001 5.331592e-001 -2.452485e-001 4.205078e-001 5.414460e-001 7.654343e-001 6.646142e-001 8.270936e-001 4.937307e-001 3.138480e-001 1.127784e-001
<VARIANCE> 13
 5.609175e+001 5.276496e+000 7.108599e+000 8.443858e+000 7.971162e+000 7.671017e+000 8.437898e+000 8.405845e+000 8.664124e+000 8.408004e+000 6.828796e+000 6.398683e+000 6.805155e-002
<GCONST> 4.743046e+001
<STATE> 4
<NUMMIXES> 3
<MIXTURE> 1 4.785770e-001
<MEAN> 13
 -2.234089e+000 5.333944e+000 4.679001e+000 6.471618e+000 6.488667e+000 8.057796e+000 8.462344e+000 8.967815e+000 9.028219e+000 9.567274e+000 9.035298e+000 8.874636e+000 5.242757e-001
<VARIANCE> 13
 1.061093e+002 9.812572e+000 8.156464e+000 9.475126e+000 1.008934e+001 9.531037e+000 8.813552e+000 1.058564e+001 9.872293e+000 8.338804e+000 9.064058e+000 8.260182e+000 1.493520e-002
<GCONST> 4.881222e+001
<MIXTURE> 2 2.503127e-001
<MEAN> 13
 -1.685594e+001 4.465249e+000 2.218216e+000 -1.209585e+000 -2.057324e+000 -2.173127e+000 -8.373745e-001 -1.581446e+000 -1.096475e+000 -6.942368e-001 -9.406205e-001 -1.019427e+000 5.598809e-001
<VARIANCE> 13
 4.869385e+001 2.774018e+001 4.819955e+001 5.375274e+001 3.724239e+001 3.182546e+001 4.859988e+001 3.650785e+001 3.315495e+001 2.865708e+001 2.513845e+001 2.243498e+001 2.685991e-002
<GCONST> 6.309394e+001
<MIXTURE> 3 2.711112e-001
<MEAN> 13
 -1.470786e+001 1.721583e+000 1.376453e-001 4.608599e-001 2.893547e-001 9.695030e-001 2.048701e+000 1.240486e+000 1.216349e+000 2.476089e+000 1.151776e+000 1.268045e+000 4.363570e-001
<VARIANCE> 13
 2.738619e+001 1.158456e+001 1.661893e+001 2.209053e+001 1.812374e+001 1.734865e+001 1.935572e+001 1.717842e+001 1.700529e+001 1.822820e+001 1.431022e+001 1.391572e+001 4.058736e-002
<GCONST> 5.494138e+001
<TRANSP> 5
 0.000000e+000 1.000000e+000 0.000000e+000 0.000000e+000 0.000000e+000
 0.000000e+000 9.817142e-001 1.828586e-002 0.000000e+000 0.000000e+000
 0.000000e+000 0.000000e+000 8.597068e-001 1.402932e-001 0.000000e+000
 0.000000e+000 0.000000e+000 0.000000e+000 8.608797e-001 1.391204e-001
 0.000000e+000 0.000000e+000 0.000000e+000 0.000000e+000 0.000000e+000
<ENDHMM>
~h "ling"
<BEGINHMM>
<NUMSTATES> 5
<STATE> 2
<NUMMIXES> 3
<MIXTURE> 1 8.758678e-002
<MEAN> 13
 -3.687334e+000 1.433217e+001 1.080406e+001 8.258702e+000 4.295505e-001 -7.510173e-001 -3.807905e+000 -3.662517e+000 -2.643612e+000 8.645123e-002 8.142323e-001 1.203543e+000 8.654708e-001
<VARIANCE> 13
 1.269984e+001 1.195682e+001 8.608557e+000 1.749892e+001 2.293637e+001 2.011587e+001 1.650107e+001 2.218139e+001 1.659081e+001 1.081134e+001 1.152649e+001 1.042900e+001 6.882924e-003
<GCONST> 5.096707e+001
<MIXTURE> 2 7.834922e-001
<MEAN> 13
 -7.788479e+000 4.551768e+000 1.646631e+001 -8.222381e+000 -1.517134e+001 -5.471091e+000 -1.132178e+001 -5.766372e+000 -6.966285e+000 -3.063117e+000 -2.903345e-001 -2.800065e+000 9.087116e-001
<VARIANCE> 13
 1.271378e+001 3.279994e+001 4.685801e+001 7.857784e+001 5.214376e+001 3.822932e+001 3.761644e+001 4.484736e+001 3.535516e+001 4.345619e+001 6.940479e+001 3.297000e+001 8.675201e-003
<GCONST> 6.349051e+001
<MIXTURE> 3 1.289200e-001
<MEAN> 13
 -4.500189e+000 7.931889e+000 1.208248e+001 1.015578e+000 -9.303458e+000 -4.258543e+000 -7.265972e+000 -3.652789e+000 -4.720863e+000 -2.543784e+000 1.542560e+000 7.989330e-001 8.477169e-001
<VARIANCE> 13
 1.270603e+001 2.654584e+001 3.006166e+001 2.292367e+001 4.337700e+001 2.007042e+001 1.828231e+001 1.660765e+001 2.038754e+001 1.252906e+001 2.277749e+001 2.537819e+001 1.840968e-002
<GCONST> 5.664151e+001
<STATE> 3
<NUMMIXES> 3
<MIXTURE> 1 3.071514e-001
<MEAN> 13
 -8.768112e+000 9.916058e+000 8.344296e+000 9.744090e+000 6.332298e+000 4.703524e+000 1.720979e+000 1.293138e+000 1.564901e-001 3.899336e-001 -3.486129e-001 -7.937478e-001 7.247740e-001
<VARIANCE> 13
 5.358168e+000 1.630338e+001 9.847592e+000 1.529878e+001 1.767598e+001 1.597392e+001 1.461882e+001 1.356524e+001 1.365829e+001 1.016164e+001 1.163733e+001 1.194411e+001 1.202002e-002
<GCONST> 4.975662e+001
<MIXTURE> 2 4.285614e-001
<MEAN> 13
 -8.998948e+000 8.761932e+000 6.737519e+000 4.928507e+000 -1.677182e+000 -3.655618e+000 -5.414700e+000 -6.683806e+000 -6.469277e+000 -4.658833e+000 -5.467751e+000 -4.385895e+000 6.731523e-001
<VARIANCE> 13
 5.565513e+000 8.095075e+000 8.346626e+000 1.660943e+001 1.857809e+001 1.932036e+001 1.852548e+001 2.121220e+001 2.544158e+001 2.823284e+001 2.271366e+001 2.043676e+001 1.608041e-002
<GCONST> 5.307596e+001
<MIXTURE> 3 2.642868e-001
<MEAN> 13
 -8.723574e+000 8.726410e+000 6.981109e+000 6.181068e+000 8.823925e-001 -1.057734e-001 -2.156279e+000 -2.263418e+000 -2.474469e+000 -1.577046e+000 -2.193603e+000 -1.685539e+000 6.386506e-001
<VARIANCE> 13
 2.967305e+000 9.721149e+000 6.296196e+000 8.938571e+000 1.344404e+001 1.464647e+001 1.067908e+001 1.260995e+001 1.100053e+001 1.352932e+001 1.311912e+001 1.364227e+001 1.988579e-002
<GCONST> 4.774249e+001
<STATE> 4
<NUMMIXES> 3
<MIXTURE> 1 5.822697e-001
<MEAN> 13
 -1.100986e+001 3.804811e+000 1.058135e+000 4.407084e+000 4.625106e+000 4.923880e+000 4.652071e+000 5.078177e+000 4.641160e+000 3.894584e+000 3.628792e+000 3.702705e+000 7.216462e-001
<VARIANCE> 13
 4.084057e+000 1.035541e+001 1.748379e+001 1.864647e+001 1.517130e+001 1.531616e+001 1.347197e+001 1.526638e+001 1.056044e+001 9.835366e+000 1.063583e+001 1.003490e+001 9.117336e-003
<GCONST> 4.881433e+001
<MIXTURE> 2 1.818658e-001
<MEAN> 13
 -1.032486e+001 2.645521e+000 2.699169e+000 4.251285e+000 3.920381e-001 -5.412709e-001 -3.089722e+000 -3.287712e+000 -3.668671e+000 -3.770690e+000 -3.432358e+000 -2.203115e+000 4.844290e-001
<VARIANCE> 13
 4.316134e+000 5.885307e+000 9.600033e+000 1.287142e+001 1.368458e+001 1.471115e+001 1.586949e+001 1.408871e+001 1.389111e+001 1.508956e+001 1.786333e+001 1.739626e+001 1.131495e-002
<GCONST> 4.926127e+001
<MIXTURE> 3 2.358632e-001
<MEAN> 13
 -9.951235e+000 2.783967e+000 2.486905e+000 4.761928e+000 1.369558e+000 6.043223e-001 -7.939728e-001 -4.601590e-001 -6.740996e-001 -3.953077e-001 -7.566370e-001 -2.786292e-001 4.901789e-001
<VARIANCE> 13
 2.721262e+000 4.950008e+000 7.432038e+000 8.699444e+000 1.065199e+001 1.059483e+001 9.499268e+000 1.118389e+001 9.838531e+000 1.213584e+001 1.171047e+001 1.272101e+001 1.535381e-002
<GCONST> 4.566356e+001
<TRANSP> 5
 0.000000e+000 1.000000e+000 0.000000e+000 0.000000e+000 0.000000e+000
 0.000000e+000 9.733981e-001 2.660193e-002 0.000000e+000 0.000000e+000
 0.000000e+000 0.000000e+000 9.032369e-001 9.676312e-002 0.000000e+000
 0.000000e+000 0.000000e+000 0.000000e+000 9.247087e-001 7.529129e-002
 0.000000e+000 0.000000e+000 0.000000e+000 0.000000e+000 0.000000e+000
<ENDHMM>
~h "liou"
<BEGINHMM>
<NUMSTATES> 5
<STATE> 2
<NUMMIXES> 3
<MIXTURE> 1 1.496558e-002
<MEAN> 13
 1.192496e+000 1.118536e+001 -4.517589e+000 -1.357726e+001 -7.742481e+000 8.592751e+000 8.485709e+000 2.488530e+000 2.670185e-001 -2.086431e+000 -2.325007e+000 3.951123e+000 7.102914e-001
<VARIANCE> 13
 1.039984e+001 6.523226e+000 7.559814e+000 2.155026e+001 2.534385e+001 9.258192e+000 1.573483e+001 3.007192e+001 2.250634e+001 1.270630e+001 1.622890e+001 9.647205e+000 6.360530e-003
<GCONST> 5.047202e+001
<MIXTURE> 2 8.710805e-001
<MEAN> 13
 -3.681938e+000 -3.338096e+000 3.544240e+000 -1.144449e+001 -1.222690e+001 -6.586081e+000 -8.018140e+000 7.639378e-001 -1.690468e+000 -1.139111e+000 -2.179481e+000 -6.789307e+000 9.051514e-001
<VARIANCE> 13
 1.675377e+001 3.431929e+001 8.516267e+001 6.544052e+001 7.614114e+001 8.083010e+001 4.151532e+001 4.927699e+001 6.674531e+001 4.369370e+001 7.636224e+001 3.567459e+001 6.770635e-003
<GCONST> 6.611375e+001
<MIXTURE> 3 1.139520e-001
<MEAN> 13
 2.378770e+000 3.292526e+000 -5.935215e+000 -1.698359e+001 -7.990297e+000 7.833767e+000 -9.079975e-001 -2.927372e+000 -5.876238e-003 2.749172e+000 1.938421e+000 -1.257640e+000 8.257965e-001
<VARIANCE> 13
 1.088001e+001 3.659315e+001 2.425905e+001 4.592344e+001 2.262536e+001 4.389217e+001 3.117611e+001 2.279416e+001 2.265188e+001 3.234748e+001 2.171911e+001 2.849330e+001 8.162085e-003
<GCONST> 5.857830e+001
<STATE> 3
<NUMMIXES> 3
<MIXTURE> 1 2.147582e-001
<MEAN> 13
 -7.882060e+000 9.727861e+000 5.657255e+000 5.556580e+000 4.002396e+000 6.157320e+000 4.489710e+000 2.806668e+000 -7.222378e-001 -9.574543e-001 -3.707895e-001 4.268848e-001 6.242552e-001
<VARIANCE> 13
 7.050171e+000 2.672310e+001 3.050176e+001 3.512651e+001 2.253806e+001 1.971612e+001 2.327916e+001 2.601466e+001 2.340950e+001 1.974018e+001 1.722292e+001 1.280370e+001 2.204162e-002
<GCONST> 5.632753e+001
<MIXTURE> 2 5.154080e-001
<MEAN> 13
 -4.327904e+000 3.979799e+000 -7.602433e+000 -1.446372e+001 -4.667552e+000 5.054617e+000 -1.012590e+000 -2.707808e+000 -2.838110e+000 -1.902936e+000 -8.203962e-001 -3.065865e+000 6.433336e-001
<VARIANCE> 13
 1.182938e+001 2.024481e+001 1.641116e+001 5.641173e+001 3.066119e+001 2.066966e+001 3.078369e+001 2.154270e+001 2.543628e+001 4.460953e+001 3.453539e+001 3.285278e+001 1.628844e-002
<GCONST> 5.910106e+001
<MIXTURE> 3 2.698343e-001
<MEAN> 13
 -5.117390e+000 7.041463e+000 -3.366093e+000 -8.371910e+000 -4.728923e+000 5.527826e+000 4.615970e+000 2.433390e+000 -2.444959e+000 -3.838263e+000 -1.235229e+000 8.670983e-001 5.372742e-001
<VARIANCE> 13
 1.126995e+001 1.489490e+001 1.663666e+001 4.618008e+001 2.456759e+001 1.927505e+001 1.712740e+001 1.672887e+001 1.659448e+001 1.830267e+001 1.592093e+001 1.587257e+001 1.737904e-002
<GCONST> 5.467363e+001
<STATE> 4
<NUMMIXES> 3
<MIXTURE> 1 3.300178e-001
<MEAN> 13
 -1.012978e+001 4.946225e+000 4.564200e+000 6.351637e+000 4.776488e+000 5.911576e+000 4.730104e+000 3.483936e+000 1.283589e+000 -9.698936e-002 -5.649567e-001 1.076716e-003 5.148723e-001
<VARIANCE> 13
 2.873071e+000 1.527299e+001 1.829905e+001 1.673495e+001 1.039647e+001 1.186176e+001 1.599776e+001 1.993386e+001 2.036637e+001 2.018399e+001 1.360762e+001 1.174353e+001 2.680572e-002
<GCONST> 5.145144e+001
<MIXTURE> 2 2.426690e-001
<MEAN> 13
 -1.036163e+001 1.519312e+000 -1.223039e+000 -8.657002e-001 -1.464153e+000 3.410472e-002 -1.082448e+000 -1.444279e+000 -2.054415e+000 -2.155289e+000 -1.135608e+000 -8.445055e-001 2.487382e-001
<VARIANCE> 13
 1.539080e+001 8.863947e+000 1.831292e+001 2.421382e+001 1.708730e+001 1.514574e+001 1.667719e+001 1.700346e+001 1.676167e+001 2.062272e+001 1.806523e+001 1.534819e+001 5.186114e-002
<GCONST> 5.461750e+001
<MIXTURE> 3 4.273132e-001
<MEAN> 13
 -4.843418e+000 7.945858e-001 -1.958403e-001 4.963043e-001 2.514637e-001 1.005046e+000 6.393839e-001 4.527811e-001 9.630029e-002 3.081507e-002 -1.560726e-001 -1.207354e-001 4.754732e-002
<VARIANCE> 13
 3.020126e+001 3.433578e+000 3.683706e+000 4.393252e+000 3.821329e+000 5.205184e+000 5.451654e+000 4.703078e+000 5.992908e+000 4.672426e+000 4.057199e+000 4.471252e+000 6.144296e-002
<GCONST> 4.099304e+001
<TRANSP> 5
 0.000000e+000 1.000000e+000 0.000000e+000 0.000000e+000 0.000000e+000
 0.000000e+000 9.685280e-001 3.147197e-002 0.000000e+000 0.000000e+000
 0.000000e+000 0.000000e+000 9.213387e-001 7.866124e-002 0.000000e+000
 0.000000e+000 0.000000e+000 0.000000e+000 9.260063e-001 7.399368e-002
 0.000000e+000 0.000000e+000 0.000000e+000 0.000000e+000 0.000000e+000
<ENDHMM>
~h "ba"
<BEGINHMM>
<NUMSTATES> 5
<STATE> 2
<NUMMIXES> 3
<MIXTURE> 1 1.578669e-002
<MEAN> 13
 -5.536178e+000 4.029571e+000 -1.777106e+000 8.444694e-001 1.440106e+001 9.863289e+000 -2.063356e+000 4.054488e-001 2.496631e+000 1.076734e+000 -3.289323e+000 3.608246e-002 7.658390e-001
<VARIANCE> 13
 1.613982e+001 1.323866e+001 7.778897e+000 8.965078e+000 6.303488e+001 1.604754e+001 1.825916e+001 3.231279e+001 1.977090e+001 1.873890e+001 2.473830e+001 1.704944e+001 1.028449e-002
<GCONST> 5.418312e+001
<MIXTURE> 2 8.059397e-001
<MEAN> 13
 -2.534825e+000 -1.035934e+001 -8.326844e+000 -1.175373e+001 2.824513e+000 6.174929e+000 -6.248223e+000 -3.950930e+000 -2.650105e+000 -3.520143e+000 -7.360076e+000 -8.084745e+000 9.166661e-001
<VARIANCE> 13
 1.543426e+001 3.254395e+001 1.534351e+001 2.119040e+001 2.540321e+001 5.322002e+001 4.649388e+001 4.071793e+001 6.102113e+001 7.039416e+001 5.825053e+001 3.168702e+001 6.626657e-003
<GCONST> 6.152046e+001
<MIXTURE> 3 1.782714e-001
<MEAN> 13
 -9.291354e-001 -2.084285e+000 -9.521699e+000 -9.267547e+000 5.998770e+000 9.685719e+000 -2.374206e+000 -2.690120e+000 -1.392416e+000 2.292409e+000 -4.305387e+000 -5.469182e+000 8.059176e-001
<VARIANCE> 13
 1.836174e+001 2.661707e+001 2.365458e+001 2.567081e+001 3.449717e+001 1.861445e+001 1.440652e+001 8.752675e+000 1.595645e+001 1.365977e+001 8.372166e+000 1.462313e+001 1.988046e-002
<GCONST> 5.406881e+001
<STATE> 3
<NUMMIXES> 3
<MIXTURE> 1 2.928082e-001
<MEAN> 13
 -9.781841e+000 6.997283e+000 5.925460e+000 9.488850e+000 9.347128e+000 7.670061e+000 3.106978e+000 2.310852e+000 2.290634e+000 1.863407e+000 -6.925923e-002 -7.072595e-001 6.492334e-001
<VARIANCE> 13
 3.837730e+000 2.039822e+001 1.881938e+001 1.531437e+001 1.965051e+001 2.168917e+001 2.069330e+001 2.193294e+001 1.736908e+001 1.747739e+001 1.710844e+001 1.409158e+001 8.382453e-003
<GCONST> 5.250826e+001
<MIXTURE> 2 4.885492e-001
<MEAN> 13
 -6.580228e+000 -2.775450e+000 -4.506458e+000 2.136966e+000 2.711611e+000 -3.696587e+000 -1.219819e+001 -3.976977e+000 -1.918711e+000 -7.959072e+000 -8.429618e+000 -5.967834e+000 8.324770e-001
<VARIANCE> 13
 4.960551e+000 4.426885e+001 1.773919e+001 1.181199e+001 1.736337e+001 2.523051e+001 4.080708e+001 1.793373e+001 3.517380e+001 4.044912e+001 2.149762e+001 2.008701e+001 1.812798e-002
<GCONST> 5.662511e+001
<MIXTURE> 3 2.186430e-001
<MEAN> 13
 -9.729515e+000 1.584830e+000 -2.089914e+000 3.230795e+000 6.259095e+000 5.292428e+000 -3.366806e-001 -4.793544e-001 2.095439e-001 -4.052283e-001 -2.746884e+000 -2.663689e+000 4.817239e-001
<VARIANCE> 13
 1.321166e+001 2.443150e+001 3.295913e+001 1.755944e+001 2.440431e+001 1.886132e+001 1.602534e+001 1.525432e+001 1.881118e+001 1.794431e+001 1.644746e+001 1.583226e+001 3.849806e-002
<GCONST> 5.578794e+001
<STATE> 4
<NUMMIXES> 3
<MIXTURE> 1 6.831692e-001
<MEAN> 13
 -1.147982e+001 3.367203e+000 1.908046e+000 5.109602e+000 4.927804e+000 6.303471e+000 5.707626e+000 5.886525e+000 5.586392e+000 5.994727e+000 5.463510e+000 4.444898e+000 6.733357e-001
<VARIANCE> 13
 1.702816e+001 1.272029e+001 1.696979e+001 1.733840e+001 1.733610e+001 1.610442e+001 1.447731e+001 1.648845e+001 1.496048e+001 1.577481e+001 1.429355e+001 1.322616e+001 1.469991e-002
<GCONST> 5.254787e+001
<MIXTURE> 2 1.312701e-001
<MEAN> 13
 -1.047052e+001 1.575013e+000 3.736345e-002 3.220486e+000 1.793962e+000 -1.067009e+000 -4.969025e+000 -2.510885e+000 -2.457319e+000 -5.836681e+000 -7.066184e+000 -4.413838e+000 6.624563e-001
<VARIANCE> 13
 3.933940e+000 5.273875e+000 1.344743e+001 1.004296e+001 1.315653e+001 1.862598e+001 2.000245e+001 1.353995e+001 1.276263e+001 1.696541e+001 1.760474e+001 1.551279e+001 3.403493e-002
<GCONST> 5.054061e+001
<MIXTURE> 3 1.855607e-001
<MEAN> 13
 -1.157484e+001 1.493129e+000 3.756945e-001 4.091192e+000 4.074836e+000 4.127153e+000 1.715052e+000 4.922617e-001 4.054657e-001 6.574917e-001 -1.745174e-001 -6.154457e-001 4.902612e-001
<VARIANCE> 13
 3.829750e+000 8.566611e+000 1.434067e+001 1.166006e+001 1.273962e+001 1.354864e+001 1.354193e+001 1.407937e+001 1.385963e+001 1.379162e+001 1.710628e+001 1.523664e+001 2.251993e-002
<GCONST> 4.992668e+001
<TRANSP> 5
 0.000000e+000 1.000000e+000 0.000000e+000 0.000000e+000 0.000000e+000
 0.000000e+000 9.708455e-001 2.915458e-002 0.000000e+000 0.000000e+000
 0.000000e+000 0.000000e+000 9.257376e-001 7.426242e-002 0.000000e+000
 0.000000e+000 0.000000e+000 0.000000e+000 9.434217e-001 5.657830e-002
 0.000000e+000 0.000000e+000 0.000000e+000 0.000000e+000 0.000000e+000
<ENDHMM>
~h "er"
<BEGINHMM>
<NUMSTATES> 5
<STATE> 2
<NUMMIXES> 3
<MIXTURE> 1 8.302391e-003
<MEAN> 13
 -1.434180e+001 -4.529801e-001 -3.387466e+000 -1.979205e+000 1.520204e-001 8.585886e-001 2.080149e+000 5.828255e+000 9.108156e+000 8.664397e+000 1.786976e+000 -8.792137e-001 6.186921e-001
<VARIANCE> 13
 3.130733e+001 1.308667e+001 5.953732e+000 7.193733e+000 1.267139e+001 1.468787e+001 1.255271e+001 1.294239e+001 2.883728e+001 2.374326e+001 1.269316e+001 2.467996e+001 8.682935e-003
<GCONST> 5.151152e+001
<MIXTURE> 2 8.987122e-001
<MEAN> 13
 -2.501049e+000 -5.649826e+000 -5.912420e+000 -1.205652e+001 -5.021468e+000 -2.227118e+000 -9.404122e+000 1.917544e+000 2.996234e+000 7.292059e-001 -6.468218e+000 -1.008209e+001 8.967442e-001
<VARIANCE> 13
 1.703304e+001 2.941586e+001 2.217817e+001 5.652846e+001 4.028060e+001 7.528081e+001 3.450623e+001 3.408942e+001 5.318405e+001 7.248389e+001 5.886533e+001 3.193943e+001 1.178917e-002
<GCONST> 6.368581e+001
<MIXTURE> 3 9.298337e-002
<MEAN> 13
 -1.130002e+000 1.286864e+000 -4.026696e+000 -9.293851e+000 -3.622913e+000 1.574811e+000 -8.431468e+000 -1.024844e+000 6.822260e+000 6.783798e+000 -2.136185e+000 -8.103428e+000 7.620330e-001
<VARIANCE> 13
 3.093852e+001 1.656108e+001 1.143205e+001 4.132948e+001 1.489144e+001 5.539966e+001 3.514086e+001 3.026034e+001 2.001745e+001 2.516947e+001 1.828735e+001 1.239330e+001 2.561525e-002
<GCONST> 5.795505e+001
<STATE> 3
<NUMMIXES> 3
<MIXTURE> 1 1.835752e-001
<MEAN> 13
 -7.534492e+000 4.808474e+000 4.193475e-001 2.866579e+000 3.087138e+000 3.881462e+000 5.686652e-001 2.235864e+000 3.348704e+000 2.677823e+000 -8.414866e-001 -2.671544e+000 5.748138e-001
<VARIANCE> 13
 1.224378e+001 1.512140e+001 1.099203e+001 2.460064e+001 1.335345e+001 1.590814e+001 1.749587e+001 1.884935e+001 1.285312e+001 2.416551e+001 1.482054e+001 1.376849e+001 1.032161e-002
<GCONST> 5.235392e+001
<MIXTURE> 2 5.515023e-001
<MEAN> 13
 -6.717523e+000 6.899121e-001 -3.184821e+000 9.155461e-001 -4.676357e+000 -7.256598e+000 -2.847985e+000 4.830410e+000 1.018209e+000 -4.164669e+000 -5.046415e+000 -3.439592e+000 5.928885e-001
<VARIANCE> 13
 2.090502e+001 1.843353e+001 1.348946e+001 3.077815e+001 2.824029e+001 5.849839e+001 2.834010e+001 3.953910e+001 4.463923e+001 5.800147e+001 2.872401e+001 2.717890e+001 1.322722e-002
<GCONST> 6.050037e+001
<MIXTURE> 3 2.649228e-001
<MEAN> 13
 -7.007879e+000 3.546787e+000 -2.294148e+000 -3.347706e-001 2.481064e-001 9.020285e-001 -2.202155e+000 1.530221e+000 3.206728e+000 1.528838e+000 -2.247363e+000 -3.701750e+000 5.582996e-001
<VARIANCE> 13
 1.478031e+001 1.442834e+001 1.137273e+001 3.087786e+001 2.078430e+001 3.211761e+001 1.975470e+001 3.082908e+001 1.592939e+001 2.587532e+001 1.397500e+001 1.749645e+001 1.073178e-002
<GCONST> 5.501778e+001
<STATE> 4
<NUMMIXES> 3
<MIXTURE> 1 4.403984e-001
<MEAN> 13
 -9.651199e+000 7.730530e+000 6.887725e+000 8.429439e+000 5.812403e+000 5.241854e+000 2.926597e+000 2.324494e+000 8.730552e-001 8.625795e-001 5.801948e-001 8.238987e-001 6.305682e-001
<VARIANCE> 13
 4.611463e+000 2.349048e+001 1.470839e+001 1.416560e+001 1.776917e+001 2.314155e+001 2.365491e+001 2.439074e+001 2.275802e+001 2.139558e+001 1.760142e+001 1.518633e+001 2.794123e-002
<GCONST> 5.449247e+001
<MIXTURE> 2 2.693839e-001
<MEAN> 13
 -1.196597e+001 -1.024180e+000 -3.505473e+000 -1.531341e+000 -2.019143e+000 -1.605823e+000 -2.548475e+000 -7.789105e-001 1.873561e-001 -1.386486e-001 -1.560076e+000 -1.303582e+000 2.520154e-001
<VARIANCE> 13
 1.056754e+001 7.444852e+000 1.164203e+001 1.752238e+001 1.348532e+001 1.605346e+001 1.874780e+001 2.040781e+001 2.490052e+001 2.728152e+001 2.552512e+001 1.959922e+001 3.180585e-002
<GCONST> 5.418848e+001
<MIXTURE> 3 2.902192e-001
<MEAN> 13
 -5.757071e+000 3.369299e-002 -9.598084e-001 -6.242622e-002 -6.720247e-002 4.145492e-001 -2.578779e-001 4.879172e-001 1.089300e+000 9.567969e-001 1.567204e-001 -5.881293e-002 5.456325e-002
<VARIANCE> 13
 3.768846e+001 3.030642e+000 5.346895e+000 5.507216e+000 4.991599e+000 5.686435e+000 5.679911e+000 7.069521e+000 1.021573e+001 9.115517e+000 6.047113e+000 5.607059e+000 5.580966e-002
<GCONST> 4.422338e+001
<TRANSP> 5
 0.000000e+000 1.000000e+000 0.000000e+000 0.000000e+000 0.000000e+000
 0.000000e+000 9.705814e-001 2.941867e-002 0.000000e+000 0.000000e+000
 0.000000e+000 0.000000e+000 8.843080e-001 1.156920e-001 0.000000e+000
 0.000000e+000 0.000000e+000 0.000000e+000 9.544772e-001 4.552277e-002
 0.000000e+000 0.000000e+000 0.000000e+000 0.000000e+000 0.000000e+000
<ENDHMM>
~h "jiou"
<BEGINHMM>
<NUMSTATES> 5
<STATE> 2
<NUMMIXES> 3
<MIXTURE> 1 3.590018e-002
<MEAN> 13
 -1.413791e+001 5.006666e+000 2.725532e+000 -9.455063e+000 -5.549577e+000 5.272678e+000 1.766266e+000 -7.910728e-001 4.117454e+000 1.337245e+000 1.462160e+000 1.875641e+000 7.889673e-001
<VARIANCE> 13
 2.841559e+002 4.664590e+001 5.112885e+001 3.208371e+001 4.039363e+001 2.783290e+001 2.682321e+001 2.122192e+001 2.498142e+001 2.004625e+001 1.178189e+001 1.464846e+001 1.951980e-002
<GCONST> 6.158715e+001
<MIXTURE> 2 8.205186e-001
<MEAN> 13
 -2.048103e+000 -1.771986e+000 -1.450423e-001 -1.357889e+001 -9.044271e+000 9.268783e-001 -7.106253e+000 -2.806072e+000 -7.929776e-001 -8.994596e-001 -1.218904e+000 -5.034156e+000 9.239938e-001
<VARIANCE> 13
 2.077377e+001 4.314027e+001 1.020742e+002 1.072358e+002 5.882779e+001 1.296482e+002 4.050598e+001 3.826934e+001 5.294503e+001 4.571932e+001 4.180171e+001 3.881857e+001 3.987745e-003
<GCONST> 6.593590e+001
<MIXTURE> 3 1.435793e-001
<MEAN> 13
 2.363709e-001 4.707071e+000 -3.569156e+000 -1.454018e+001 -1.039189e+001 5.927023e+000 2.016190e+000 -1.979818e+000 5.713763e-001 6.418732e-001 1.324898e+000 7.354102e-001 8.559843e-001
<VARIANCE> 13
 1.068347e+002 4.614866e+001 4.365065e+001 6.542445e+001 3.632211e+001 3.869543e+001 5.236739e+001 1.930162e+001 2.602904e+001 3.131100e+001 1.048487e+001 1.750845e+001 1.086256e-002
<GCONST> 6.191265e+001
<STATE> 3
<NUMMIXES> 3
<MIXTURE> 1 4.957227e-002
<MEAN> 13
 -5.134058e+000 1.021239e+001 2.800523e-001 -3.222642e+000 -1.452107e+000 6.338714e+000 6.485179e+000 5.464397e+000 -6.437027e-001 -2.926491e+000 -1.171389e+000 8.309169e-001 6.506003e-001
<VARIANCE> 13
 7.763643e+000 1.949762e+001 1.903830e+001 2.127704e+001 2.390513e+001 3.335391e+001 1.487591e+001 2.222822e+001 2.223500e+001 1.684292e+001 1.444100e+001 1.739549e+001 1.522464e-002
<GCONST> 5.466564e+001
<MIXTURE> 2 6.968707e-001
<MEAN> 13
 -2.762396e+000 3.436154e+000 -9.155465e+000 -1.901540e+001 -4.657750e+000 7.100080e+000 -1.169250e+000 -3.857390e+000 -4.062000e+000 -2.639817e+000 -2.372627e+000 -2.178569e+000 8.285608e-001
<VARIANCE> 13
 1.098037e+001 1.379586e+001 1.224480e+001 6.780767e+001 3.530341e+001 2.199961e+001 1.865671e+001 2.064487e+001 1.956962e+001 2.775783e+001 2.487673e+001 1.932687e+001 1.200340e-002
<GCONST> 5.629369e+001
<MIXTURE> 3 2.535553e-001
<MEAN> 13
 -1.829670e+000 8.598632e+000 -5.518738e+000 -1.406585e+001 -8.611664e+000 5.148224e+000 4.732666e+000 1.964331e+000 -2.200544e+000 -3.490744e+000 -1.013540e+000 1.283750e+000 7.219174e-001
<VARIANCE> 13
 1.819854e+001 2.007916e+001 1.420282e+001 4.043050e+001 2.323420e+001 2.196110e+001 1.739415e+001 2.171203e+001 1.938572e+001 2.310059e+001 1.431749e+001 1.217100e+001 1.717662e-002
<GCONST> 5.551608e+001
<STATE> 4
<NUMMIXES> 3
<MIXTURE> 1 3.950904e-001
<MEAN> 13
 -9.073384e+000 7.565846e+000 5.704821e+000 6.289116e+000 4.644394e+000 5.721035e+000 3.814275e+000 3.131023e+000 7.130297e-001 -5.598466e-001 -7.674522e-001 -6.395534e-001 6.044855e-001
<VARIANCE> 13
 3.337363e+000 1.867558e+001 1.644198e+001 1.621288e+001 1.267098e+001 1.300005e+001 1.668639e+001 1.702399e+001 1.795010e+001 1.656857e+001 1.692599e+001 1.457233e+001 1.737331e-002
<GCONST> 5.151419e+001
<MIXTURE> 2 2.817590e-001
<MEAN> 13
 -8.034598e+000 3.768479e+000 -5.621256e-001 -9.672489e-001 -2.134803e+000 1.023361e+000 1.004632e+000 1.085771e-001 -2.979464e+000 -3.414922e+000 -3.542027e+000 -2.767189e+000 3.906212e-001
<VARIANCE> 13
 1.500480e+001 1.671618e+001 1.452207e+001 1.625144e+001 1.565883e+001 1.817706e+001 2.148222e+001 1.766555e+001 1.833623e+001 1.763202e+001 1.729118e+001 1.589838e+001 6.167496e-002
<GCONST> 5.508017e+001
<MIXTURE> 3 3.231490e-001
<MEAN> 13
 -4.037699e+000 1.615699e+000 1.237701e-001 3.967847e-001 -2.508344e-001 8.428224e-001 7.847221e-001 5.745782e-001 -4.024592e-001 -5.658101e-001 -5.549328e-001 -5.679275e-001 1.024561e-001
<VARIANCE> 13
 2.522235e+001 1.000805e+001 6.093507e+000 6.548311e+000 5.372080e+000 7.317459e+000 6.532714e+000 5.731260e+000 4.802475e+000 5.181092e+000 5.577149e+000 5.751732e+000 9.930502e-002
<GCONST> 4.477695e+001
<TRANSP> 5
 0.000000e+000 1.000000e+000 0.000000e+000 0.000000e+000 0.000000e+000
 0.000000e+000 9.661487e-001 3.385128e-002 0.000000e+000 0.000000e+000
 0.000000e+000 0.000000e+000 9.342497e-001 6.575032e-002 0.000000e+000
 0.000000e+000 0.000000e+000 0.000000e+000 9.165648e-001 8.343528e-002
 0.000000e+000 0.000000e+000 0.000000e+000 0.000000e+000 0.000000e+000
<ENDHMM>
~h "qi"
<BEGINHMM>
<NUMSTATES> 5
<STATE> 2
<NUMMIXES> 3
<MIXTURE> 1 8.320349e-002
<MEAN> 13
 -2.446454e+001 9.918143e+000 6.442301e+000 -6.297404e+000 4.055902e+000 1.581142e+000 2.909598e+000 7.541109e-001 4.272350e+000 1.077795e+000 2.811448e+000 1.267278e+000 8.369965e-001
<VARIANCE> 13
 2.842373e+001 3.221367e+001 2.463538e+001 3.906901e+001 2.481789e+001 1.464647e+001 2.468599e+001 3.747874e+001 2.504110e+001 1.614132e+001 2.198380e+001 2.235301e+001 1.168989e-002
<GCONST> 5.805744e+001
<MIXTURE> 2 7.987688e-001
<MEAN> 13
 -9.091912e+000 5.592929e+000 1.800054e+001 -8.214141e+000 -1.344416e+001 -5.808487e+000 -1.234293e+001 -6.080611e+000 -8.953615e+000 -6.980950e+000 -9.634762e-001 -3.740217e+000 9.370010e-001
<VARIANCE> 13
 1.907716e+001 2.830835e+001 3.471967e+001 6.773290e+001 3.583513e+001 2.024452e+001 3.208804e+001 5.200853e+001 3.751020e+001 3.369290e+001 7.638885e+001 4.110981e+001 3.827214e-003
<GCONST> 6.158200e+001
<MIXTURE> 3 1.180235e-001
<MEAN> 13
 -1.046941e+001 1.048130e+001 1.401231e+001 -2.566391e+000 -6.923290e+000 -3.129485e+000 -8.539244e+000 -3.086198e+000 -3.327530e+000 -5.273301e+000 1.368534e+000 8.322306e-001 8.688358e-001
<VARIANCE> 13
 7.124390e+001 3.451101e+001 5.880761e+001 2.792450e+001 3.292591e+001 1.529327e+001 3.674663e+001 1.957788e+001 2.248901e+001 2.185719e+001 1.539861e+001 2.891859e+001 1.023131e-002
<GCONST> 5.961770e+001
<STATE> 3
<NUMMIXES> 3
<MIXTURE> 1 1.061931e-001
<MEAN> 13
 -9.246194e+000 1.181679e+001 1.037376e+001 9.227222e+000 6.127007e+000 4.505888e+000 7.176557e-001 -1.416424e+000 -1.983619e+000 -1.203976e-001 -2.639214e-001 7.293510e-001 6.819595e-001
<VARIANCE> 13
 3.462940e+000 9.477394e+000 7.019544e+000 1.083408e+001 1.230103e+001 2.338447e+001 1.481074e+001 9.070489e+000 9.684338e+000 1.233971e+001 7.975088e+000 7.443464e+000 8.080315e-003
<GCONST> 4.632563e+001
<MIXTURE> 2 6.768836e-001
<MEAN> 13
 -1.042468e+001 8.539845e+000 1.088104e+001 -1.744886e-001 -7.577080e+000 -3.606616e+000 -7.599139e+000 -9.145247e+000 -6.579799e+000 -3.690821e+000 -3.904847e+000 -4.818868e+000 7.674010e-001
<VARIANCE> 13
 6.225870e+000 7.401398e+000 1.902034e+001 1.764061e+001 2.489135e+001 1.930159e+001 1.914134e+001 2.877533e+001 2.007445e+001 2.175254e+001 3.035132e+001 2.732947e+001 1.438439e-002
<GCONST> 5.458295e+001
<MIXTURE> 3 2.169232e-001
<MEAN> 13
 -8.284527e+000 1.066904e+001 1.068075e+001 4.073242e+000 -3.607155e+000 -2.021022e+000 -5.567628e+000 -4.326440e+000 -3.910016e+000 -9.464355e-001 -6.829486e-001 -5.382708e-001 7.424349e-001
<VARIANCE> 13
 6.510580e+000 1.252708e+001 9.383734e+000 1.771546e+001 2.447364e+001 1.299807e+001 1.329037e+001 1.160039e+001 1.403460e+001 1.446892e+001 1.140427e+001 1.100711e+001 1.451342e-002
<GCONST> 5.012099e+001
<STATE> 4
<NUMMIXES> 3
<MIXTURE> 1 6.592968e-001
<MEAN> 13
 -1.085878e+001 4.565925e+000 2.358053e+000 5.371281e+000 4.346157e+000 4.972823e+000 4.337919e+000 4.816012e+000 4.132137e+000 3.506002e+000 3.361270e+000 2.784822e+000 7.621773e-001
<VARIANCE> 13
 3.948500e+000 1.133063e+001 1.858973e+001 1.430783e+001 1.369703e+001 1.047849e+001 1.351808e+001 1.320340e+001 1.314827e+001 1.303838e+001 1.306579e+001 1.227067e+001 1.575036e-002
<GCONST> 4.949817e+001
<MIXTURE> 2 1.374476e-001
<MEAN> 13
 -1.163519e+001 5.031229e+000 6.096562e+000 4.839849e+000 4.960214e-001 8.034602e-001 -2.334860e+000 -4.641451e+000 -4.063711e+000 -3.598992e+000 -4.256244e+000 -3.198007e+000 5.232541e-001
<VARIANCE> 13
 4.334366e+000 9.086566e+000 1.061954e+001 1.473665e+001 1.518561e+001 1.768226e+001 2.022788e+001 1.689282e+001 1.518200e+001 1.457966e+001 1.425730e+001 1.530296e+001 2.365918e-002
<GCONST> 5.108672e+001
<MIXTURE> 3 2.032533e-001
<MEAN> 13
 -1.072993e+001 4.734137e+000 5.321594e+000 6.120658e+000 2.731742e+000 2.328911e+000 8.968122e-002 -9.665540e-001 -1.488159e+000 -1.100304e+000 -1.561546e+000 -9.757097e-001 5.374463e-001
<VARIANCE> 13
 3.349720e+000 7.446941e+000 9.900802e+000 8.308904e+000 1.070049e+001 9.367858e+000 1.192098e+001 1.207482e+001 1.213992e+001 1.275110e+001 1.174329e+001 1.157574e+001 2.134762e-002
<GCONST> 4.720352e+001
<TRANSP> 5
 0.000000e+000 1.000000e+000 0.000000e+000 0.000000e+000 0.000000e+000
 0.000000e+000 9.751049e-001 2.489516e-002 0.000000e+000 0.000000e+000
 0.000000e+000 0.000000e+000 8.416262e-001 1.583738e-001 0.000000e+000
 0.000000e+000 0.000000e+000 0.000000e+000 9.381102e-001 6.188974e-002
 0.000000e+000 0.000000e+000 0.000000e+000 0.000000e+000 0.000000e+000
<ENDHMM>
~h "si"
<BEGINHMM>
<NUMSTATES> 5
<STATE> 2
<NUMMIXES> 3
<MIXTURE> 1 1.151714e-001
<MEAN> 13
 -2.425213e+001 8.247429e+000 -2.624794e+000 -6.755123e-001 7.953241e+000 -1.801210e+000 6.228405e+000 5.232329e+000 1.315195e+000 4.383434e+000 2.522704e+000 2.920190e+000 6.972853e-001
<VARIANCE> 13
 2.842519e+001 1.911497e+001 2.461232e+001 2.084010e+001 1.757703e+001 2.273497e+001 2.587814e+001 3.499526e+001 1.757710e+001 2.327902e+001 2.631483e+001 1.649087e+001 1.548596e-002
<GCONST> 5.714865e+001
<MIXTURE> 2 7.520180e-001
<MEAN> 13
 -5.639386e+000 3.341550e+000 9.292541e+000 -3.630772e+000 -9.703341e+000 -1.372670e+001 -1.442854e+001 -1.033564e+000 -5.340710e+000 -5.403933e+000 -3.899753e+000 1.222647e+000 9.112639e-001
<VARIANCE> 13
 1.973815e+001 3.090595e+001 2.894319e+001 3.227737e+001 3.879394e+001 2.816307e+001 3.791655e+001 3.414234e+001 4.151600e+001 3.080716e+001 2.202380e+001 2.375056e+001 7.115991e-003
<GCONST> 5.977595e+001
<MIXTURE> 3 1.328074e-001
<MEAN> 13
 -1.838533e+001 9.672983e+000 -1.256696e+000 6.367832e-001 1.361945e-001 -5.979806e+000 -8.905449e-002 -1.735372e+000 -1.023411e+000 -1.473147e+000 -1.540466e+000 -2.391023e-001 6.848640e-001
<VARIANCE> 13
 6.485274e+001 2.666432e+001 2.818275e+001 2.878290e+001 3.417815e+001 2.687337e+001 5.491819e+001 2.614872e+001 2.245900e+001 1.725389e+001 1.617992e+001 1.583405e+001 2.325265e-002
<GCONST> 5.988303e+001
<STATE> 3
<NUMMIXES> 3
<MIXTURE> 1 3.188601e-001
<MEAN> 13
 -9.616719e+000 8.440100e+000 7.676058e+000 9.631260e+000 6.676316e+000 4.536777e+000 3.392336e+000 3.179625e+000 1.946332e+000 1.162011e+000 5.056908e-001 8.003728e-001 6.780998e-001
<VARIANCE> 13
 7.143086e+000 2.254181e+001 1.576764e+001 1.298942e+001 1.165572e+001 1.505530e+001 1.530429e+001 1.852093e+001 1.836970e+001 1.624409e+001 1.581310e+001 1.387252e+001 2.265995e-002
<GCONST> 5.241260e+001
<MIXTURE> 2 4.892984e-001
<MEAN> 13
 -8.767135e+000 6.729123e+000 6.427468e+000 5.553833e-001 -6.180416e+000 -1.059565e+001 -8.945761e+000 -2.394063e+000 -4.427610e+000 -3.495228e+000 -2.836908e+000 1.138515e+000 6.666264e-001
<VARIANCE> 13
 9.685697e+000 1.181916e+001 1.870897e+001 2.205561e+001 2.878778e+001 1.726595e+001 2.291946e+001 3.199680e+001 2.507435e+001 2.940591e+001 2.202526e+001 2.741416e+001 1.095193e-002
<GCONST> 5.595370e+001
<MIXTURE> 3 1.918417e-001
<MEAN> 13
 -8.339686e+000 7.769026e+000 6.050069e+000 3.194693e+000 -2.475179e+000 -5.645452e+000 -3.865948e+000 1.231029e+000 -8.761781e-001 -1.725712e-001 -5.897486e-001 2.126963e+000 6.119872e-001
<VARIANCE> 13
 9.112848e+000 1.856052e+001 1.473813e+001 1.552952e+001 2.003765e+001 1.720656e+001 2.926287e+001 2.043818e+001 1.408201e+001 1.551381e+001 1.338163e+001 1.140892e+001 1.565499e-002
<GCONST> 5.295087e+001
<STATE> 4
<NUMMIXES> 3
<MIXTURE> 1 3.872603e-001
<MEAN> 13
 -1.116376e+001 2.472777e+000 3.435455e+000 7.047703e+000 6.892473e+000 7.775241e+000 7.651994e+000 8.158074e+000 6.997826e+000 6.078790e+000 4.690117e+000 3.124141e+000 6.295586e-001
<VARIANCE> 13
 2.084292e+001 1.072912e+001 1.339950e+001 1.041970e+001 1.294056e+001 1.489626e+001 1.465810e+001 1.633322e+001 1.495132e+001 1.647766e+001 2.102976e+001 1.676081e+001 1.515074e-002
<GCONST> 5.216304e+001
<MIXTURE> 2 2.091957e-001
<MEAN> 13
 -1.136451e+001 3.179189e+000 1.952693e+000 3.051581e+000 -1.985796e-001 -2.212070e+000 -1.267722e+000 -8.214007e-002 -1.475681e+000 -2.014783e+000 -2.207345e+000 -1.932175e-001 4.935150e-001
<VARIANCE> 13
 4.437008e+000 7.437065e+000 1.166532e+001 1.967249e+001 2.187191e+001 2.545326e+001 2.431264e+001 3.095118e+001 2.160100e+001 2.356236e+001 1.747478e+001 2.055573e+001 1.886326e-002
<GCONST> 5.391590e+001
<MIXTURE> 3 4.035428e-001
<MEAN> 13
 -1.168677e+001 2.528593e+000 2.071131e+000 4.166103e+000 1.383876e+000 9.838665e-001 1.264727e+000 1.745099e+000 4.974895e-001 5.373315e-001 3.781068e-003 1.020246e+000 5.020232e-001
<VARIANCE> 13
 4.748227e+000 6.159687e+000 9.099753e+000 1.158381e+001 1.297445e+001 1.537501e+001 1.609973e+001 1.571117e+001 1.281427e+001 1.537287e+001 1.322681e+001 1.077809e+001 2.434429e-002
<GCONST> 4.928242e+001
<TRANSP> 5
 0.000000e+000 1.000000e+000 0.000000e+000 0.000000e+000 0.000000e+000
 0.000000e+000 9.735774e-001 2.642263e-002 0.000000e+000 0.000000e+000
 0.000000e+000 0.000000e+000 9.172137e-001 8.278632e-002 0.000000e+000
 0.000000e+000 0.000000e+000 0.000000e+000 8.751611e-001 1.248389e-001
 0.000000e+000 0.000000e+000 0.000000e+000 0.000000e+000 0.000000e+000
<ENDHMM>
~h "wu"
<BEGINHMM>
<NUMSTATES> 5
<STATE> 2
<NUMMIXES> 3
<MIXTURE> 1 8.347040e-003
<MEAN> 13
 -7.664081e-001 9.890001e+000 -2.549809e-001 1.879638e+000 7.847555e-001 2.668293e+000 -1.752102e-001 5.816205e-001 3.962559e-001 1.500604e+000 2.401254e-001 -9.151965e-004 8.343293e-001
<VARIANCE> 13
 2.199093e+001 1.718986e+001 2.361857e+001 1.904555e+001 1.333591e+001 9.608432e+000 1.610006e+001 1.428302e+001 8.837133e+000 1.067415e+001 1.444154e+001 1.396960e+001 1.969704e-002
<GCONST> 5.215371e+001
<MIXTURE> 2 8.107653e-001
<MEAN> 13
 1.164873e+000 1.198254e+001 2.251563e-001 -1.455197e+001 -1.440972e+001 -3.262466e+000 -4.926609e+000 -2.000587e+000 -3.497541e+000 -6.029788e+000 -4.813694e+000 -1.281291e+000 9.284480e-001
<VARIANCE> 13
 1.300078e+001 1.803381e+001 2.083276e+001 6.033788e+001 2.901459e+001 4.100116e+001 3.291764e+001 2.065179e+001 3.642012e+001 1.749199e+001 2.380201e+001 1.952287e+001 4.212770e-003
<GCONST> 5.721794e+001
<MIXTURE> 3 1.808843e-001
<MEAN> 13
 2.159531e+000 1.038624e+001 -1.179925e+000 -7.236028e+000 -8.665949e+000 -2.137078e+000 -1.703237e+000 -5.899508e-001 -3.187415e+000 -2.587642e+000 -1.060449e+000 4.053622e-001 9.031200e-001
<VARIANCE> 13
 1.573686e+001 1.911820e+001 9.159107e+000 3.306340e+001 2.793808e+001 1.786756e+001 1.490114e+001 1.952664e+001 2.381113e+001 1.669727e+001 1.681367e+001 1.214623e+001 8.104223e-003
<GCONST> 5.368766e+001
<STATE> 3
<NUMMIXES> 3
<MIXTURE> 1 1.302909e-001
<MEAN> 13
 -6.066758e+000 1.231954e+001 7.645063e+000 7.244499e+000 5.048996e+000 5.273124e+000 3.693247e+000 3.296072e+000 3.974693e+000 2.316249e+000 1.555798e-003 -7.228546e-001 8.227766e-001
<VARIANCE> 13
 7.327085e+000 1.379389e+001 2.086481e+001 1.890770e+001 1.454011e+001 1.289033e+001 1.282378e+001 1.125478e+001 2.481803e+001 2.129207e+001 1.794067e+001 1.785775e+001 1.669826e-002
<GCONST> 5.263828e+001
<MIXTURE> 2 6.060646e-001
<MEAN> 13
 -5.094545e+000 1.020376e+001 2.044772e+000 -3.166830e+000 -7.022699e+000 -4.840139e+000 -3.052365e+000 -1.761573e+000 -3.398062e+000 -4.762731e+000 -5.301382e+000 -3.621508e+000 7.238646e-001
<VARIANCE> 13
 8.646259e+000 2.166858e+001 1.165237e+001 1.892505e+001 2.773474e+001 2.418829e+001 2.796064e+001 2.656611e+001 2.605861e+001 3.233026e+001 2.966419e+001 1.946277e+001 1.837888e-002
<GCONST> 5.673862e+001
<MIXTURE> 3 2.636438e-001
<MEAN> 13
 -4.948281e+000 1.039862e+001 3.101405e+000 -1.018502e+000 -3.985297e+000 -2.244255e+000 -7.954363e-001 6.904045e-001 -5.767656e-001 -9.618161e-001 -1.749843e+000 -1.497223e+000 7.425895e-001
<VARIANCE> 13
 8.958317e+000 2.185423e+001 1.482824e+001 1.955208e+001 2.603872e+001 2.031226e+001 1.999352e+001 1.706950e+001 1.718823e+001 1.836684e+001 1.826646e+001 1.471892e+001 1.713439e-002
<GCONST> 5.422481e+001
<STATE> 4
<NUMMIXES> 3
<MIXTURE> 1 4.939329e-001
<MEAN> 13
 -1.001466e+001 5.949537e+000 5.891226e+000 7.431036e+000 4.707500e+000 4.306499e+000 2.073230e+000 1.625920e+000 1.500000e-001 -1.410892e-001 -7.330371e-001 -7.851726e-001 4.978052e-001
<VARIANCE> 13
 1.714706e+000 1.242173e+001 1.035132e+001 9.170864e+000 9.863496e+000 1.217265e+001 1.726670e+001 1.699599e+001 1.775277e+001 1.603535e+001 1.363129e+001 1.337435e+001 1.221795e-002
<GCONST> 4.842622e+001
<MIXTURE> 2 2.181650e-001
<MEAN> 13
 -8.970866e+000 2.448049e+000 6.243815e-001 1.915498e+000 -7.323698e-001 -8.791016e-001 -2.174200e+000 -1.855599e+000 -2.461154e+000 -2.026109e+000 -1.800763e+000 -1.324420e+000 2.861428e-001
<VARIANCE> 13
 1.477959e+001 1.526287e+001 2.114993e+001 1.469590e+001 1.344544e+001 1.182047e+001 1.423043e+001 1.256845e+001 1.360683e+001 1.300780e+001 1.601498e+001 1.226698e+001 7.125968e-002
<GCONST> 5.312045e+001
<MIXTURE> 3 2.879010e-001
<MEAN> 13
 -2.805926e+000 9.088403e-001 3.941802e-001 8.110924e-001 1.684504e-001 2.907913e-001 -1.892801e-002 4.410490e-002 -1.625191e-001 -1.150999e-001 -1.610723e-001 -8.169106e-002 -5.434618e-003
<VARIANCE> 13
 2.058025e+001 4.740032e+000 5.160058e+000 5.016776e+000 2.732410e+000 2.147741e+000 2.311240e+000 2.081651e+000 2.221757e+000 2.405704e+000 2.192437e+000 2.387743e+000 6.574020e-002
<GCONST> 3.567652e+001
<TRANSP> 5
 0.000000e+000 1.000000e+000 0.000000e+000 0.000000e+000 0.000000e+000
 0.000000e+000 9.764507e-001 2.354932e-002 0.000000e+000 0.000000e+000
 0.000000e+000 0.000000e+000 8.376878e-001 1.623122e-001 0.000000e+000
 0.000000e+000 0.000000e+000 0.000000e+000 9.370551e-001 6.294497e-002
 0.000000e+000 0.000000e+000 0.000000e+000 0.000000e+000 0.000000e+000
<ENDHMM>
~h "san"
<BEGINHMM>
<NUMSTATES> 5
<STATE> 2
<NUMMIXES> 3
<MIXTURE> 1 7.676234e-002
<MEAN> 13
 -1.919007e+001 9.140093e+000 -1.787608e+000 3.365701e+000 5.015538e+000 -7.172815e-001 7.008102e+000 1.500698e+000 4.036488e+000 3.937244e+000 8.689662e-001 3.280079e+000 7.479292e-001
<VARIANCE> 13
 5.110217e+001 1.872470e+001 3.783291e+001 2.429754e+001 1.581747e+001 2.299467e+001 1.958020e+001 1.744216e+001 2.820090e+001 2.306638e+001 1.597942e+001 2.020133e+001 1.500415e-002
<GCONST> 5.736477e+001
<MIXTURE> 2 8.543193e-001
<MEAN> 13
 -3.357116e+000 -7.738004e+000 -4.470263e+000 -8.279933e+000 -2.001040e+000 -2.552297e+000 -5.694501e+000 3.175612e+000 -1.837956e+000 -5.792935e+000 -9.235895e+000 -5.930697e+000 9.338111e-001
<VARIANCE> 13
 1.436128e+001 4.181767e+001 2.847849e+001 2.572252e+001 4.371781e+001 6.127121e+001 3.608629e+001 3.902359e+001 8.291350e+001 5.984010e+001 3.601088e+001 2.516131e+001 2.956541e-003
<GCONST> 6.152478e+001
<MIXTURE> 3 6.891191e-002
<MEAN> 13
 -4.970023e+000 5.622962e+000 -1.403128e+000 4.092417e-003 -4.052430e-001 -3.021266e+000 -2.355764e+000 2.015415e+000 -8.871132e-001 -2.189823e+000 -4.445383e+000 -2.116178e+000 8.398620e-001
<VARIANCE> 13
 4.910254e+001 4.394628e+001 2.873071e+001 2.407522e+001 1.700779e+001 2.913456e+001 2.277667e+001 2.345294e+001 1.419036e+001 1.865314e+001 1.652835e+001 1.811218e+001 1.506965e-002
<GCONST> 5.767992e+001
<STATE> 3
<NUMMIXES> 3
<MIXTURE> 1 3.270576e-001
<MEAN> 13
 -8.007165e+000 1.183151e+001 1.010764e+001 1.066560e+001 5.992050e+000 4.477290e+000 2.080210e+000 1.912505e+000 3.476935e-001 5.373820e-001 3.297279e-001 5.371553e-002 7.594910e-001
<VARIANCE> 13
 1.006444e+001 1.451678e+001 8.814775e+000 1.290954e+001 1.954011e+001 2.335550e+001 2.551120e+001 2.319724e+001 1.837956e+001 1.300388e+001 1.242291e+001 1.099921e+001 1.000667e-002
<GCONST> 5.190691e+001
<MIXTURE> 2 4.703268e-001
<MEAN> 13
 -6.035357e+000 7.001102e+000 5.155623e+000 3.087252e+000 -5.089326e+000 -6.143058e+000 -6.399013e+000 -5.062278e+000 -5.207705e+000 -5.597426e+000 -6.917991e+000 -2.811112e+000 7.296768e-001
<VARIANCE> 13
 1.240822e+001 1.669505e+001 1.628833e+001 1.454451e+001 2.220117e+001 2.507407e+001 2.091970e+001 4.773698e+001 4.958834e+001 4.262557e+001 2.765019e+001 1.980754e+001 1.372706e-002
<GCONST> 5.759543e+001
<MIXTURE> 3 2.026137e-001
<MEAN> 13
 -6.638389e+000 9.658315e+000 7.150604e+000 5.335117e+000 -8.435096e-001 -1.315276e+000 -3.181921e+000 -3.459167e+000 -2.810863e+000 -2.379505e+000 -3.749619e+000 -1.970365e+000 7.017909e-001
<VARIANCE> 13
 9.385342e+000 1.086630e+001 9.072276e+000 7.923982e+000 1.493468e+001 1.485431e+001 1.202104e+001 1.793352e+001 1.764816e+001 1.689365e+001 1.391269e+001 1.432647e+001 1.448199e-002
<GCONST> 5.032527e+001
<STATE> 4
<NUMMIXES> 3
<MIXTURE> 1 5.117718e-001
<MEAN> 13
 -1.082275e+001 4.635140e+000 3.229664e+000 6.317198e+000 5.334602e+000 5.743281e+000 4.800464e+000 4.899914e+000 4.107563e+000 3.515871e+000 2.859524e+000 2.609913e+000 6.917730e-001
<VARIANCE> 13
 3.496893e+000 1.185540e+001 2.183483e+001 1.670259e+001 1.492182e+001 1.371650e+001 1.397473e+001 1.426426e+001 1.334373e+001 1.339744e+001 1.370905e+001 1.117457e+001 1.599540e-002
<GCONST> 5.021492e+001
<MIXTURE> 2 1.794388e-001
<MEAN> 13
 -1.065466e+001 3.159483e+000 3.188624e+000 3.948884e+000 -2.285062e-001 -1.678515e+000 -3.510435e+000 -3.373731e+000 -4.580706e+000 -4.892116e+000 -5.096509e+000 -3.159504e+000 5.744239e-001
<VARIANCE> 13
 1.554325e+000 6.549267e+000 1.093409e+001 1.125321e+001 1.750630e+001 1.715778e+001 1.497588e+001 1.744241e+001 1.638920e+001 1.565114e+001 1.480169e+001 1.364774e+001 2.298828e-002
<GCONST> 4.937840e+001
<MIXTURE> 3 3.087874e-001
<MEAN> 13
 -1.053232e+001 3.439979e+000 3.741675e+000 5.665084e+000 2.693070e+000 1.950705e+000 -9.066614e-002 -5.189665e-001 -1.168028e+000 -1.124803e+000 -1.681866e+000 -1.105355e+000 5.039248e-001
<VARIANCE> 13
 1.756549e+000 5.066293e+000 9.406880e+000 8.070572e+000 8.975223e+000 9.762125e+000 1.082852e+001 1.087391e+001 1.108525e+001 1.149002e+001 1.251006e+001 1.564136e+001 1.667694e-002
<GCONST> 4.567937e+001
<TRANSP> 5
 0.000000e+000 1.000000e+000 0.000000e+000 0.000000e+000 0.000000e+000
 0.000000e+000 9.700657e-001 2.993434e-002 0.000000e+000 0.000000e+000
 0.000000e+000 0.000000e+000 9.286897e-001 7.131030e-002 0.000000e+000
 0.000000e+000 0.000000e+000 0.000000e+000 9.434479e-001 5.655200e-002
 0.000000e+000 0.000000e+000 0.000000e+000 0.000000e+000 0.000000e+000
<ENDHMM>
