~o
<STREAMINFO> 1 13
<VECSIZE> 13<NULLD><MFCC_E><DIAGC>
~h "i"
<BEGINHMM>
<NUMSTATES> 5
<STATE> 2
<NUMMIXES> 3
<MIXTURE> 1 6.066659e-003
<MEAN> 13
 -1.007470e+001 9.914918e+000 8.719018e+000 5.790958e+000 2.629545e+000 -1.340428e-001 -4.701552e+000 -4.683651e+000 -4.628631e+000 -2.558183e+000 7.121279e-001 6.427557e-001 7.511943e-001
<VARIANCE> 13
 1.156676e+001 5.366209e+001 3.130050e+001 2.376852e+001 1.660891e+001 1.705610e+001 1.822416e+001 2.348788e+001 1.920861e+001 2.491235e+001 1.561110e+001 1.742346e+001 6.237041e-003
<GCONST> 5.534019e+001
<MIXTURE> 2 6.807988e-001
<MEAN> 13
 -1.213267e+001 7.469344e+000 1.860776e+001 -1.251089e+001 -1.031902e+001 -4.359124e+000 -1.565042e+001 -6.874352e+000 -1.129612e+001 -4.871716e+000 -3.967021e+000 -7.410204e+000 9.337033e-001
<VARIANCE> 13
 8.015375e+000 2.216290e+001 3.358831e+001 5.433411e+001 4.865067e+001 3.663802e+001 2.734363e+001 2.921011e+001 5.153580e+001 4.819972e+001 1.128292e+002 3.240564e+001 5.423035e-003
<GCONST> 6.155500e+001
<MIXTURE> 3 3.131326e-001
<MEAN> 13
 -5.165654e+000 1.105867e+001 2.064964e+001 -1.076952e+000 -1.005361e+001 -1.177248e+000 -1.401334e+001 -2.673166e+000 -8.029351e+000 -1.141012e+001 5.863253e+000 -2.044120e+000 9.500937e-001
<VARIANCE> 13
 5.981599e+000 3.116636e+001 2.083125e+001 9.984612e+000 3.573307e+001 1.411412e+001 1.977061e+001 1.439573e+001 1.226475e+001 1.678417e+001 1.594503e+001 1.161116e+001 2.513963e-003
<GCONST> 5.089469e+001
<STATE> 3
<NUMMIXES> 3
<MIXTURE> 1 2.787755e-001
<MEAN> 13
 -1.088728e+001 8.423903e+000 8.415769e+000 1.054219e+001 8.754720e+000 8.677999e+000 5.844640e+000 4.789508e+000 2.786728e+000 2.015373e+000 1.512912e+000 7.270951e-001 7.346700e-001
<VARIANCE> 13
 7.188735e+000 1.991453e+001 1.357572e+001 1.585266e+001 1.548474e+001 1.894838e+001 2.192711e+001 1.773375e+001 1.830805e+001 1.753750e+001 1.829643e+001 1.571844e+001 2.375660e-002
<GCONST> 5.356608e+001
<MIXTURE> 2 4.761173e-001
<MEAN> 13
 -1.090365e+001 9.538076e+000 1.062661e+001 -4.737141e-001 -2.004387e+000 -5.635843e+000 -7.593352e+000 -1.117183e+001 -9.447762e+000 -6.604344e+000 -6.169995e+000 -3.061798e+000 8.130599e-001
<VARIANCE> 13
 2.033262e+001 1.904246e+001 1.850034e+001 2.640212e+001 3.283031e+001 3.750751e+001 3.577067e+001 2.429482e+001 3.685759e+001 2.513041e+001 3.355998e+001 2.302871e+001 1.367139e-002
<GCONST> 5.911458e+001
<MIXTURE> 3 2.451073e-001
<MEAN> 13
 -8.122129e+000 1.113061e+001 9.962542e+000 4.694686e+000 -4.482904e-001 1.968466e-001 -4.200699e+000 -2.789002e+000 -2.986638e+000 -1.245339e+000 -3.494116e-001 -5.762520e-001 6.890206e-001
<VARIANCE> 13
 6.538826e+000 1.539040e+001 1.392119e+001 2.547096e+001 1.625498e+001 1.487291e+001 1.584190e+001 1.293448e+001 1.183630e+001 1.178706e+001 1.483023e+001 1.396868e+001 2.539666e-002
<GCONST> 5.178387e+001
<STATE> 4
<NUMMIXES> 3
<MIXTURE> 1 6.105236e-001
<MEAN> 13
 -1.119874e+001 2.881503e+000 1.137092e+000 4.216387e+000 3.704032e+000 4.708201e+000 4.693763e+000 4.880499e+000 4.657193e+000 4.503068e+000 3.906002e+000 3.355302e+000 7.248051e-001
<VARIANCE> 13
 4.495694e+000 7.112215e+000 1.180161e+001 1.145529e+001 1.188015e+001 1.180212e+001 1.248784e+001 1.326210e+001 1.194275e+001 1.199275e+001 1.247843e+001 1.202133e+001 1.285192e-002
<GCONST> 4.793769e+001
<MIXTURE> 2 1.414923e-001
<MEAN> 13
 -1.119797e+001 3.404325e+000 2.891396e+000 1.478989e+000 -2.580079e+000 -1.653407e+000 -3.940389e+000 -4.263980e+000 -3.702351e+000 -3.636706e+000 -4.372282e+000 -3.153843e+000 5.388334e-001
<VARIANCE> 13
 8.563303e+000 7.166691e+000 1.548297e+001 9.196161e+000 1.485395e+001 1.382236e+001 1.804368e+001 1.230862e+001 1.297724e+001 1.181338e+001 1.771252e+001 1.681553e+001 1.983675e-002
<GCONST> 5.050430e+001
<MIXTURE> 3 2.479838e-001
<MEAN> 13
 -9.608168e+000 5.184748e+000 3.988043e+000 4.843876e+000 1.597221e+000 1.540950e+000 -3.438922e-001 -7.548864e-001 -1.493322e+000 -1.334134e-001 -2.480927e-001 -1.152847e-001 5.429081e-001
<VARIANCE> 13
 3.871647e+000 1.120262e+001 1.271287e+001 1.047622e+001 1.100012e+001 1.161035e+001 1.013540e+001 1.347724e+001 1.014346e+001 1.191979e+001 9.313927e+000 1.004987e+001 2.305318e-002
<GCONST> 4.788494e+001
<TRANSP> 5
 0.000000e+000 1.000000e+000 0.000000e+000 0.000000e+000 0.000000e+000
 0.000000e+000 9.719986e-001 2.800134e-002 0.000000e+000 0.000000e+000
 0.000000e+000 0.000000e+000 8.943543e-001 1.056457e-001 0.000000e+000
 0.000000e+000 0.000000e+000 0.000000e+000 9.428523e-001 5.714772e-002
 0.000000e+000 0.000000e+000 0.000000e+000 0.000000e+000 0.000000e+000
<ENDHMM>
~h "sil"
<BEGINHMM>
<NUMSTATES> 5
<STATE> 2
<NUMMIXES> 3
<MIXTURE> 1 1.960885e-001
<MEAN> 13
 -1.379981e+001 4.597702e-001 -5.504490e-001 2.865671e+000 2.361865e+000 4.359313e+000 4.319796e+000 4.845407e+000 4.835529e+000 5.264068e+000 4.054379e+000 3.342649e+000 5.492583e-001
<VARIANCE> 13
 1.226220e+001 1.023228e+001 9.626760e+000 1.168925e+001 1.285995e+001 1.304922e+001 1.437018e+001 1.647319e+001 1.766531e+001 1.638048e+001 1.398491e+001 1.298789e+001 3.977778e-002
<GCONST> 5.168267e+001
<MIXTURE> 2 3.575416e-001
<MEAN> 13
 -1.367749e+001 -1.010752e+000 -2.072056e+000 -3.430411e-001 -2.428245e+000 -1.620461e+000 -1.990456e+000 -3.924713e-001 -2.088577e-002 6.400412e-001 1.426697e-002 -2.424982e-002 3.019956e-001
<VARIANCE> 13
 4.626136e+000 5.537313e+000 1.118073e+001 1.765516e+001 1.621746e+001 1.614426e+001 1.628285e+001 1.851756e+001 2.013966e+001 1.975321e+001 1.777476e+001 1.524993e+001 2.636934e-002
<GCONST> 5.165015e+001
<MIXTURE> 3 4.463387e-001
<MEAN> 13
 -1.290921e+001 3.543621e-002 -1.381109e+000 1.018288e+000 7.068211e-002 1.344636e+000 1.013740e+000 1.976363e+000 1.742674e+000 2.061013e+000 1.067119e+000 6.458953e-001 3.075882e-001
<VARIANCE> 13
 4.675938e+000 4.431421e+000 6.185906e+000 8.564137e+000 9.296892e+000 9.919710e+000 1.036724e+001 1.172098e+001 1.359480e+001 1.221397e+001 1.055627e+001 1.029921e+001 2.065638e-002
<GCONST> 4.613897e+001
<STATE> 3
<NUMMIXES> 3
<MIXTURE> 1 1.696314e-001
<MEAN> 13
 -1.202627e+001 2.153408e+000 2.471485e+000 4.671179e+000 4.135545e+000 6.368495e+000 6.357171e+000 7.045805e+000 6.919034e+000 7.082188e+000 6.667998e+000 5.921667e+000 4.109062e-001
<VARIANCE> 13
 5.613755e+001 1.442961e+001 1.555881e+001 1.786698e+001 2.144315e+001 2.206485e+001 2.063126e+001 2.125096e+001 1.908100e+001 1.859370e+001 1.911074e+001 1.776216e+001 3.163996e-002
<GCONST> 5.670517e+001
<MIXTURE> 2 4.903875e-001
<MEAN> 13
 -1.551983e+001 3.408267e-001 -4.627161e-001 3.996594e-001 -1.748666e+000 -1.812766e-001 -4.261941e-001 6.525890e-001 2.522413e-001 2.831183e-001 9.344320e-002 -2.000699e-001 1.677773e-001
<VARIANCE> 13
 8.618171e+000 1.381964e+001 1.736198e+001 2.110060e+001 2.127934e+001 2.191479e+001 2.310065e+001 2.433871e+001 2.182709e+001 2.030918e+001 1.792551e+001 1.512452e+001 1.954063e-002
<GCONST> 5.481429e+001
<MIXTURE> 3 3.399772e-001
<MEAN> 13
 -7.566680e+000 8.393113e-001 -4.390176e-001 5.614431e-001 -1.055172e-001 5.923220e-001 3.062319e-001 5.933427e-001 3.362258e-001 4.137071e-001 1.904588e-001 1.541530e-001 6.193163e-002
<VARIANCE> 13
 4.103921e+001 2.915832e+000 2.510222e+000 2.778891e+000 2.699669e+000 2.982843e+000 2.877478e+000 3.443130e+000 3.248887e+000 3.260210e+000 3.135835e+000 3.126271e+000 3.907728e-002
<GCONST> 3.639944e+001
<STATE> 4
<NUMMIXES> 3
<MIXTURE> 1 2.751445e-001
<MEAN> 13
 2.546838e+000 6.449464e+000 5.530014e+000 7.538279e+000 7.394925e+000 8.989153e+000 9.099610e+000 1.015363e+001 1.006823e+001 1.045374e+001 1.004799e+001 9.868752e+000 5.146993e-001
<VARIANCE> 13
 5.679493e+001 3.738061e+000 1.866662e+000 1.243873e+000 1.073965e+000 7.772399e-001 7.825274e-001 7.910089e-001 7.173561e-001 7.844869e-001 7.149143e-001 7.103269e-001 1.432212e-002
<GCONST> 2.393399e+001
<MIXTURE> 2 2.578265e-001
<MEAN> 13
 -1.631328e+001 4.707276e+000 2.731298e+000 -3.247221e-001 -1.606352e+000 -1.888058e+000 -7.061490e-001 -8.297530e-001 -5.081776e-001 -4.451149e-001 -2.301055e-001 -3.602265e-001 5.671819e-001
<VARIANCE> 13
 4.710975e+001 2.793761e+001 5.254224e+001 5.520228e+001 4.473224e+001 3.968157e+001 5.787216e+001 4.377663e+001 3.908111e+001 3.212354e+001 2.938078e+001 2.761946e+001 1.849382e-002
<GCONST> 6.421017e+001
<MIXTURE> 3 4.670278e-001
<MEAN> 13
 -1.447914e+001 1.282288e+000 9.549689e-001 2.093736e+000 1.432277e+000 2.391727e+000 3.489430e+000 2.778812e+000 2.791272e+000 3.892406e+000 2.785607e+000 2.754925e+000 4.514579e-001
<VARIANCE> 13
 1.555491e+001 9.652020e+000 1.410333e+001 1.871640e+001 1.858965e+001 2.143196e+001 2.145869e+001 2.008647e+001 2.289564e+001 2.205900e+001 2.046548e+001 1.777977e+001 2.699437e-002
<GCONST> 5.504276e+001
<TRANSP> 5
 0.000000e+000 1.000000e+000 0.000000e+000 0.000000e+000 0.000000e+000
 0.000000e+000 9.781407e-001 2.185939e-002 0.000000e+000 0.000000e+000
 0.000000e+000 0.000000e+000 9.227279e-001 7.727213e-002 0.000000e+000
 0.000000e+000 0.000000e+000 0.000000e+000 8.953934e-001 1.046066e-001
 0.000000e+000 0.000000e+000 0.000000e+000 0.000000e+000 0.000000e+000
<ENDHMM>
~h "ling"
<BEGINHMM>
<NUMSTATES> 5
<STATE> 2
<NUMMIXES> 3
<MIXTURE> 1 9.138922e-002
<MEAN> 13
 -3.803564e+000 1.473632e+001 1.089693e+001 8.817630e+000 8.399968e-001 -1.288202e+000 -4.015981e+000 -4.083659e+000 -3.210235e+000 2.738197e-001 6.384994e-001 8.355772e-001 8.567114e-001
<VARIANCE> 13
 1.038334e+001 9.306653e+000 7.170262e+000 1.258301e+001 1.734937e+001 1.596391e+001 1.300132e+001 2.056340e+001 1.765122e+001 1.132606e+001 1.233740e+001 8.135625e+000 6.793204e-003
<GCONST> 4.909304e+001
<MIXTURE> 2 7.042636e-001
<MEAN> 13
 -8.264742e+000 3.850894e+000 1.772677e+001 -1.003806e+001 -1.642935e+001 -5.282477e+000 -1.172203e+001 -5.439725e+000 -6.744818e+000 -2.400288e+000 3.561564e-001 -2.829561e+000 9.226389e-001
<VARIANCE> 13
 1.157677e+001 3.316205e+001 3.802845e+001 6.943580e+001 4.556221e+001 4.065521e+001 3.918011e+001 4.377378e+001 3.195429e+001 3.956045e+001 6.406782e+001 3.058240e+001 5.861002e-003
<GCONST> 6.227602e+001
<MIXTURE> 3 2.043458e-001
<MEAN> 13
 -4.008234e+000 7.771975e+000 1.277580e+001 6.993491e-001 -1.037585e+001 -4.534040e+000 -8.177996e+000 -3.441756e+000 -4.443737e+000 -3.234747e+000 1.722847e+000 1.162665e+000 8.634819e-001
<VARIANCE> 13
 1.109752e+001 2.333459e+001 3.286712e+001 1.749393e+001 3.603433e+001 2.341678e+001 1.879873e+001 1.749625e+001 2.390309e+001 1.245933e+001 2.861778e+001 2.901146e+001 1.673963e-002
<GCONST> 5.666531e+001
<STATE> 3
<NUMMIXES> 3
<MIXTURE> 1 2.439498e-001
<MEAN> 13
 -9.059027e+000 9.579274e+000 8.439868e+000 1.033396e+001 7.130189e+000 5.404248e+000 1.951744e+000 1.203569e+000 -1.311059e-001 -9.592592e-003 -7.806659e-001 -1.066227e+000 7.279375e-001
<VARIANCE> 13
 5.341359e+000 1.734185e+001 1.026470e+001 1.344531e+001 1.350026e+001 1.337230e+001 1.501760e+001 1.382185e+001 1.608906e+001 1.153170e+001 1.269027e+001 1.333503e+001 1.227970e-002
<GCONST> 4.983438e+001
<MIXTURE> 2 4.405354e-001
<MEAN> 13
 -7.986010e+000 9.010060e+000 6.042752e+000 3.276125e+000 -3.548102e+000 -5.429736e+000 -6.923391e+000 -9.388745e+000 -9.020540e+000 -6.193127e+000 -7.044935e+000 -5.526552e+000 7.327701e-001
<VARIANCE> 13
 8.738571e+000 7.419128e+000 9.297065e+000 1.996751e+001 2.130986e+001 1.527331e+001 2.350928e+001 2.910300e+001 3.836972e+001 5.689234e+001 4.560826e+001 2.435765e+001 1.947707e-002
<GCONST> 5.636438e+001
<MIXTURE> 3 3.155143e-001
<MEAN> 13
 -8.781941e+000 8.811584e+000 7.110301e+000 6.090262e+000 7.775660e-001 1.044567e-002 -1.900876e+000 -2.081053e+000 -2.177678e+000 -1.545566e+000 -2.352160e+000 -1.737055e+000 6.414318e-001
<VARIANCE> 13
 2.839063e+000 9.946022e+000 5.862282e+000 7.043486e+000 1.036186e+001 1.281215e+001 9.936689e+000 1.345387e+001 1.055265e+001 1.402222e+001 1.554429e+001 1.508794e+001 1.983373e-002
<GCONST> 4.727195e+001
<STATE> 4
<NUMMIXES> 3
<MIXTURE> 1 5.709420e-001
<MEAN> 13
 -1.108500e+001 3.753944e+000 1.085698e+000 4.385120e+000 4.605289e+000 4.942707e+000 4.853617e+000 5.152541e+000 4.886624e+000 4.154532e+000 4.037249e+000 4.007940e+000 7.266195e-001
<VARIANCE> 13
 5.354428e+000 1.037477e+001 1.685424e+001 1.838035e+001 1.585306e+001 1.528257e+001 1.450300e+001 1.541164e+001 1.116409e+001 1.030786e+001 9.589149e+000 9.283009e+000 7.477614e-003
<GCONST> 4.888373e+001
<MIXTURE> 2 1.634107e-001
<MEAN> 13
 -1.008734e+001 2.565144e+000 2.490075e+000 4.208403e+000 4.646073e-001 -3.433404e-001 -3.164211e+000 -3.636967e+000 -4.045584e+000 -4.444176e+000 -3.886139e+000 -2.573246e+000 4.839472e-001
<VARIANCE> 13
 6.332922e+000 6.142909e+000 1.027233e+001 1.435442e+001 1.455694e+001 1.502712e+001 1.473759e+001 1.515305e+001 1.269049e+001 1.147284e+001 1.527486e+001 1.434300e+001 8.670904e-003
<GCONST> 4.896603e+001
<MIXTURE> 3 2.656475e-001
<MEAN> 13
 -9.976692e+000 2.472085e+000 2.059280e+000 4.446131e+000 1.458145e+000 6.838880e-001 -3.643501e-001 7.798086e-002 -1.596672e-001 -8.478380e-002 -5.220866e-001 1.056717e-001 4.709080e-001
<VARIANCE> 13
 1.902348e+000 4.323796e+000 6.626899e+000 8.214477e+000 1.049119e+001 1.075164e+001 8.774770e+000 1.096249e+001 9.654597e+000 1.173381e+001 1.304299e+001 1.344385e+001 1.272027e-002
<GCONST> 4.482074e+001
<TRANSP> 5
 0.000000e+000 1.000000e+000 0.000000e+000 0.000000e+000 0.000000e+000
 0.000000e+000 9.714947e-001 2.850527e-002 0.000000e+000 0.000000e+000
 0.000000e+000 0.000000e+000 9.201216e-001 7.987836e-002 0.000000e+000
 0.000000e+000 0.000000e+000 0.000000e+000 9.287059e-001 7.129411e-002
 0.000000e+000 0.000000e+000 0.000000e+000 0.000000e+000 0.000000e+000
<ENDHMM>
~h "liou"
<BEGINHMM>
<NUMSTATES> 5
<STATE> 2
<NUMMIXES> 3
<MIXTURE> 1 3.241217e-002
<MEAN> 13
 2.603216e+000 1.166181e+001 -5.497538e+000 -1.638466e+001 -1.051125e+001 8.615393e+000 7.033481e+000 6.362582e-001 -3.829667e-001 -2.368754e+000 -1.129140e+000 4.225613e+000 7.301285e-001
<VARIANCE> 13
 3.287535e+000 2.350567e+000 6.050319e+000 1.386367e+001 2.054830e+001 1.094933e+001 1.574842e+001 2.625791e+001 2.539494e+001 1.093726e+001 2.137918e+001 6.343071e+000 3.981257e-003
<GCONST> 4.681769e+001
<MIXTURE> 2 7.777022e-001
<MEAN> 13
 -3.941468e+000 -3.735935e+000 5.633685e+000 -1.016058e+001 -1.393276e+001 -9.413321e+000 -8.440069e+000 2.090773e+000 -2.111839e+000 -1.225578e+000 -1.774527e+000 -6.377061e+000 9.251435e-001
<VARIANCE> 13
 1.757777e+001 3.413274e+001 7.051671e+001 5.277921e+001 6.783116e+001 4.461924e+001 4.159943e+001 4.605740e+001 6.984908e+001 4.276468e+001 7.760218e+001 3.831752e+001 4.336142e-003
<GCONST> 6.464320e+001
<MIXTURE> 3 1.898842e-001
<MEAN> 13
 1.082325e+000 -7.098285e-001 -6.127001e+000 -1.884986e+001 -7.605128e+000 9.714290e+000 -2.558945e+000 -4.288496e+000 6.339251e-001 3.259006e+000 2.138536e+000 -5.039059e+000 8.544159e-001
<VARIANCE> 13
 1.306022e+001 3.500581e+001 1.641072e+001 3.577993e+001 2.531975e+001 2.769722e+001 1.958126e+001 1.628665e+001 2.682222e+001 3.347741e+001 1.904508e+001 3.566516e+001 5.748915e-003
<GCONST> 5.687299e+001
<STATE> 3
<NUMMIXES> 3
<MIXTURE> 1 1.933893e-001
<MEAN> 13
 -7.940168e+000 1.020739e+001 6.803386e+000 7.074120e+000 4.628918e+000 5.654896e+000 4.159338e+000 3.279601e+000 4.660215e-001 3.691216e-001 -8.503628e-004 1.267362e-001 6.492552e-001
<VARIANCE> 13
 9.125879e+000 2.992877e+001 2.708825e+001 2.767570e+001 2.061379e+001 1.721509e+001 2.353920e+001 2.747739e+001 2.775199e+001 1.874372e+001 1.620461e+001 1.346486e+001 2.711898e-002
<GCONST> 5.649779e+001
<MIXTURE> 2 4.959043e-001
<MEAN> 13
 -4.002507e+000 1.701590e+000 -9.042435e+000 -1.652715e+001 -3.385803e+000 4.329938e+000 -3.514507e+000 -3.959651e+000 -1.776369e+000 -1.538309e+000 -3.071725e+000 -5.239548e+000 7.196252e-001
<VARIANCE> 13
 9.408855e+000 2.115842e+001 1.069321e+001 5.525490e+001 3.407758e+001 1.979329e+001 2.867653e+001 1.973874e+001 3.790735e+001 4.533037e+001 6.348820e+001 3.620305e+001 1.229379e-002
<GCONST> 5.921076e+001
<MIXTURE> 3 3.107065e-001
<MEAN> 13
 -4.705080e+000 7.624654e+000 -3.345083e+000 -8.659107e+000 -5.012901e+000 6.060207e+000 5.692445e+000 3.364662e+000 -2.378621e+000 -4.590898e+000 -1.846048e+000 9.630343e-001 5.191177e-001
<VARIANCE> 13
 9.477418e+000 1.273554e+001 1.097433e+001 4.008117e+001 2.793799e+001 1.829628e+001 1.357152e+001 1.518490e+001 1.771050e+001 1.611166e+001 1.420308e+001 1.455914e+001 1.748950e-002
<GCONST> 5.327636e+001
<STATE> 4
<NUMMIXES> 3
<MIXTURE> 1 3.919545e-001
<MEAN> 13
 -1.008997e+001 3.890585e+000 3.592305e+000 5.413421e+000 3.955288e+000 5.157244e+000 3.908473e+000 2.431063e+000 4.585140e-001 -7.193106e-001 -1.163929e+000 -3.397872e-001 4.629127e-001
<VARIANCE> 13
 1.525301e+000 8.017592e+000 1.375728e+001 1.290952e+001 9.722457e+000 1.311197e+001 1.577803e+001 1.779149e+001 1.973925e+001 1.899010e+001 1.415961e+001 1.274043e+001 1.934513e-002
<GCONST> 4.923745e+001
<MIXTURE> 2 3.532092e-001
<MEAN> 13
 -1.073403e+001 1.516674e+000 -1.526796e+000 -1.149707e+000 -2.024811e+000 -6.234861e-001 -2.295835e+000 -1.859613e+000 -2.239587e+000 -2.015239e+000 -9.241455e-001 -1.237890e+000 3.001221e-001
<VARIANCE> 13
 6.700933e+000 7.571867e+000 1.543396e+001 2.092197e+001 1.736472e+001 1.528975e+001 1.576023e+001 1.693695e+001 2.208353e+001 2.428456e+001 2.054355e+001 1.800492e+001 3.465346e-002
<GCONST> 5.360058e+001
<MIXTURE> 3 2.548370e-001
<MEAN> 13
 -1.579402e+000 2.156495e-001 -1.381216e-001 1.739980e-001 6.944627e-002 1.593357e-001 9.570129e-002 8.806126e-002 1.203079e-002 6.871591e-002 9.547946e-003 -4.335012e-002 -9.712747e-002
<VARIANCE> 13
 1.254151e+001 3.432765e-001 2.595603e-001 3.853148e-001 2.637996e-001 3.635941e-001 3.138890e-001 4.524122e-001 4.471894e-001 5.666099e-001 5.865400e-001 6.626210e-001 1.642242e-002
<GCONST> 1.232657e+001
<TRANSP> 5
 0.000000e+000 1.000000e+000 0.000000e+000 0.000000e+000 0.000000e+000
 0.000000e+000 9.653879e-001 3.461207e-002 0.000000e+000 0.000000e+000
 0.000000e+000 0.000000e+000 9.322386e-001 6.776135e-002 0.000000e+000
 0.000000e+000 0.000000e+000 0.000000e+000 9.336631e-001 6.633684e-002
 0.000000e+000 0.000000e+000 0.000000e+000 0.000000e+000 0.000000e+000
<ENDHMM>
~h "ba"
<BEGINHMM>
<NUMSTATES> 5
<STATE> 2
<NUMMIXES> 3
<MIXTURE> 1 2.884224e-002
<MEAN> 13
 -4.288095e+000 4.693954e+000 -1.344387e+000 8.416430e-001 1.192832e+001 1.017054e+001 -3.128682e+000 -1.412885e+000 1.714646e+000 1.380912e+000 -3.189244e+000 -1.123288e+000 7.737830e-001
<VARIANCE> 13
 1.451065e+001 1.573015e+001 5.789861e+000 7.332092e+000 6.505811e+001 1.232962e+001 1.681807e+001 2.445832e+001 1.732435e+001 1.673952e+001 2.164268e+001 1.914594e+001 8.704123e-003
<GCONST> 5.273063e+001
<MIXTURE> 2 6.104402e-001
<MEAN> 13
 -3.081403e+000 -1.136359e+001 -7.672117e+000 -1.195516e+001 1.983342e+000 4.965665e+000 -7.109022e+000 -4.168720e+000 -2.691744e+000 -5.593959e+000 -8.029077e+000 -8.141612e+000 9.337340e-001
<VARIANCE> 13
 1.364475e+001 3.173230e+001 1.450106e+001 1.801908e+001 2.184620e+001 5.898790e+001 5.451094e+001 5.227708e+001 7.719142e+001 7.190040e+001 7.340379e+001 3.652895e+001 3.527281e-003
<GCONST> 6.151348e+001
<MIXTURE> 3 3.607145e-001
<MEAN> 13
 -6.578133e-001 -4.735247e+000 -9.985992e+000 -1.093719e+001 5.731278e+000 9.968593e+000 -2.975640e+000 -3.102249e+000 -2.226883e+000 2.754751e+000 -4.838204e+000 -6.806886e+000 8.354674e-001
<VARIANCE> 13
 1.712492e+001 2.936715e+001 1.786565e+001 2.183001e+001 3.051393e+001 1.834666e+001 1.562338e+001 7.393686e+000 1.547509e+001 1.606714e+001 9.240518e+000 1.718387e+001 1.675762e-002
<GCONST> 5.365068e+001
<STATE> 3
<NUMMIXES> 3
<MIXTURE> 1 2.891114e-001
<MEAN> 13
 -9.592176e+000 7.905316e+000 6.932515e+000 9.857548e+000 8.475449e+000 6.618168e+000 2.389842e+000 1.419724e+000 1.359366e+000 9.977856e-001 -6.179045e-001 -7.440893e-001 6.492545e-001
<VARIANCE> 13
 3.294598e+000 1.552448e+001 1.040889e+001 1.246717e+001 2.466740e+001 2.690094e+001 2.311081e+001 2.525629e+001 2.035369e+001 2.145855e+001 1.804650e+001 1.360465e+001 7.116365e-003
<GCONST> 5.219727e+001
<MIXTURE> 2 4.651555e-001
<MEAN> 13
 -6.665268e+000 -4.315423e+000 -5.561331e+000 2.004949e+000 2.126027e+000 -4.440176e+000 -1.284883e+001 -3.872810e+000 -1.417963e+000 -7.754943e+000 -8.266482e+000 -5.792113e+000 8.713490e-001
<VARIANCE> 13
 3.302148e+000 3.821540e+001 1.284752e+001 6.758564e+000 1.352646e+001 1.550891e+001 2.782117e+001 1.391817e+001 2.979673e+001 3.378201e+001 1.717063e+001 1.904560e+001 1.060929e-002
<GCONST> 5.265757e+001
<MIXTURE> 3 2.457332e-001
<MEAN> 13
 -8.909945e+000 9.535964e-001 -3.850406e+000 2.371641e+000 5.873075e+000 5.069413e+000 -1.146320e-001 -2.391049e-001 2.694628e-001 -5.600989e-001 -3.053447e+000 -3.063623e+000 4.988921e-001
<VARIANCE> 13
 1.629466e+001 2.066089e+001 2.451633e+001 1.552660e+001 2.786113e+001 2.106746e+001 1.709687e+001 1.733227e+001 2.228893e+001 2.116856e+001 1.775524e+001 1.790981e+001 3.790560e-002
<GCONST> 5.636578e+001
<STATE> 4
<NUMMIXES> 3
<MIXTURE> 1 6.128391e-001
<MEAN> 13
 -1.156159e+001 3.121786e+000 1.147979e+000 4.773702e+000 4.482346e+000 5.762685e+000 5.067534e+000 5.520833e+000 5.243869e+000 5.496631e+000 4.952098e+000 3.932905e+000 6.726502e-001
<VARIANCE> 13
 5.331835e+000 1.176177e+001 1.728023e+001 1.618551e+001 1.644180e+001 1.577531e+001 1.354535e+001 1.436493e+001 1.378658e+001 1.346449e+001 1.153185e+001 1.094033e+001 1.649107e-002
<GCONST> 5.045012e+001
<MIXTURE> 2 1.033056e-001
<MEAN> 13
 -1.089154e+001 2.035618e+000 1.279889e+000 4.149990e+000 2.964924e+000 2.141075e-001 -4.793796e+000 -2.593707e+000 -2.801690e+000 -6.854048e+000 -8.429019e+000 -6.224535e+000 6.281881e-001
<VARIANCE> 13
 2.341376e+000 3.638740e+000 9.284184e+000 1.065797e+001 1.752554e+001 2.102302e+001 2.453476e+001 1.762862e+001 1.480739e+001 1.804549e+001 1.759896e+001 1.541203e+001 2.847658e-002
<GCONST> 5.024063e+001
<MIXTURE> 3 2.838529e-001
<MEAN> 13
 -1.151913e+001 1.532705e+000 7.446346e-001 4.032037e+000 4.187709e+000 4.272340e+000 1.969086e+000 1.291326e+000 3.943676e-001 9.413623e-001 3.719482e-001 1.218613e-001 4.507171e-001
<VARIANCE> 13
 2.192981e+000 5.022827e+000 1.046359e+001 1.228090e+001 1.241355e+001 1.252639e+001 1.176026e+001 1.166701e+001 1.239681e+001 1.104152e+001 1.315261e+001 1.350297e+001 1.316319e-002
<GCONST> 4.688402e+001
<TRANSP> 5
 0.000000e+000 1.000000e+000 0.000000e+000 0.000000e+000 0.000000e+000
 0.000000e+000 9.707183e-001 2.928176e-002 0.000000e+000 0.000000e+000
 0.000000e+000 0.000000e+000 9.263576e-001 7.364244e-002 0.000000e+000
 0.000000e+000 0.000000e+000 0.000000e+000 9.501073e-001 4.989278e-002
 0.000000e+000 0.000000e+000 0.000000e+000 0.000000e+000 0.000000e+000
<ENDHMM>
~h "er"
<BEGINHMM>
<NUMSTATES> 5
<STATE> 2
<NUMMIXES> 3
<MIXTURE> 1 1.638487e-002
<MEAN> 13
 -1.505978e+001 -1.623565e+000 -4.281934e+000 -2.661747e+000 -1.453072e+000 -4.611723e-001 1.537266e+000 6.158472e+000 9.771591e+000 8.684059e+000 1.384415e+000 -1.171753e+000 6.274786e-001
<VARIANCE> 13
 9.617986e+000 4.732949e+000 5.522285e+000 1.023039e+001 1.195233e+001 1.357065e+001 9.512871e+000 8.546545e+000 2.514180e+001 3.833193e+001 1.812456e+001 3.186750e+001 5.110542e-003
<GCONST> 4.918497e+001
<MIXTURE> 2 7.855785e-001
<MEAN> 13
 -2.717830e+000 -6.763013e+000 -6.063120e+000 -1.234468e+001 -4.949109e+000 -2.684969e+000 -9.425328e+000 2.611547e+000 2.382577e+000 4.012520e-002 -7.068414e+000 -1.047970e+001 9.167172e-001
<VARIANCE> 13
 1.535214e+001 2.340110e+001 2.326388e+001 5.645563e+001 4.349654e+001 6.418480e+001 3.525187e+001 2.814783e+001 5.149751e+001 7.086669e+001 6.303727e+001 3.464813e+001 8.140427e-003
<GCONST> 6.287162e+001
<MIXTURE> 3 1.980351e-001
<MEAN> 13
 -9.540403e-001 1.437768e+000 -4.423869e+000 -1.224404e+001 -4.140980e+000 3.442472e+000 -9.732839e+000 -3.088335e+000 7.323120e+000 7.381391e+000 -2.387523e+000 -8.495964e+000 7.966884e-001
<VARIANCE> 13
 2.710075e+001 1.329384e+001 1.440791e+001 3.437918e+001 1.576081e+001 7.189137e+001 2.901810e+001 2.797894e+001 2.946842e+001 3.003862e+001 1.820197e+001 1.082339e+001 2.155151e-002
<GCONST> 5.794828e+001
<STATE> 3
<NUMMIXES> 3
<MIXTURE> 1 1.780684e-001
<MEAN> 13
 -7.591656e+000 4.575122e+000 3.056836e-001 2.297318e+000 3.100488e+000 4.235015e+000 8.675438e-001 1.946891e+000 3.134849e+000 2.811889e+000 -1.186428e+000 -3.664143e+000 5.686966e-001
<VARIANCE> 13
 1.111450e+001 1.170190e+001 5.568191e+000 1.772463e+001 1.063156e+001 1.150756e+001 1.669673e+001 1.373252e+001 1.183229e+001 1.927331e+001 1.510203e+001 1.477928e+001 1.318847e-002
<GCONST> 5.010344e+001
<MIXTURE> 2 5.478754e-001
<MEAN> 13
 -5.101820e+000 -3.145663e-001 -3.440022e+000 1.505916e+000 -6.375191e+000 -1.034582e+001 -3.701141e+000 6.187379e+000 1.081726e+000 -5.236004e+000 -4.978297e+000 -3.523037e+000 6.411140e-001
<VARIANCE> 13
 2.438408e+001 2.353366e+001 1.423617e+001 2.492080e+001 2.642587e+001 4.297333e+001 3.416278e+001 4.008200e+001 4.946904e+001 4.570551e+001 3.188526e+001 2.596241e+001 1.580807e-002
<GCONST> 6.066837e+001
<MIXTURE> 3 2.740560e-001
<MEAN> 13
 -6.063121e+000 3.990855e+000 -3.507900e+000 -2.698364e+000 6.847238e-001 2.640619e+000 -3.615459e+000 -1.189213e+000 2.714283e+000 2.967637e+000 -1.979564e+000 -4.592262e+000 5.450847e-001
<VARIANCE> 13
 1.158628e+001 1.235733e+001 1.162636e+001 2.129582e+001 1.982948e+001 1.473675e+001 1.562997e+001 1.877226e+001 2.018853e+001 2.160364e+001 1.504448e+001 1.466996e+001 1.332535e-002
<GCONST> 5.288404e+001
<STATE> 4
<NUMMIXES> 3
<MIXTURE> 1 5.514115e-001
<MEAN> 13
 -9.616618e+000 7.510139e+000 6.692366e+000 8.294806e+000 5.515203e+000 4.811815e+000 2.582794e+000 2.236166e+000 7.429699e-001 6.277618e-001 4.168555e-001 7.403519e-001 6.173660e-001
<VARIANCE> 13
 4.432470e+000 2.266520e+001 1.403247e+001 1.406543e+001 1.819848e+001 2.438845e+001 2.407028e+001 2.454621e+001 2.175103e+001 2.194225e+001 1.751636e+001 1.470393e+001 2.864525e-002
<GCONST> 5.443082e+001
<MIXTURE> 2 2.595928e-001
<MEAN> 13
 -1.195818e+001 -6.408741e-001 -3.338174e+000 -1.073538e+000 -1.258179e+000 -8.955478e-001 -2.582682e+000 -1.384744e+000 -4.594356e-001 -5.025392e-001 -1.926070e+000 -1.502538e+000 2.616492e-001
<VARIANCE> 13
 5.375313e+000 8.096234e+000 1.229607e+001 2.018984e+001 1.588595e+001 2.018280e+001 1.951505e+001 1.884479e+001 2.180916e+001 2.608730e+001 2.751961e+001 2.162570e+001 2.106779e-002
<GCONST> 5.373032e+001
<MIXTURE> 3 1.889952e-001
<MEAN> 13
 -4.422165e-001 5.226672e-002 -5.191929e-002 2.030796e-002 2.554177e-003 3.390754e-002 -1.965643e-002 2.125366e-002 -4.017519e-002 4.091569e-003 -3.516089e-002 -4.319901e-002 -1.392553e-001
<VARIANCE> 13
 4.146761e+000 9.109043e-002 9.249198e-002 7.651698e-002 6.250306e-002 4.190870e-002 5.740816e-002 9.813847e-002 9.279873e-002 1.035273e-001 1.368416e-001 2.249192e-001 3.881090e-003
<GCONST> -6.833622e+000
<TRANSP> 5
 0.000000e+000 1.000000e+000 0.000000e+000 0.000000e+000 0.000000e+000
 0.000000e+000 9.693263e-001 3.067367e-002 0.000000e+000 0.000000e+000
 0.000000e+000 0.000000e+000 8.963977e-001 1.036022e-001 0.000000e+000
 0.000000e+000 0.000000e+000 0.000000e+000 9.471729e-001 5.282713e-002
 0.000000e+000 0.000000e+000 0.000000e+000 0.000000e+000 0.000000e+000
<ENDHMM>
~h "jiou"
<BEGINHMM>
<NUMSTATES> 5
<STATE> 2
<NUMMIXES> 3
<MIXTURE> 1 4.004059e-002
<MEAN> 13
 -2.507427e+001 3.483593e+000 8.063853e+000 -4.746649e+000 -3.938410e+000 7.463901e+000 5.315575e-001 -3.061941e+000 5.197774e+000 2.505289e+000 1.320933e+000 1.741861e+000 8.098920e-001
<VARIANCE> 13
 9.007637e+001 1.926198e+001 2.205946e+001 4.365993e+001 2.674639e+001 5.668333e+001 3.002077e+001 2.557301e+001 4.516084e+001 1.848512e+001 2.310549e+001 2.623085e+001 6.432959e-003
<GCONST> 6.027655e+001
<MIXTURE> 2 7.744481e-001
<MEAN> 13
 -2.663648e+000 -3.532015e+000 1.756559e+000 -1.153427e+001 -9.237851e+000 -1.412434e+000 -8.920103e+000 -1.905951e+000 -4.556659e-001 -3.633827e-001 -1.271729e+000 -5.470668e+000 9.430901e-001
<VARIANCE> 13
 1.562406e+001 3.382504e+001 1.029468e+002 9.968681e+001 6.593803e+001 1.387468e+002 2.938015e+001 3.978285e+001 5.346310e+001 3.892105e+001 4.707134e+001 3.947856e+001 1.810590e-003
<GCONST> 6.443763e+001
<MIXTURE> 3 1.855083e-001
<MEAN> 13
 4.379246e+000 4.318203e+000 -4.516742e+000 -1.641860e+001 -1.083679e+001 7.727271e+000 2.177781e+000 -1.321799e+000 1.198699e+000 -8.162585e-001 1.791703e+000 1.781472e+000 8.779851e-001
<VARIANCE> 13
 1.235598e+001 4.963537e+001 1.687779e+001 7.715223e+001 3.423175e+001 3.554445e+001 5.102185e+001 1.824605e+001 2.298941e+001 4.333994e+001 8.557073e+000 1.056986e+001 7.059277e-003
<GCONST> 5.787862e+001
<STATE> 3
<NUMMIXES> 3
<MIXTURE> 1 6.210557e-002
<MEAN> 13
 -5.242044e+000 8.976448e+000 -1.438383e+000 -4.153610e+000 -1.426294e+000 7.017372e+000 6.619144e+000 4.699800e+000 -1.591788e+000 -3.344324e+000 -1.490899e+000 6.321058e-002 6.414616e-001
<VARIANCE> 13
 5.554642e+000 1.643606e+001 1.585471e+001 1.091259e+001 1.453191e+001 2.847264e+001 1.069521e+001 2.276688e+001 2.107952e+001 1.826689e+001 1.438092e+001 1.626563e+001 1.424590e-002
<GCONST> 5.223735e+001
<MIXTURE> 2 6.961331e-001
<MEAN> 13
 -1.617202e+000 2.531701e+000 -9.625227e+000 -2.064945e+001 -5.132804e+000 8.040819e+000 -1.579381e+000 -4.793488e+000 -3.283745e+000 -1.454005e+000 -1.959031e+000 -3.474597e+000 8.687748e-001
<VARIANCE> 13
 1.200931e+001 1.606212e+001 9.349627e+000 5.820444e+001 3.665944e+001 1.997074e+001 1.919040e+001 1.901741e+001 2.730405e+001 3.925332e+001 2.637151e+001 2.480990e+001 6.263953e-003
<GCONST> 5.633720e+001
<MIXTURE> 3 2.417582e-001
<MEAN> 13
 -7.684701e-001 9.420858e+000 -5.708341e+000 -1.514277e+001 -1.059207e+001 4.149922e+000 4.179964e+000 1.307069e+000 -2.285341e+000 -4.312369e+000 -1.018606e+000 1.740345e+000 7.258521e-001
<VARIANCE> 13
 1.837232e+001 1.627104e+001 1.264878e+001 2.442961e+001 2.126507e+001 2.009369e+001 2.480917e+001 2.148680e+001 2.657778e+001 2.099057e+001 1.349600e+001 1.128089e+001 1.207265e-002
<GCONST> 5.459496e+001
<STATE> 4
<NUMMIXES> 3
<MIXTURE> 1 4.442942e-001
<MEAN> 13
 -9.112651e+000 7.204264e+000 5.540242e+000 6.282047e+000 4.397058e+000 5.300125e+000 3.428051e+000 2.617602e+000 3.955757e-001 -6.992136e-001 -9.726902e-001 -7.647108e-001 5.835087e-001
<VARIANCE> 13
 3.489332e+000 1.971945e+001 1.489015e+001 1.334165e+001 1.178033e+001 1.443427e+001 1.678073e+001 1.750661e+001 1.870407e+001 1.606593e+001 1.650191e+001 1.475581e+001 1.992682e-002
<GCONST> 5.151902e+001
<MIXTURE> 2 3.651375e-001
<MEAN> 13
 -8.530512e+000 4.064477e+000 -9.773292e-001 -2.048149e+000 -3.032487e+000 1.118676e+000 1.037504e+000 -1.462931e-001 -3.429675e+000 -3.745229e+000 -3.230791e+000 -2.619171e+000 4.842766e-001
<VARIANCE> 13
 6.809842e+000 1.304449e+001 1.123522e+001 1.547676e+001 1.436999e+001 2.041967e+001 2.690319e+001 2.585416e+001 2.792888e+001 2.390690e+001 2.242830e+001 1.748101e+001 2.389192e-002
<GCONST> 5.450494e+001
<MIXTURE> 3 1.905662e-001
<MEAN> 13
 -8.581882e-001 6.988332e-002 -1.209320e-001 2.791016e-002 -4.960091e-002 -8.174201e-003 -3.668210e-002 6.870500e-003 -5.027178e-002 -6.522265e-003 -1.922754e-002 -1.181881e-001 -1.149947e-001
<VARIANCE> 13
 7.533657e+000 1.863023e-001 2.817976e-001 1.638193e-001 1.423261e-001 1.430843e-001 2.125025e-001 1.062503e-001 1.709842e-001 2.122342e-001 2.732921e-001 6.288257e-001 1.485082e-002
<GCONST> 4.184061e+000
<TRANSP> 5
 0.000000e+000 1.000000e+000 0.000000e+000 0.000000e+000 0.000000e+000
 0.000000e+000 9.573720e-001 4.262803e-002 0.000000e+000 0.000000e+000
 0.000000e+000 0.000000e+000 9.495584e-001 5.044163e-002 0.000000e+000
 0.000000e+000 0.000000e+000 0.000000e+000 9.217807e-001 7.821930e-002
 0.000000e+000 0.000000e+000 0.000000e+000 0.000000e+000 0.000000e+000
<ENDHMM>
~h "qi"
<BEGINHMM>
<NUMSTATES> 5
<STATE> 2
<NUMMIXES> 3
<MIXTURE> 1 1.903724e-001
<MEAN> 13
 -2.471335e+001 7.665610e+000 4.449815e+000 -7.908856e+000 1.038508e+000 1.515542e-001 1.511448e+000 -4.320802e-001 2.699478e+000 1.088105e+000 1.540531e+000 -3.291128e-001 8.149735e-001
<VARIANCE> 13
 2.214525e+001 3.282607e+001 2.645160e+001 2.988666e+001 3.527237e+001 1.852102e+001 2.909239e+001 3.761002e+001 2.210323e+001 2.074784e+001 2.483204e+001 2.655528e+001 9.580506e-003
<GCONST> 5.860524e+001
<MIXTURE> 2 6.592739e-001
<MEAN> 13
 -9.000723e+000 4.210689e+000 1.911756e+001 -9.546638e+000 -1.431962e+001 -5.563694e+000 -1.352481e+001 -5.243410e+000 -1.002413e+001 -7.062228e+000 -4.553731e-001 -4.141459e+000 9.533412e-001
<VARIANCE> 13
 1.581973e+001 2.434296e+001 2.829706e+001 7.270690e+001 3.468559e+001 1.901765e+001 2.804114e+001 5.024096e+001 3.497443e+001 3.338927e+001 8.450413e+001 4.159546e+001 1.659004e-003
<GCONST> 6.004340e+001
<MIXTURE> 3 1.503479e-001
<MEAN> 13
 -6.087201e+000 1.125793e+001 1.700684e+001 -7.865928e-001 -8.287473e+000 -4.004968e+000 -1.049866e+001 -2.803412e+000 -4.922718e+000 -7.560163e+000 2.112012e+000 2.564297e+000 9.098581e-001
<VARIANCE> 13
 2.706587e+001 2.180817e+001 4.297636e+001 1.662496e+001 2.442409e+001 1.167676e+001 2.429583e+001 1.562918e+001 1.412115e+001 1.608766e+001 1.916345e+001 2.638330e+001 5.444634e-003
<GCONST> 5.487547e+001
<STATE> 3
<NUMMIXES> 3
<MIXTURE> 1 5.838747e-002
<MEAN> 13
 -9.309951e+000 1.211942e+001 1.061760e+001 9.338515e+000 6.327927e+000 4.677043e+000 9.213405e-001 -1.436317e+000 -1.965628e+000 -3.511286e-001 -7.806072e-001 5.344156e-001 6.779463e-001
<VARIANCE> 13
 2.862394e+000 6.865916e+000 6.238132e+000 1.032093e+001 9.359800e+000 2.190606e+001 1.277905e+001 6.609088e+000 9.849183e+000 1.542618e+001 1.133837e+001 6.532990e+000 5.886397e-003
<GCONST> 4.498832e+001
<MIXTURE> 2 7.513685e-001
<MEAN> 13
 -1.064108e+001 8.984062e+000 1.197458e+001 -3.453525e+000 -1.056153e+001 -6.244716e+000 -7.250079e+000 -1.125556e+001 -5.897286e+000 -5.093534e+000 -4.916897e+000 -5.126050e+000 8.372933e-001
<VARIANCE> 13
 7.390362e+000 7.617426e+000 2.521237e+001 2.042895e+001 2.819421e+001 2.728521e+001 2.207512e+001 3.322766e+001 3.097758e+001 3.669436e+001 3.595167e+001 2.184711e+001 1.071085e-002
<GCONST> 5.657623e+001
<MIXTURE> 3 1.902435e-001
<MEAN> 13
 -6.939090e+000 1.220574e+001 1.192546e+001 4.414799e+000 -4.352789e+000 -2.816106e+000 -6.475775e+000 -5.281175e+000 -5.489444e+000 -1.528230e+000 2.777216e-001 5.323454e-001 7.496672e-001
<VARIANCE> 13
 6.220868e+000 8.510076e+000 9.846373e+000 1.746137e+001 2.464141e+001 1.210254e+001 1.283769e+001 1.463969e+001 1.711442e+001 1.374808e+001 1.057055e+001 1.039022e+001 1.033003e-002
<GCONST> 4.952968e+001
<STATE> 4
<NUMMIXES> 3
<MIXTURE> 1 5.727105e-001
<MEAN> 13
 -1.097189e+001 4.403966e+000 1.837020e+000 4.956647e+000 4.155170e+000 4.993421e+000 4.577619e+000 5.192323e+000 4.658881e+000 4.033637e+000 3.930516e+000 3.226140e+000 7.855265e-001
<VARIANCE> 13
 4.277798e+000 1.162411e+001 1.765105e+001 1.419093e+001 1.424629e+001 1.102920e+001 1.339990e+001 1.296155e+001 1.138286e+001 1.085440e+001 1.150124e+001 1.081241e+001 1.189037e-002
<GCONST> 4.874440e+001
<MIXTURE> 2 1.500954e-001
<MEAN> 13
 -1.209919e+001 4.618264e+000 5.921499e+000 4.121446e+000 -3.474977e-001 7.379903e-001 -2.755692e+000 -5.352839e+000 -4.484208e+000 -3.716508e+000 -4.181427e+000 -3.153367e+000 5.153625e-001
<VARIANCE> 13
 3.997013e+000 7.422596e+000 1.074606e+001 1.274630e+001 1.186464e+001 1.628556e+001 2.269692e+001 1.390464e+001 1.515791e+001 1.448576e+001 1.434410e+001 1.647618e+001 2.737657e-002
<GCONST> 5.047943e+001
<MIXTURE> 3 2.771919e-001
<MEAN> 13
 -1.023047e+001 5.377234e+000 5.951631e+000 7.213857e+000 4.065560e+000 3.059577e+000 9.036027e-001 3.329647e-001 -8.551922e-001 -8.997033e-001 -1.311610e+000 -8.753836e-001 5.628598e-001
<VARIANCE> 13
 1.898062e+000 7.858440e+000 8.889687e+000 6.727107e+000 9.998893e+000 9.665736e+000 1.148001e+001 1.145506e+001 1.120398e+001 1.462485e+001 1.167913e+001 1.165719e+001 1.566330e-002
<GCONST> 4.599224e+001
<TRANSP> 5
 0.000000e+000 1.000000e+000 0.000000e+000 0.000000e+000 0.000000e+000
 0.000000e+000 9.733635e-001 2.663644e-002 0.000000e+000 0.000000e+000
 0.000000e+000 0.000000e+000 9.061323e-001 9.386775e-002 0.000000e+000
 0.000000e+000 0.000000e+000 0.000000e+000 9.395387e-001 6.046136e-002
 0.000000e+000 0.000000e+000 0.000000e+000 0.000000e+000 0.000000e+000
<ENDHMM>
~h "si"
<BEGINHMM>
<NUMSTATES> 5
<STATE> 2
<NUMMIXES> 3
<MIXTURE> 1 1.085165e-001
<MEAN> 13
 -2.651740e+001 7.642954e+000 -3.533176e+000 -1.835110e+000 9.017157e+000 -2.937593e+000 6.958646e+000 5.585993e+000 1.367298e+000 4.469713e+000 2.996838e+000 3.170420e+000 7.316533e-001
<VARIANCE> 13
 1.494313e+001 1.400159e+001 1.762026e+001 1.770063e+001 1.495892e+001 2.976437e+001 2.633207e+001 3.358703e+001 1.739357e+001 2.267953e+001 2.639636e+001 1.552140e+001 1.472526e-002
<GCONST> 5.563684e+001
<MIXTURE> 2 7.317379e-001
<MEAN> 13
 -5.271667e+000 2.791498e+000 9.671801e+000 -3.958894e+000 -9.814523e+000 -1.386907e+001 -1.504952e+001 -7.030221e-001 -5.383343e+000 -5.429113e+000 -4.093300e+000 1.238478e+000 9.308799e-001
<VARIANCE> 13
 1.816715e+001 2.989039e+001 2.693593e+001 3.152861e+001 3.720081e+001 2.838476e+001 3.632332e+001 3.353790e+001 4.405831e+001 3.103923e+001 2.126398e+001 2.384705e+001 4.012236e-003
<GCONST> 5.893226e+001
<MIXTURE> 3 1.597428e-001
<MEAN> 13
 -1.796515e+001 1.101464e+001 -2.084328e+000 1.378362e+000 -6.014890e-001 -4.282084e+000 -8.754961e-001 -2.119370e+000 -1.329677e+000 -1.655716e+000 -2.039041e+000 -1.643751e+000 6.878129e-001
<VARIANCE> 13
 5.535992e+001 1.724252e+001 2.532095e+001 1.853169e+001 2.818727e+001 2.462413e+001 3.331194e+001 2.418591e+001 2.637996e+001 2.060162e+001 1.737631e+001 1.687416e+001 1.939379e-002
<GCONST> 5.817510e+001
<STATE> 3
<NUMMIXES> 3
<MIXTURE> 1 2.622363e-001
<MEAN> 13
 -9.817374e+000 8.119840e+000 7.478359e+000 9.595574e+000 6.796096e+000 4.803350e+000 3.636303e+000 3.323230e+000 2.126472e+000 1.240692e+000 5.398521e-001 7.930843e-001 6.685362e-001
<VARIANCE> 13
 6.168086e+000 2.233909e+001 1.690094e+001 1.370697e+001 1.126614e+001 1.315380e+001 1.412481e+001 1.909569e+001 1.898386e+001 1.677878e+001 1.619979e+001 1.484994e+001 2.378158e-002
<GCONST> 5.236716e+001
<MIXTURE> 2 5.339019e-001
<MEAN> 13
 -8.572912e+000 6.655190e+000 6.668444e+000 -7.384989e-001 -7.806350e+000 -1.207360e+001 -1.013485e+001 -2.958631e+000 -4.616638e+000 -3.916769e+000 -2.253577e+000 1.530101e+000 7.076398e-001
<VARIANCE> 13
 1.097361e+001 1.067882e+001 2.402406e+001 2.531924e+001 3.504546e+001 1.650079e+001 1.496085e+001 2.977949e+001 2.425310e+001 3.089043e+001 2.264691e+001 2.514316e+001 8.803927e-003
<GCONST> 5.575713e+001
<MIXTURE> 3 2.038618e-001
<MEAN> 13
 -7.125653e+000 8.739537e+000 6.938907e+000 3.330319e+000 -3.527305e+000 -6.273903e+000 -4.026814e+000 9.732246e-001 -1.200598e+000 -1.130099e-001 -5.977864e-001 2.191983e+000 6.314972e-001
<VARIANCE> 13
 1.167902e+001 2.459451e+001 1.312029e+001 1.344734e+001 2.392485e+001 1.299636e+001 2.631831e+001 1.792799e+001 1.252597e+001 1.360145e+001 1.232470e+001 9.167516e+000 1.423209e-002
<GCONST> 5.223487e+001
<STATE> 4
<NUMMIXES> 3
<MIXTURE> 1 2.992218e-001
<MEAN> 13
 -1.225015e+001 1.940765e+000 2.633157e+000 6.741354e+000 6.810868e+000 7.656220e+000 7.600000e+000 7.946054e+000 6.858715e+000 5.656765e+000 4.130243e+000 2.717346e+000 6.299388e-001
<VARIANCE> 13
 2.655054e+000 9.224274e+000 1.492215e+001 1.105824e+001 1.368143e+001 1.543423e+001 1.438198e+001 1.669330e+001 1.493924e+001 1.544493e+001 1.965546e+001 1.457765e+001 1.791206e-002
<GCONST> 5.010717e+001
<MIXTURE> 2 1.964467e-001
<MEAN> 13
 -1.076287e+001 3.748273e+000 2.718897e+000 3.820979e+000 8.534917e-002 -2.729761e+000 -1.123271e+000 4.217263e-001 -2.445872e+000 -4.147606e+000 -3.084774e+000 -8.449314e-001 4.430108e-001
<VARIANCE> 13
 4.641768e+000 6.975291e+000 8.252114e+000 1.343535e+001 1.314470e+001 1.735888e+001 2.915522e+001 4.361443e+001 2.722588e+001 1.899122e+001 1.768984e+001 2.279983e+001 1.198736e-002
<GCONST> 5.248036e+001
<MIXTURE> 3 5.043313e-001
<MEAN> 13
 -1.153211e+001 2.292906e+000 1.624599e+000 4.105038e+000 1.899171e+000 2.148490e+000 1.802098e+000 1.759714e+000 5.423303e-001 1.033234e+000 2.803912e-001 1.022206e+000 4.911027e-001
<VARIANCE> 13
 3.685570e+000 4.106262e+000 7.465556e+000 1.007291e+001 1.101666e+001 1.132651e+001 1.212171e+001 1.214213e+001 1.220273e+001 1.419260e+001 1.305464e+001 1.029161e+001 3.047928e-002
<GCONST> 4.731187e+001
<TRANSP> 5
 0.000000e+000 1.000000e+000 0.000000e+000 0.000000e+000 0.000000e+000
 0.000000e+000 9.710341e-001 2.896588e-002 0.000000e+000 0.000000e+000
 0.000000e+000 0.000000e+000 9.312733e-001 6.872673e-002 0.000000e+000
 0.000000e+000 0.000000e+000 0.000000e+000 9.080411e-001 9.195887e-002
 0.000000e+000 0.000000e+000 0.000000e+000 0.000000e+000 0.000000e+000
<ENDHMM>
~h "wu"
<BEGINHMM>
<NUMSTATES> 5
<STATE> 2
<NUMMIXES> 3
<MIXTURE> 1 1.770163e-002
<MEAN> 13
 6.801958e-001 8.618144e+000 -2.523864e+000 5.275345e-001 2.907661e-001 1.163699e+000 -3.043832e+000 -1.163881e+000 -1.113765e-001 1.090859e+000 -1.384138e+000 -1.764155e+000 8.531255e-001
<VARIANCE> 13
 1.734810e+001 1.845091e+001 1.869837e+001 7.748287e+000 8.877128e+000 1.142884e+001 1.552446e+001 1.430957e+001 5.422930e+000 8.970358e+000 1.378866e+001 1.505871e+001 1.545583e-002
<GCONST> 4.971046e+001
<MIXTURE> 2 7.176806e-001
<MEAN> 13
 1.210288e+000 1.222354e+001 5.381399e-001 -1.555600e+001 -1.527074e+001 -3.180062e+000 -5.189762e+000 -2.144618e+000 -3.118429e+000 -6.351976e+000 -5.387963e+000 -1.361978e+000 9.378176e-001
<VARIANCE> 13
 1.222172e+001 1.751509e+001 2.197655e+001 5.742225e+001 2.566621e+001 4.403648e+001 3.470972e+001 2.058443e+001 3.660063e+001 1.673940e+001 2.205122e+001 2.003741e+001 2.635229e-003
<GCONST> 5.657085e+001
<MIXTURE> 3 2.646171e-001
<MEAN> 13
 1.923670e+000 1.012901e+001 -1.694160e+000 -7.786944e+000 -8.643449e+000 -2.484258e+000 -1.931519e+000 -7.063085e-001 -4.593905e+000 -3.146309e+000 -6.502387e-001 4.113466e-001 9.002708e-001
<VARIANCE> 13
 1.688192e+001 1.918709e+001 7.361940e+000 3.045740e+001 1.954527e+001 1.714102e+001 1.566279e+001 1.946067e+001 2.637514e+001 1.577505e+001 1.598677e+001 1.177467e+001 7.553121e-003
<GCONST> 5.300220e+001
<STATE> 3
<NUMMIXES> 3
<MIXTURE> 1 1.083936e-001
<MEAN> 13
 -5.336448e+000 1.295399e+001 7.871327e+000 7.912416e+000 5.540610e+000 5.582100e+000 3.279559e+000 3.132187e+000 4.130612e+000 2.520153e+000 4.247623e-001 -1.957633e-001 8.556631e-001
<VARIANCE> 13
 8.518450e+000 1.102500e+001 2.133109e+001 1.369429e+001 1.239078e+001 9.802271e+000 1.314543e+001 1.115227e+001 2.481284e+001 1.878246e+001 1.639198e+001 1.524018e+001 1.272392e-002
<GCONST> 5.119997e+001
<MIXTURE> 2 5.085346e-001
<MEAN> 13
 -4.794655e+000 1.082946e+001 1.499159e+000 -4.646601e+000 -8.904127e+000 -5.689151e+000 -3.305645e+000 -1.564116e+000 -3.422681e+000 -5.623133e+000 -6.653433e+000 -4.707999e+000 7.357232e-001
<VARIANCE> 13
 8.870555e+000 1.622732e+001 7.452044e+000 1.653048e+001 2.626544e+001 2.611186e+001 2.719975e+001 2.745575e+001 2.868156e+001 3.270890e+001 2.329792e+001 1.708681e+001 1.452349e-002
<GCONST> 5.542054e+001
<MIXTURE> 3 3.830707e-001
<MEAN> 13
 -4.495604e+000 9.947199e+000 3.100614e+000 -9.075964e-001 -3.745383e+000 -2.449261e+000 -1.238761e+000 5.925325e-001 -1.710998e-001 -2.529734e-001 -9.398153e-001 -1.142564e+000 7.435725e-001
<VARIANCE> 13
 1.053115e+001 3.109209e+001 1.731174e+001 1.827265e+001 2.501480e+001 2.068341e+001 2.150008e+001 1.710390e+001 1.579029e+001 1.651604e+001 1.735258e+001 1.462117e+001 1.618319e-002
<GCONST> 5.457280e+001
<STATE> 4
<NUMMIXES> 3
<MIXTURE> 1 5.757692e-001
<MEAN> 13
 -1.001493e+001 5.852684e+000 5.782647e+000 7.334774e+000 4.351556e+000 3.618510e+000 1.341393e+000 1.011834e+000 -2.126329e-001 -5.037332e-001 -1.004471e+000 -8.200973e-001 4.814471e-001
<VARIANCE> 13
 1.651910e+000 1.216774e+001 9.801244e+000 8.194283e+000 1.016943e+001 1.258194e+001 1.732351e+001 1.726425e+001 1.736858e+001 1.536284e+001 1.309998e+001 1.295860e+001 1.386158e-002
<GCONST> 4.827377e+001
<MIXTURE> 2 1.967787e-001
<MEAN> 13
 -1.013283e+001 1.600163e+000 -6.149370e-001 9.337096e-001 -1.595662e+000 -1.158764e+000 -2.203645e+000 -1.956793e+000 -2.748242e+000 -2.072700e+000 -1.727562e+000 -1.207542e+000 2.742583e-001
<VARIANCE> 13
 7.039596e+000 1.323220e+001 1.850990e+001 1.067693e+001 1.239799e+001 1.321542e+001 1.901235e+001 1.540594e+001 1.366903e+001 1.346074e+001 1.761962e+001 1.315154e+001 4.476139e-002
<GCONST> 5.204581e+001
<MIXTURE> 3 2.274511e-001
<MEAN> 13
 -2.194266e-001 2.154623e-004 -4.943457e-002 6.127910e-003 -2.196959e-002 4.578809e-003 -1.486396e-002 -4.151454e-003 -1.519086e-002 -3.169083e-003 -1.118806e-002 3.814147e-003 -1.507575e-001
<VARIANCE> 13
 1.962392e+000 1.780597e-002 1.120086e-001 9.616244e-003 2.750053e-002 4.632379e-003 1.047813e-002 7.883046e-004 1.158105e-002 2.206056e-003 5.116237e-003 8.227693e-004 4.722175e-005
<GCONST> -3.988122e+001
<TRANSP> 5
 0.000000e+000 1.000000e+000 0.000000e+000 0.000000e+000 0.000000e+000
 0.000000e+000 9.759962e-001 2.400379e-002 0.000000e+000 0.000000e+000
 0.000000e+000 0.000000e+000 8.563578e-001 1.436422e-001 0.000000e+000
 0.000000e+000 0.000000e+000 0.000000e+000 9.369709e-001 6.302914e-002
 0.000000e+000 0.000000e+000 0.000000e+000 0.000000e+000 0.000000e+000
<ENDHMM>
~h "san"
<BEGINHMM>
<NUMSTATES> 5
<STATE> 2
<NUMMIXES> 3
<MIXTURE> 1 7.686647e-002
<MEAN> 13
 -2.284336e+001 7.920705e+000 -4.228057e+000 2.756854e+000 5.135401e+000 -1.127445e+000 7.708911e+000 1.924800e+000 5.572501e+000 4.445585e+000 1.450754e+000 3.707532e+000 7.219236e-001
<VARIANCE> 13
 2.689673e+001 2.000411e+001 2.353882e+001 2.584368e+001 1.609189e+001 3.164802e+001 1.779779e+001 1.988438e+001 2.200174e+001 2.188107e+001 1.809353e+001 1.677512e+001 1.446623e-002
<GCONST> 5.634932e+001
<MIXTURE> 2 7.740149e-001
<MEAN> 13
 -3.282655e+000 -8.845989e+000 -4.895275e+000 -9.000731e+000 -1.910648e+000 -1.986937e+000 -5.451710e+000 3.311881e+000 -1.536030e+000 -5.588338e+000 -9.443747e+000 -6.069921e+000 9.412118e-001
<VARIANCE> 13
 1.433140e+001 3.064510e+001 2.675109e+001 2.089800e+001 4.541711e+001 6.147466e+001 3.549886e+001 3.498563e+001 8.075717e+001 5.855931e+001 3.521611e+001 2.498054e+001 2.232659e-003
<GCONST> 6.049903e+001
<MIXTURE> 3 1.491181e-001
<MEAN> 13
 -4.287947e+000 4.618153e+000 -1.709553e+000 -8.247200e-001 -1.628616e+000 -5.500072e+000 -4.403461e+000 3.442409e+000 -1.452161e+000 -3.108085e+000 -4.529710e+000 -2.248790e+000 8.553490e-001
<VARIANCE> 13
 2.481024e+001 2.893555e+001 2.036371e+001 1.729830e+001 1.647379e+001 2.862924e+001 2.153949e+001 2.481017e+001 1.566922e+001 1.877368e+001 1.423646e+001 1.551780e+001 7.600676e-003
<GCONST> 5.497286e+001
<STATE> 3
<NUMMIXES> 3
<MIXTURE> 1 3.312925e-001
<MEAN> 13
 -8.814361e+000 1.124778e+001 9.933370e+000 1.135275e+001 7.370758e+000 5.704122e+000 3.358238e+000 3.007916e+000 1.268304e+000 9.749591e-001 4.742824e-001 3.784213e-001 7.465103e-001
<VARIANCE> 13
 8.590804e+000 1.489345e+001 8.336503e+000 1.103907e+001 1.761353e+001 2.085299e+001 2.529215e+001 2.186514e+001 1.949898e+001 1.514375e+001 1.282120e+001 1.136605e+001 1.076605e-002
<GCONST> 5.162598e+001
<MIXTURE> 2 3.867869e-001
<MEAN> 13
 -6.105237e+000 6.427124e+000 5.615033e+000 3.065624e+000 -6.078083e+000 -6.901500e+000 -7.605501e+000 -6.279136e+000 -6.361087e+000 -7.803268e+000 -8.479643e+000 -3.646277e+000 7.268603e-001
<VARIANCE> 13
 1.021630e+001 1.561893e+001 1.112856e+001 1.233331e+001 2.341483e+001 2.842906e+001 3.057973e+001 5.180614e+001 8.437816e+001 6.147029e+001 3.551379e+001 2.602545e+001 1.275127e-002
<GCONST> 5.877605e+001
<MIXTURE> 3 2.819215e-001
<MEAN> 13
 -6.040115e+000 1.075588e+001 7.851665e+000 5.923913e+000 -4.717524e-001 -1.215146e+000 -3.136181e+000 -3.983478e+000 -3.315192e+000 -1.712939e+000 -2.853643e+000 -1.763919e+000 7.142503e-001
<VARIANCE> 13
 1.141807e+001 1.095851e+001 7.997865e+000 6.313092e+000 1.230074e+001 1.374829e+001 1.167244e+001 1.881387e+001 1.785804e+001 1.871714e+001 1.465158e+001 1.360991e+001 1.587531e-002
<GCONST> 5.013017e+001
<STATE> 4
<NUMMIXES> 3
<MIXTURE> 1 5.190178e-001
<MEAN> 13
 -1.092976e+001 3.699693e+000 1.789096e+000 4.976247e+000 4.223547e+000 5.106705e+000 4.722589e+000 5.370967e+000 4.780639e+000 4.244463e+000 3.714157e+000 3.321279e+000 7.026346e-001
<VARIANCE> 13
 4.139686e+000 9.131071e+000 1.758880e+001 1.286053e+001 1.261699e+001 1.347933e+001 1.283427e+001 1.105329e+001 1.162049e+001 1.179131e+001 1.084364e+001 9.367067e+000 1.403360e-002
<GCONST> 4.831179e+001
<MIXTURE> 2 1.650854e-001
<MEAN> 13
 -1.069539e+001 3.295459e+000 3.312234e+000 3.955032e+000 -3.664376e-001 -2.031691e+000 -3.842403e+000 -3.702899e+000 -4.844530e+000 -5.302048e+000 -5.404608e+000 -3.307492e+000 5.930442e-001
<VARIANCE> 13
 1.294239e+000 6.323037e+000 9.758618e+000 1.073536e+001 1.664575e+001 1.612525e+001 1.458701e+001 1.767548e+001 1.768128e+001 1.561692e+001 1.532613e+001 1.323605e+001 2.284514e-002
<GCONST> 4.894542e+001
<MIXTURE> 3 3.158962e-001
<MEAN> 13
 -1.056843e+001 3.719353e+000 4.243186e+000 6.276885e+000 3.312315e+000 2.636057e+000 4.416992e-001 -2.462997e-001 -9.864134e-001 -9.493372e-001 -1.509992e+000 -9.907748e-001 5.065165e-001
<VARIANCE> 13
 1.687596e+000 5.154031e+000 9.372176e+000 7.786546e+000 8.966153e+000 1.013173e+001 1.055071e+001 1.027583e+001 1.101307e+001 1.089307e+001 1.245696e+001 1.600168e+001 1.600656e-002
<GCONST> 4.548817e+001
<TRANSP> 5
 0.000000e+000 1.000000e+000 0.000000e+000 0.000000e+000 0.000000e+000
 0.000000e+000 9.702173e-001 2.978267e-002 0.000000e+000 0.000000e+000
 0.000000e+000 0.000000e+000 9.312804e-001 6.871960e-002 0.000000e+000
 0.000000e+000 0.000000e+000 0.000000e+000 9.492826e-001 5.071736e-002
 0.000000e+000 0.000000e+000 0.000000e+000 0.000000e+000 0.000000e+000
<ENDHMM>
